/*_____________________________________________________________
 Layer (type)                Output Shape              Param #
=================================================================
 conv2d_4 (Conv2D)           (None, 22, 22, 10)        500

 max_pooling2d_4 (MaxPooling  (None, 7, 7, 10)         0
 2D)

 flatten_4 (Flatten)         (None, 490)               0

 dense_4 (Dense)             (None, 10)                4910

=================================================================
Total params: 5,410
Trainable params: 5,410
Non-trainable params: 0
_________________________________________________________________

*/

		float kernels[10][49]=
		{
			{	0.03046845 ,-0.15591331 ,-0.08459595 ,-0.14070977 ,0.25635859 ,0.56441277 ,0.58463550 ,
				1.16765189 ,1.27865434 ,1.09581232 ,1.02744925 ,1.00606108 ,0.53125030 ,0.20630033 ,
				-0.39838070 ,0.14714615 ,0.45845956 ,0.88217622 ,0.49712989 ,0.02003852 ,-1.26591647 ,
				-1.94581866 ,-0.55891824 ,-0.05659737 ,0.16973169 ,0.32144207 ,-0.72721565 ,-2.34332347 ,
				-1.40506983 ,-1.51368439 ,-1.84635687 ,-1.54129434 ,-1.67756987 ,-1.22554243 ,-0.76440054 ,
				-0.94766450 ,-1.88923240 ,-1.10335398 ,-1.28119087 ,-1.64396584 ,-0.95631784 ,-0.13628285 ,
				0.27739471 ,0.55544859 ,0.91699952 ,-0.28397152 ,-0.47726503 ,0.52700353 ,0.60075754
			},
			{
				-0.22791338 ,0.34339485 ,0.54681295 ,1.11027348 ,-0.16506435 ,-0.75067681 ,-0.97518575 ,
				-0.10311376 ,0.57298118 ,0.67960745 ,0.56499022 ,-0.11217100 ,-1.84889567 ,-0.64045519 ,
				0.17643307 ,0.60174698 ,0.75547040 ,0.43879768 ,-0.39765272 ,-1.40218818 ,-1.54589581 ,
				0.40187651 ,0.73565310 ,0.28073013 ,0.13234589 ,-1.28632390 ,-1.47778785 ,-0.02275420 ,
				0.07242131 ,0.66208917 ,0.50233060 ,-0.77903920 ,-1.55398202 ,-0.95817244 ,-0.28653076 ,
				0.55817103 ,0.09384801 ,0.09355360 ,-1.01525998 ,-1.14063942 ,-0.00117516 ,-0.48227847 ,
				0.13741079 ,-0.03908595 ,-0.28200391 ,-0.93974811 ,0.26884326 ,0.35421205 ,-0.62424850
			},
			{
				-1.33175516 ,-0.04042457 ,-0.53430641 ,-0.81194443 ,-0.58974528 ,-0.06410339 ,0.21573225 ,
				-1.22364259 ,-1.02439761 ,-0.57202375 ,-0.15370291 ,1.03737068 ,0.83351028 ,0.77707839 ,
				-1.15823734 ,0.25792506 ,0.34115893 ,0.84029967 ,0.68223161 ,0.47620949 ,0.03841312 ,
				0.01389856 ,0.01429853 ,0.77681535 ,0.71942252 ,0.07061587 ,-0.14261207 ,-0.17996062 ,
				1.03506541 ,1.04942560 ,0.69077283 ,-0.20581140 ,-0.11779221 ,-0.64806837 ,-0.49083522 ,
				1.24136388 ,0.25409040 ,-0.15565720 ,-0.22924361 ,0.24394707 ,0.33892986 ,-0.01375234 ,
				-0.29451022 ,-0.65873933 ,-0.16608387 ,-0.21845914 ,-0.84219164 ,0.03485981 ,-0.18942563
			},
			{
				0.29967266 ,0.46293601 ,-0.29114109 ,-0.82724482 ,0.92188072 ,0.41526273 ,0.33673865 ,
				0.12234221 ,0.55789477 ,0.49141121 ,-0.25827587 ,0.02927954 ,-0.57027489 ,0.38154045 ,
				-0.05922858 ,-0.09261981 ,-0.46958306 ,-1.30184436 ,-0.18536887 ,-0.35513937 ,-0.46208513 ,
				0.19732893 ,0.08037846 ,0.39583567 ,-0.15979789 ,-0.04751706 ,-1.10930562 ,-1.36345983 ,
				0.19659458 ,1.00964177 ,0.87670863 ,0.69591647 ,0.82648236 ,-1.16071916 ,-0.70924777 ,
				-0.67738354 ,-0.30274343 ,0.40581432 ,0.14623491 ,0.80881965 ,0.81192815 ,0.13212600 ,
				-0.09320209 ,-0.92291427 ,-0.92089289 ,-0.30349761 ,0.71954906 ,0.76238525 ,0.81408358
			},
			{
				0.14903723 ,-0.27336165 ,0.08916962 ,-0.73694164 ,-0.82001477 ,0.22851075 ,0.13336393 ,
				0.27234298 ,-0.13135237 ,0.14272915 ,-0.05491581 ,-1.09918177 ,0.42106351 ,-0.23882551 ,
				0.21762106 ,0.96533257 ,0.21742900 ,-0.42875993 ,-0.98554432 ,0.48804975 ,0.09138191 ,
				-0.28479657 ,1.14186180 ,0.67327595 ,-0.38481411 ,-0.39471579 ,0.41118553 ,-0.15924168 ,
				-0.56528294 ,0.69377923 ,1.08830273 ,0.00505608 ,-0.07230303 ,0.15203258 ,0.17951703 ,
				-0.13342322 ,0.28366375 ,0.66697460 ,-0.00332130 ,-0.38557881 ,-0.38970706 ,0.36837047 ,
				-0.27843103 ,-0.87910950 ,-0.03885780 ,0.56330276 ,-0.03524364 ,-0.57885844 ,0.79052806
			},
			{
				0.74721265 ,0.84812677 ,0.86136585 ,0.15185708 ,-0.23257822 ,-0.34406430 ,-1.01142001 ,
				-0.01090771 ,0.55618101 ,0.01582411 ,0.56150281 ,-0.26907611 ,0.52337265 ,0.39408666 ,
				-0.14505711 ,0.18550052 ,0.20609942 ,0.63261849 ,1.35575271 ,0.42582703 ,1.04962552 ,
				-0.48557365 ,0.03509240 ,0.37683785 ,-0.21415782 ,0.60239363 ,0.86682016 ,0.17748889 ,
				-0.31769541 ,0.08132835 ,0.17301510 ,0.21701719 ,0.18402386 ,-0.18343866 ,0.22801545 ,
				-0.98936456 ,-0.48152673 ,-0.98117834 ,-1.06501925 ,-0.34667885 ,-1.28399253 ,-0.72797084 ,
				-0.70510036 ,-0.24383725 ,-1.27966404 ,-0.46814996 ,-0.85704559 ,-0.51100707 ,0.59780717
			},
			{
				0.87916887 ,1.20258796 ,0.82800305 ,0.20712823 ,0.28642640 ,-0.41653228 ,-0.32092425 ,
				0.68456435 ,0.55839461 ,0.66043282 ,0.03374701 ,0.39210564 ,0.74445319 ,0.32019073 ,
				-0.22191018 ,-1.32623267 ,-0.91732848 ,-0.22346583 ,0.00224131 ,-0.03020552 ,-0.01528558 ,
				-1.02291203 ,-2.31265450 ,-0.78402400 ,0.09154508 ,-0.20903133 ,0.35851160 ,0.57596225 ,
				-0.53883290 ,-1.20028818 ,-0.11030199 ,-0.14132798 ,-0.36842349 ,-0.13303395 ,0.59225506 ,
				0.29018354 ,0.81944305 ,0.56045872 ,0.36797881 ,-0.88977545 ,-0.97121167 ,0.53700459 ,
				0.38457346 ,0.38633177 ,0.40817255 ,0.10502844 ,-0.24614552 ,-0.90306860 ,-0.13914742
			},
			{
				-0.44728881 ,0.21492140 ,0.35955748 ,0.59095788 ,0.55364329 ,0.20868491 ,-0.46593809 ,
				0.15702364 ,-0.22635345 ,-0.26443809 ,0.11381088 ,0.35687420 ,0.62254119 ,0.21909031 ,
				-0.00896317 ,-1.13884068 ,-0.18967766 ,0.72482634 ,-0.04676484 ,-0.06633747 ,0.18523148 ,
				-1.75284767 ,-2.26535654 ,-0.47577411 ,0.99228638 ,0.80852008 ,-0.29364002 ,0.22122644 ,
				-1.64548743 ,-0.99413592 ,0.39097151 ,0.91040677 ,0.77547926 ,-0.41237736 ,-1.12299025 ,
				-2.01913476 ,-0.42391443 ,0.09904946 ,0.74507660 ,0.20660013 ,0.14422472 ,-0.78467280 ,
				-1.22385037 ,-0.68252259 ,0.96772915 ,0.61271369 ,-0.11370216 ,-0.26201913 ,-0.62682050
			},
			{
				0.00823196 ,-0.34805548 ,-0.00703557 ,0.03399414 ,0.27857724 ,0.41188025 ,0.89014214 ,
				-0.39028999 ,-1.12484014 ,-0.51990557 ,0.30030587 ,-0.37239078 ,0.64463836 ,0.93194306 ,
				-0.88766801 ,-1.66526878 ,-1.95099354 ,-1.41833377 ,0.25598213 ,0.90120399 ,1.23377657 ,
				-1.03642380 ,-0.53076243 ,-1.57180786 ,-3.62871432 ,-3.32151175 ,-1.37266099 ,0.00401889 ,
				0.33363715 ,-0.20917042 ,0.57796347 ,-0.44685757 ,-1.66718960 ,-1.74592412 ,-0.72446066 ,
				0.49503902 ,0.33574924 ,0.26035318 ,1.25622320 ,-0.05815300 ,-0.68217772 ,-0.90603876 ,
				0.88366097 ,0.94646490 ,-0.40395370 ,1.06842589 ,0.56127858 ,0.82703495 ,0.13738848
			},
			{
				-0.75405228 ,-0.73898482 ,0.24772701 ,0.80394411 ,-0.31921417 ,-0.15187539 ,-0.60519797 ,
				0.14620356 ,0.39634240 ,0.15455513 ,-0.04368245 ,0.32383975 ,-0.44796389 ,-0.32395676 ,
				0.55484945 ,0.37284088 ,-1.07050323 ,-2.07034945 ,-0.74302340 ,1.11076641 ,0.04920206 ,
				-0.15966094 ,0.70764393 ,-0.71920240 ,-1.42081487 ,0.02964238 ,0.96030748 ,0.61251193 ,
				-0.21869633 ,0.22476402 ,0.48903680 ,0.30311891 ,0.52415466 ,-0.45265329 ,-0.99353385 ,
				-0.06860970 ,-0.19585644 ,0.32043114 ,0.40763241 ,0.42631710 ,-0.82225037 ,-0.96636379,
				0.03339408 ,0.34454018 ,-0.46794510 ,0.42662722 ,0.96048892 ,0.02565627 ,-0.04794814
		  }
		};



		float kernelsBias[10]=
			{-0.00292761,  0.09419072, -0.9671566 , -0.79046655, -0.5115207
			 -0.5088257 , -0.37733042, -0.29923326,  0.28411627, -0.2566639 };




		float dense[490*10]=

			{-0.27782202 ,-0.84978795 ,0.24489328 ,-0.23539676 ,-0.44822693 ,0.31138608 ,-0.12559326 ,-0.24742515 ,-0.25855103 ,0.60016042
			, -0.34860837 ,0.43414977 ,-0.16782179 ,-0.06303249 ,-0.59524906 ,0.60244381 ,0.06075013 ,0.35425082 ,-0.37611493 ,0.15741009
			, -1.14650202 ,-0.11466085 ,0.91342753 ,-0.35531592 ,-0.53671771 ,-1.19250941 ,0.99531460 ,-1.84350967 ,-1.24030674 ,-0.14213312
			, -0.31010273 ,0.74256891 ,0.08484356 ,0.24760790 ,-0.70626020 ,-0.11484823 ,0.03048007 ,0.10840941 ,0.07599872 ,-0.36637414
			, -1.06230605 ,-0.00980844 ,-0.03837134 ,-0.20255117 ,-0.87585831 ,-0.05491580 ,1.18095899 ,0.10341641 ,-1.10858166 ,1.51146376
			, 0.28834438 ,0.29541507 ,0.53429258 ,0.39017418 ,-1.06518757 ,-1.29596889 ,0.04634938 ,0.40100870 ,-0.59904706 ,-1.11471176
			, 0.23246494 ,0.78085285 ,-0.67520076 ,0.19772153 ,-0.87407184 ,-0.25432742 ,1.36511230 ,-0.54001254 ,0.62352395 ,-0.42831603
			, -0.60573453 ,-0.53697294 ,-0.76613277 ,-1.21544302 ,0.73610228 ,0.40724784 ,0.83168918 ,0.98308784 ,-0.84904659 ,-1.69982159
			, 0.49475414 ,0.21926817 ,-0.35674918 ,0.14545402 ,-0.04364691 ,0.23801918 ,-0.42043817 ,0.14834882 ,-0.08327683 ,-0.36079851
			, 0.01995332 ,-0.28628519 ,0.63675112 ,-0.00606757 ,0.14984630 ,-0.53835130 ,-0.24263805 ,-0.22955436 ,0.55287230 ,-0.84458065
			, -0.48626849 ,-1.44156444 ,0.31893873 ,0.04030344 ,0.33970064 ,-1.21094441 ,-0.95820034 ,0.62669349 ,-0.21316291 ,0.57810044
			, -0.38737822 ,1.06053197 ,0.21527825 ,0.61526603 ,-0.05694403 ,0.44623372 ,0.71334946 ,-0.92473733 ,-0.82733321 ,-0.56103277
			, 0.32574058 ,-1.91741729 ,-0.73677588 ,-0.10604554 ,-1.04916501 ,-0.29640892 ,0.66381341 ,0.64869821 ,0.97278428 ,-1.86715055
			, -0.17429622 ,0.80645829 ,-0.23446591 ,0.10850330 ,-0.17788568 ,0.26057574 ,-0.44114107 ,0.42682540 ,0.14950760 ,-0.72268242
			, -0.55023074 ,0.97064632 ,-0.11043244 ,0.34343433 ,0.30512261 ,-0.27591044 ,0.63510734 ,-0.24533439 ,0.61654454 ,-1.57626927
			, -0.73180699 ,0.09085330 ,1.24626172 ,0.39964661 ,-3.01745796 ,-1.93318629 ,0.65324390 ,-1.83304763 ,-0.41123095 ,-3.60181022
			, -0.41825518 ,1.48942232 ,-0.51741791 ,-0.06866784 ,0.39528051 ,0.98792720 ,-1.11434197 ,-0.20690741 ,-0.14343862 ,-0.71969622
			, 0.24214526 ,-0.45845789 ,-0.19022417 ,-0.16150221 ,0.22597869 ,-0.09173129 ,-0.03877873 ,-0.72789598 ,0.59772527 ,0.00999283
			, -0.22053669 ,-0.61615479 ,0.45577541 ,-0.44208252 ,0.17588592 ,0.42534316 ,-0.68343973 ,0.23101996 ,-0.57259542 ,-0.08402359
			, -0.23349780 ,-1.37758386 ,-0.19840194 ,-0.65087146 ,0.77590650 ,0.47052902 ,-0.34275356 ,0.10990845 ,0.10445962 ,0.25195256
			, -0.21796158 ,0.19528903 ,-0.13982995 ,0.20954192 ,-0.20531425 ,-0.72505707 ,0.32737327 ,0.13774215 ,0.73261762 ,-0.44842327
			, -0.23442070 ,1.23097301 ,-1.23822749 ,-0.16196689 ,0.44420993 ,0.07148919 ,1.03999102 ,0.68681347 ,-0.26820174 ,-2.79767632
			, -0.04749613 ,0.07145221 ,0.18469194 ,-0.09451022 ,0.35030380 ,0.31657550 ,0.18190661 ,-1.03419173 ,0.19737053 ,-0.69541496
			, -0.03838714 ,0.35220963 ,0.22321989 ,0.18261427 ,0.15462652 ,0.46310309 ,-0.79397035 ,0.11054251 ,-0.16056404 ,-0.44657493
			, -0.48499495 ,-0.04055724 ,-0.30047935 ,0.13396598 ,0.10856602 ,0.28067541 ,0.61365265 ,-0.36537680 ,0.22451949 ,-0.24962215
			, -1.04670084 ,-0.57886463 ,0.58915854 ,0.68946254 ,0.33702818 ,-1.15105724 ,-0.72446734 ,-0.34875289 ,-0.19141836 ,0.73967463
			, -0.75700247 ,0.76788747 ,-0.24140349 ,1.11836386 ,-0.17542925 ,-0.71996009 ,-0.49999297 ,0.49703133 ,-0.23476495 ,-0.30589846
			, -0.12796023 ,-0.34692928 ,0.22512849 ,-0.69366348 ,-0.04859470 ,0.39562085 ,0.66809034 ,-0.58238173 ,-0.42804664 ,0.25359303
			, -0.52235293 ,-0.84499407 ,0.03366714 ,0.28054228 ,0.37390569 ,0.25712124 ,-0.62842590 ,-0.04126505 ,-0.04218599 ,0.05340346
			, -0.04397659 ,0.49778610 ,-0.27583760 ,-0.10893784 ,0.67228180 ,-0.14334755 ,-0.43368828 ,-0.50464040 ,0.08693457 ,0.32540703
			, -0.74237055 ,0.18571156 ,-0.12911275 ,0.46861875 ,-0.64255482 ,-0.40860790 ,-0.35452420 ,-0.12063013 ,-0.08824002 ,0.49097258
			, 0.11312848 ,0.38313407 ,-0.94335443 ,0.26408464 ,0.21269655 ,-1.36551893 ,0.94741577 ,0.15398017 ,0.98630255 ,-1.07703245
			, 0.02712227 ,-0.23967990 ,-0.05128087 ,-0.24896313 ,-0.70892519 ,0.02764427 ,0.04004816 ,-0.64964163 ,0.44310206 ,0.55979460
			, 0.01924201 ,-0.09273893 ,-0.16407084 ,-0.24360152 ,0.35378823 ,-0.14628173 ,-0.30834341 ,0.21939133 ,-0.05769090 ,-0.00456182
			, -0.25297415 ,0.38915721 ,-0.04596821 ,0.16381010 ,0.01186926 ,-0.25071314 ,-0.21140888 ,-0.24946137 ,0.03058133 ,0.09193197
			, 0.31648102 ,-0.39761403 ,0.12461784 ,0.48302796 ,-0.71155685 ,-0.09030124 ,-0.41185030 ,0.76812792 ,0.16217588 ,-0.81989849
			, -0.36552608 ,0.14747430 ,0.19927524 ,0.22005278 ,-0.23856139 ,-0.65221322 ,-0.08117543 ,-0.01189669 ,0.18387967 ,-0.01408511
			, -0.14375350 ,0.63425779 ,-0.45704445 ,-1.17157137 ,0.54269224 ,0.41260982 ,0.36635804 ,-0.89601290 ,-0.21608149 ,-0.28140935
			, -0.27122340 ,-0.18566428 ,-0.14301173 ,0.49482203 ,0.06501292 ,-0.22732542 ,-0.56990373 ,0.24138799 ,-0.18567991 ,0.26273063
			, 0.02313820 ,0.09330361 ,0.06725120 ,-0.12607348 ,-0.36558536 ,-0.19438595 ,0.02590637 ,-0.04998710 ,0.16618031 ,0.07008281
			, -0.08154549 ,-0.43811056 ,0.18015102 ,0.80312550 ,0.26250502 ,0.75221384 ,-0.24998985 ,-0.35609099 ,-0.47490540 ,-0.14510895
			, -0.19973509 ,0.48948696 ,-0.55481035 ,0.49000600 ,0.32501131 ,-0.12709817 ,-0.19130346 ,-0.17710650 ,0.09321325 ,-0.49739787
			, 0.13305299 ,-0.26729217 ,-0.27046558 ,0.00401499 ,-0.47058153 ,0.37376380 ,0.08897120 ,-0.34601068 ,0.43889436 ,-0.05869060
			, 0.35066721 ,-0.06451163 ,0.04912979 ,0.30884564 ,-0.15495248 ,-0.33260432 ,-0.05740488 ,-0.48426700 ,0.02421625 ,0.10737281
			, 0.18576713 ,-0.08844966 ,-0.29544988 ,0.16405533 ,0.37283137 ,-0.02038093 ,-0.10522474 ,-0.25001067 ,-0.00756017 ,0.16004145
			, 0.22053491 ,-0.00252110 ,0.31123391 ,0.58772004 ,-0.18560404 ,-0.79670650 ,-0.33698687 ,-0.15574431 ,-0.27635691 ,-0.31594202
			, 0.29698211 ,-0.20569710 ,0.17823073 ,0.05757079 ,0.13626154 ,0.29504046 ,0.46630648 ,-0.39331213 ,0.32346722 ,-0.38348466
			, -0.17050692 ,0.09527501 ,0.40662658 ,-0.59825629 ,1.19556880 ,-0.14535789 ,-0.00985945 ,-1.05987167 ,-0.11784737 ,-1.23668027
			, -0.03636087 ,-0.03748826 ,-0.35905543 ,0.15201782 ,0.01382779 ,-0.01682353 ,-0.12883814 ,0.16422422 ,0.12063067 ,0.39893687
			, 0.83352876 ,0.23541816 ,0.10073494 ,-0.40014738 ,-0.06144865 ,-0.09603896 ,-0.57320130 ,-0.57864147 ,0.15982665 ,0.15662557
			, 0.23869668 ,-0.49260712 ,-0.57640892 ,-1.10233927 ,0.03664609 ,0.14332509 ,-0.11479024 ,0.23323002 ,-0.14281446 ,0.69733685
			, -0.50056982 ,0.22897446 ,-0.53508466 ,0.32046059 ,-0.09378801 ,-0.09278043 ,0.23222262 ,0.13019416 ,-0.02316717 ,-0.01461210
			, -0.00109563 ,0.00746007 ,-0.13702825 ,-0.05387847 ,-0.13530162 ,-0.13248762 ,0.03503487 ,-0.31803158 ,0.07560907 ,0.51539493
			, -0.16578807 ,0.09538191 ,0.21940242 ,-0.00722255 ,0.11280677 ,-0.26663995 ,0.10253710 ,-0.32430124 ,-0.33313468 ,0.27340150
			, -0.13817750 ,-0.33620608 ,0.22770214 ,0.32235953 ,-0.56601173 ,-0.03974803 ,-0.55873042 ,-0.19735791 ,0.30996215 ,0.29092264
			, -0.33241230 ,-0.97181582 ,0.37537265 ,0.22328253 ,-0.88738352 ,0.13838390 ,-0.35163552 ,1.08518195 ,0.87689787 ,-2.24121952
			, 0.20359989 ,-0.05588667 ,-0.39113715 ,-0.28461891 ,0.64512146 ,-0.00924181 ,-0.03215877 ,-0.02521975 ,-0.01925165 ,0.32762009
			, -1.21285486 ,0.48569244 ,-0.59449720 ,-0.43594000 ,1.12920475 ,0.22007391 ,-0.08561389 ,-0.72441918 ,-0.44157228 ,-0.34530717
			, 0.26701415 ,-0.26067525 ,-0.07610051 ,0.14788300 ,-0.05187587 ,-0.00167666 ,-0.24430257 ,-0.49845988 ,0.18411303 ,0.35872594
			, -0.17505763 ,-0.14199139 ,0.16955979 ,0.18134739 ,-0.23911884 ,-0.45145127 ,-0.41987562 ,-0.11238925 ,0.18012340 ,0.38678187
			, -1.44849980 ,0.47210181 ,-1.05645490 ,-0.34217867 ,0.36288244 ,0.23668814 ,0.13690691 ,0.01232203 ,0.50125736 ,0.15308513
			, 0.19673727 ,0.51446736 ,-0.56163263 ,0.05747247 ,-0.08553938 ,0.42419672 ,-0.01266616 ,0.19170903 ,-0.09616639 ,-0.47335625
			, 0.38232717 ,0.07458197 ,-0.23981898 ,0.24982472 ,0.00928012 ,-0.26826382 ,-0.16945417 ,0.99288118 ,-0.24170017 ,-0.32621101
			, 0.34831747 ,-0.63368523 ,0.12759671 ,0.61319011 ,-0.16968153 ,-0.78547531 ,-0.41483328 ,-0.47258189 ,0.23340806 ,0.60082477
			, 0.36662266 ,-0.26637694 ,-0.21781036 ,-0.13876997 ,-0.18126103 ,0.03153399 ,0.42248029 ,-0.67280358 ,-0.15953860 ,0.49763441
			, 0.54485106 ,-0.80491847 ,-0.82726127 ,-2.05353451 ,0.13033548 ,0.65459442 ,-0.00919456 ,-0.21992075 ,-0.00972267 ,-1.29993188
			, -0.51043522 ,0.29498446 ,-0.47122109 ,0.44859785 ,-0.31402364 ,-0.33869103 ,0.26781541 ,-0.16207713 ,0.18608560 ,0.22890830
			, 0.16332760 ,-0.09718964 ,-1.55352068 ,-2.40688396 ,0.59990460 ,1.52266264 ,-0.07065061 ,0.15512684 ,0.65486228 ,-1.62330174
			, 0.23964104 ,0.18267018 ,-0.07335188 ,0.17886928 ,-0.42060992 ,-0.44883233 ,-0.59558880 ,0.00990184 ,0.24867848 ,0.33307114
			, 0.77031106 ,0.68173683 ,-0.08222039 ,-0.41841671 ,0.18363665 ,-0.37766448 ,-0.07212218 ,0.30153528 ,-0.01566378 ,-0.40317836
			, 0.02375979 ,-0.67807835 ,1.03642297 ,0.49686000 ,-0.05376710 ,-1.99146354 ,0.09158052 ,0.06053142 ,-0.37668893 ,-0.25713360
			, -0.72930682 ,0.13742737 ,0.33712906 ,-0.62602955 ,-0.27276203 ,0.53619301 ,0.60692221 ,0.48500946 ,-0.65476573 ,0.10017641
			, 0.86473507 ,-0.33126998 ,0.49104181 ,0.28282082 ,0.69530594 ,-0.60959864 ,-1.86839724 ,-0.50996780 ,-0.24966060 ,0.63742101
			, 0.84566057 ,-0.21062189 ,0.19184408 ,-0.26129594 ,0.21800333 ,-0.04207868 ,-0.15453011 ,-0.19217806 ,0.27985623 ,0.00851688
			, -0.34544766 ,0.18790367 ,-0.55613184 ,0.29911020 ,-0.50686747 ,-0.42900500 ,0.45133948 ,0.09693702 ,0.77824545 ,-0.00523099
			, 0.01703599 ,-0.17565399 ,0.09947925 ,0.00182546 ,-0.23507689 ,-0.28720072 ,0.34231374 ,0.36298707 ,-0.41399640 ,0.33446926
			, 0.11962402 ,-0.23094121 ,-0.75675637 ,0.09788979 ,0.11770464 ,-0.24275130 ,-0.46981415 ,-0.19699736 ,0.69546747 ,0.81018853
			, -0.01314445 ,-0.31122038 ,-0.08285734 ,0.31024373 ,0.38268834 ,-0.45090833 ,0.43939304 ,-0.00359004 ,-0.12001117 ,-0.50864249
			, 0.34363198 ,0.16664575 ,0.12065876 ,0.11323512 ,0.16411966 ,-1.14336419 ,0.22383976 ,0.34236175 ,0.41701496 ,-0.76769656
			, -0.47966760 ,0.21232758 ,-0.29959366 ,-0.63984954 ,-0.81828779 ,0.33507714 ,0.18307257 ,0.47636795 ,1.06598008 ,0.27283606
			, -0.95547557 ,-0.18192130 ,0.10120782 ,0.47055224 ,-0.23235190 ,-0.83128333 ,0.30123019 ,0.36393145 ,-0.49024519 ,-0.04296941
			, -0.40499473 ,0.45513496 ,-0.27547917 ,-0.23776755 ,1.11025858 ,0.07401151 ,0.37844333 ,-0.10218357 ,-0.41910630 ,-2.02016616
			, -0.30423051 ,-1.15217292 ,0.10578941 ,0.11899148 ,-0.42522049 ,0.14333753 ,-0.55963063 ,-0.09654936 ,0.09655485 ,0.63442087
			, -0.12411096 ,0.16695628 ,-0.53618240 ,-0.63641924 ,0.11619396 ,0.10315151 ,-0.06515361 ,0.20971230 ,-0.35078010 ,0.85882324
			, 0.77879149 ,1.43263113 ,-0.70072645 ,0.05978328 ,-0.23632604 ,0.33274314 ,-0.44305632 ,0.15551479 ,0.17401557 ,-0.13491173
			, -1.20912981 ,0.11548423 ,0.11265157 ,0.40815297 ,-1.72451019 ,-0.00473967 ,-0.30679515 ,0.10878289 ,0.03004771 ,-0.43161896
			, -0.33367988 ,0.12672435 ,-0.78145605 ,-0.24563092 ,0.80452585 ,0.33374235 ,-0.48599854 ,0.43887153 ,-0.22877060 ,0.42092320
			, 0.40302974 ,-0.50139105 ,0.05511454 ,-0.60803413 ,-0.52356499 ,0.02531929 ,0.36149430 ,-0.11161168 ,0.40414724 ,0.02779843
			, -0.06178948 ,0.11418413 ,-0.02555463 ,0.54030013 ,-0.01943605 ,-0.14181566 ,-0.64638942 ,0.67202890 ,-0.36816978 ,-0.74948132
			, -0.54281932 ,-1.17162633 ,-0.43840232 ,0.78933233 ,0.57057869 ,-0.12802760 ,-0.54548347 ,0.17739935 ,-0.15554930 ,0.14014576
			, -0.93536299 ,-0.38855660 ,0.13884914 ,-0.00477248 ,-0.44304317 ,-0.25887746 ,-0.28079337 ,0.52890682 ,-0.19218501 ,0.16437069
			, -0.23020229 ,0.68824482 ,-1.17347670 ,-0.95298791 ,0.49756998 ,0.97047645 ,0.54773933 ,-0.91284114 ,-0.15246758 ,-0.18098751
			, 0.15847702 ,-0.62775916 ,0.17781176 ,-0.17191745 ,-0.44299060 ,-0.22616571 ,-0.29720342 ,0.35971758 ,0.26635569 ,0.10905456
			, -0.56556863 ,0.01895195 ,-0.25500584 ,0.52421272 ,-0.12506452 ,0.59655744 ,0.24934995 ,-0.35948932 ,-0.13015565 ,0.06008089
			, 0.31968203 ,0.17753689 ,-0.64781618 ,-0.26336405 ,0.52688175 ,0.27038455 ,-0.84616172 ,0.03195630 ,0.25578776 ,-0.03559143
			, 0.11682739 ,-0.10830743 ,0.00203636 ,0.17553434 ,-1.00485671 ,-0.29037210 ,0.12403803 ,0.37340087 ,0.00425556 ,-0.14463067
			, -0.73248106 ,0.05696335 ,0.10842574 ,-0.47120038 ,0.40291694 ,0.42957225 ,-0.69555598 ,0.24901573 ,0.22670093 ,-0.12858419
			, -0.00800795 ,-0.46798846 ,0.39354777 ,-0.60793382 ,0.35460705 ,-0.40024954 ,0.45561516 ,-0.34614345 ,0.20420496 ,0.33151144
			, -0.13576363 ,-0.13919890 ,0.23788138 ,0.70449102 ,0.01019868 ,-0.80168611 ,-1.16837537 ,0.74564606 ,0.35149562 ,-1.07262552
			, 0.14118059 ,0.15630244 ,-0.25363299 ,0.36091220 ,0.02994018 ,-0.68611729 ,-0.18800652 ,-0.22144522 ,0.50542426 ,-0.05143937
			, 0.27062917 ,0.41960937 ,-0.00897968 ,-0.23062360 ,-1.53259230 ,0.60489064 ,-0.15688455 ,0.47374842 ,-0.25004128 ,0.14226136
			, 0.48308158 ,0.65159130 ,-0.63555127 ,-0.03191058 ,0.70176566 ,0.05182297 ,-0.06937347 ,-0.74559122 ,-0.58725804 ,-0.76452410
			, -0.13436866 ,0.03874889 ,0.13206218 ,-0.03142346 ,-0.47074929 ,-0.12948747 ,-0.11294814 ,-0.23014672 ,0.40951741 ,0.32788762
			, 0.50386453 ,0.27362984 ,0.16571420 ,-0.46340519 ,-0.87478429 ,0.09381303 ,-0.65501916 ,-0.00124454 ,0.39639521 ,0.45059296
			, -0.03324034 ,-0.54137129 ,-0.43497464 ,0.16808435 ,0.39687890 ,0.46392557 ,-0.84368598 ,0.26033127 ,0.22142626 ,-0.20250092
			, -0.47815806 ,-0.64531076 ,0.14938281 ,0.48154262 ,-0.98043656 ,-0.33341300 ,0.06880478 ,0.41144562 ,0.16424268 ,-0.26518115
			, -0.11547881 ,-0.08247553 ,0.06968004 ,0.05488153 ,-0.27561554 ,-0.36036980 ,-0.18638538 ,0.02710645 ,-0.24369235 ,0.40856880
			, 0.05647090 ,-0.35943064 ,0.16570546 ,-0.23322923 ,0.26462957 ,0.02453831 ,0.19870196 ,0.17385101 ,-0.57697403 ,0.16294208
			, 0.37886861 ,-0.57283318 ,0.50949866 ,0.20293172 ,-0.34625581 ,-0.05007196 ,-0.97311628 ,-0.01960615 ,0.18668212 ,-0.17978299
			, -0.12037647 ,-0.02752939 ,0.38160834 ,-0.20584276 ,-0.13667914 ,-0.12703003 ,0.01951092 ,0.01871454 ,-0.22360857 ,0.29153860
			, -0.39462110 ,1.69219661 ,-0.00534756 ,-0.23247832 ,-0.15948363 ,0.63009721 ,0.05795574 ,-0.31274033 ,-0.67787951 ,-0.04960373
			, -0.56746459 ,0.19289689 ,-0.08954026 ,0.01352312 ,0.18820333 ,-0.39624125 ,-0.19617718 ,0.13580707 ,-0.07543632 ,0.44945687
			, -0.03803728 ,0.31395906 ,0.12911138 ,-0.43861759 ,-0.17329413 ,0.29200795 ,-0.36019468 ,-0.35613522 ,0.19845240 ,0.27899331
			, 0.32237601 ,-0.42693713 ,0.50548285 ,0.08727210 ,-0.25676024 ,-0.20920414 ,-0.29108989 ,-0.04076182 ,-0.09493266 ,0.12831859
			, 0.25078657 ,0.11125727 ,0.23282172 ,0.18954432 ,0.16247064 ,-0.50531501 ,-0.67157072 ,-0.31291708 ,0.34166393 ,0.09843589
			, -0.10167252 ,-0.43531540 ,0.40845102 ,0.20646663 ,-0.99357742 ,0.03567030 ,-0.33554676 ,0.19118629 ,0.18650885 ,0.04260323
			, 0.12791212 ,-0.80784434 ,-0.19483873 ,-0.29726490 ,0.14645481 ,0.02954057 ,0.32905218 ,0.25109065 ,0.15272154 ,0.09996562
			, 0.19428509 ,0.46004876 ,0.08845577 ,-0.24109663 ,0.12719823 ,-0.21459915 ,-0.03284363 ,0.52064788 ,-0.55962843 ,-0.46298850
			, 0.37210304 ,-0.73553169 ,0.09415486 ,-0.20324908 ,-0.38996834 ,-0.37342015 ,0.10203084 ,0.01729453 ,0.21046974 ,0.26546049
			, 0.46712700 ,0.57439405 ,0.07149923 ,-0.08315191 ,0.36250225 ,-1.11545885 ,-0.62348163 ,-0.15363096 ,0.26375294 ,-0.08066682
			, -0.46528327 ,0.57179928 ,-0.62188417 ,-0.50128692 ,-0.14784853 ,0.18055910 ,0.56228256 ,0.42114383 ,-0.02498800 ,-0.54747277
			, -0.41817185 ,-0.02086742 ,-0.37603518 ,-0.12029200 ,0.41754204 ,0.17715013 ,-0.10816443 ,0.08242476 ,0.08713975 ,-0.09204608
			, 0.33837268 ,0.42547062 ,-0.46963450 ,-0.65015787 ,0.04502198 ,0.37342131 ,0.07789247 ,0.11664382 ,0.04653182 ,-0.13616052
			, 0.13372391 ,0.27750149 ,-0.14794226 ,-0.17042735 ,-0.10939869 ,-0.24373841 ,-0.19772199 ,0.29517102 ,0.15775995 ,-0.02970048
			, 0.47126946 ,-0.39096776 ,0.09197621 ,0.25558007 ,-0.06669847 ,-0.39154941 ,-0.54384613 ,0.12083475 ,0.19872801 ,0.10898438
			, -0.19724871 ,-0.49110124 ,0.12196983 ,-0.07511534 ,-0.96750045 ,0.33160940 ,-0.13080764 ,0.03871164 ,0.08058130 ,0.14590599
			, -0.38404495 ,-0.64826322 ,-0.22567651 ,0.32725608 ,0.04236036 ,0.23717405 ,0.39534622 ,0.02948996 ,-0.04033234 ,0.03042120
			, -0.22738820 ,0.09118418 ,0.56762403 ,-0.24692553 ,0.22775646 ,-1.27484953 ,-0.38857800 ,-0.11036672 ,-0.00234513 ,0.22204760
			, 0.23969157 ,-0.01476877 ,-0.21764971 ,-0.11407294 ,-0.23113039 ,0.16063604 ,0.49581620 ,0.10549638 ,-0.44655129 ,-0.04892994
			, 0.71277374 ,-0.33117080 ,0.12897389 ,-0.43478084 ,0.51324749 ,-0.03663123 ,-0.85958630 ,-0.03583970 ,0.12058409 ,0.04425791
			, -0.63245004 ,-0.45857620 ,-1.51398349 ,-1.20339227 ,0.33200875 ,0.78076571 ,0.24617676 ,0.57202959 ,0.16501972 ,-0.31261367
			, -0.44660032 ,0.53230274 ,0.00147003 ,-0.01962826 ,0.15408504 ,-0.23323126 ,0.07854173 ,0.11705758 ,-0.22738101 ,0.05126423
			, 0.02133314 ,0.29866815 ,-0.69273901 ,-0.99653554 ,0.52148753 ,0.36404407 ,-0.08687226 ,-0.04073454 ,0.18389848 ,-0.01534101
			, 0.79124194 ,-0.30426261 ,-0.24327883 ,-0.18152034 ,-1.07530344 ,0.11249051 ,-0.62984699 ,0.32259655 ,-0.27849096 ,0.75394678
			, -0.11924637 ,-0.25917333 ,-0.17374185 ,0.15146056 ,-0.01695920 ,-0.22218479 ,0.11502844 ,-0.28485069 ,0.59333825 ,-0.17303807
			, -0.00423155 ,-0.09561238 ,-0.47325137 ,0.33994821 ,-0.54930103 ,-0.23623796 ,0.30722243 ,-1.44690192 ,0.16073178 ,0.82337642
			, -0.28637797 ,-0.09614315 ,-0.26639658 ,0.64796817 ,-0.36844882 ,0.28224352 ,0.15312165 ,-0.03059344 ,0.00562194 ,-0.32073608
			, 0.03188615 ,0.81702960 ,0.38438219 ,0.52541137 ,0.54219627 ,-1.79187512 ,-0.15704690 ,-0.18295702 ,0.24679275 ,-1.03017747
			, 0.38795406 ,0.97267956 ,-0.49466369 ,-0.39553800 ,-0.22455303 ,0.05194866 ,0.02051398 ,-0.00419171 ,0.22351739 ,0.29921871
			, 0.18967183 ,-0.23578267 ,-0.22685723 ,-0.10050630 ,0.13209510 ,-0.59119493 ,-0.17875920 ,-0.06656110 ,0.21443872 ,0.12606753
			, -0.29735160 ,-0.60157889 ,0.44699314 ,0.49479160 ,0.28146484 ,-0.98713672 ,0.53810334 ,-0.01468711 ,-0.48334125 ,-0.29131028
			, -0.36367443 ,0.48500594 ,0.27248752 ,0.24743633 ,0.07998767 ,-0.26290500 ,0.85219628 ,-0.97752982 ,-0.67912346 ,0.19602250
			, -0.67305183 ,-0.10469367 ,0.55419236 ,0.09656164 ,-0.58105361 ,-0.61996949 ,0.38764596 ,0.01971039 ,-0.04160313 ,0.25033578
			, 0.53425831 ,-0.53111207 ,1.03196371 ,-0.64127427 ,0.23697701 ,-0.22216992 ,-0.54934466 ,0.37054181 ,0.05064506 ,-0.72055048
			, 0.54378408 ,-0.14405051 ,-0.01547263 ,-0.93612045 ,0.28090084 ,-0.08568195 ,0.09273638 ,0.06203122 ,0.54737520 ,-0.45087770
			, 0.07393037 ,-0.71517956 ,0.23138839 ,0.27454007 ,-0.15119670 ,-0.55261081 ,0.15836543 ,0.32546300 ,-0.49620768 ,-0.33792034
			, 0.62521636 ,-0.09967439 ,-0.33229205 ,0.05735154 ,-0.36429021 ,-0.47325316 ,-0.41215968 ,0.19962700 ,0.55536902 ,-0.16450891
			, -0.19400713 ,-0.38489106 ,-0.04109976 ,-0.26643586 ,0.44113311 ,-0.36213437 ,0.27135929 ,-0.13280322 ,-0.21504511 ,0.19282942
			, -0.34954005 ,0.07065376 ,0.42887077 ,0.43310699 ,-0.49543092 ,-0.91388774 ,0.00494229 ,0.02124975 ,-0.32126594 ,0.18268020
			, -0.37903076 ,0.88438857 ,-0.33915272 ,0.14068325 ,0.28932479 ,-0.02454700 ,0.23226389 ,-0.41979215 ,0.17002216 ,0.03867035
			, -0.74489170 ,0.41809320 ,-0.02688111 ,0.37434530 ,0.31598827 ,-0.38795441 ,0.04590370 ,0.40450108 ,-0.62402827 ,-0.54291111
			, -0.39796606 ,0.94737720 ,0.61078662 ,-0.38833880 ,0.83554530 ,-1.21659875 ,0.85016453 ,-0.74179637 ,-0.32130083 ,-0.55930573
			, -0.31788760 ,-0.15069924 ,0.14921165 ,0.21025968 ,-0.32499000 ,-0.47960749 ,0.09250616 ,-0.58786291 ,0.33338651 ,0.57193238
			, -0.07288298 ,-0.50851053 ,-0.43918911 ,-0.84658998 ,0.85771263 ,0.32457381 ,0.60040867 ,-0.35628042 ,-0.04075732 ,0.22515419
			, 0.31115946 ,0.82853752 ,-0.27972886 ,-0.61630774 ,-0.01501049 ,-0.19333614 ,0.50741118 ,-0.22691146 ,0.30528694 ,0.17450519
			, 0.05683418 ,-0.31606537 ,0.15928008 ,-0.11159721 ,-0.67085946 ,0.10615802 ,-0.39410424 ,0.62195516 ,-0.11592378 ,-0.48547706
			, 0.22619800 ,-0.61220056 ,-0.65547419 ,-0.43493232 ,0.58666152 ,-0.00757737 ,0.49734125 ,-0.02751826 ,1.06398439 ,-0.20756140
			, -0.09943160 ,-0.45899436 ,-0.05928475 ,-0.26497227 ,0.05948935 ,-0.13187866 ,0.40648416 ,-0.02797079 ,0.04351409 ,0.05222257
			, -0.83867681 ,0.46861222 ,0.60152107 ,0.45028022 ,-0.30221027 ,-0.33917585 ,-1.25271237 ,0.30809712 ,-0.41390678 ,-0.63366419
			, -0.45040593 ,0.54367280 ,-0.56495649 ,0.33126685 ,0.07978310 ,0.17729037 ,0.19862270 ,-0.79322207 ,-0.08656383 ,0.61143130
			, 0.48938578 ,-0.07546513 ,0.07103822 ,0.06826738 ,0.36371920 ,0.18894114 ,-0.55590272 ,0.20389928 ,-1.03292012 ,0.08767384
			, -0.12155224 ,-0.00173084 ,0.26678458 ,-0.12230620 ,0.02262043 ,-0.20435607 ,0.31456971 ,0.50092262 ,-0.32625502 ,-0.19061922
			, -0.12640072 ,-0.05664587 ,-0.08739728 ,0.35730773 ,-0.30798495 ,0.10884284 ,-0.07060473 ,-0.17187804 ,0.10980664 ,0.33879399
			, 0.19021752 ,-0.67304373 ,0.18778941 ,-0.44287369 ,0.16218077 ,-0.26055369 ,-0.24087256 ,-0.19098762 ,0.52438200 ,-0.04439797
			, 0.57877105 ,0.77822340 ,-0.77426445 ,-0.39569885 ,0.25486642 ,0.47264433 ,0.69152409 ,-0.39949697 ,-0.14234835 ,-0.19569145
			, 0.15980317 ,-0.31636113 ,0.20028380 ,0.28120720 ,-0.46356761 ,-0.20617442 ,-0.86082411 ,0.56595016 ,-0.29814178 ,-0.17276792
			, 0.40788966 ,-0.17556852 ,-0.02654721 ,-0.39832026 ,0.32670557 ,0.24338835 ,-0.71018028 ,-0.59690315 ,0.65879989 ,0.50814778
			, -0.09184095 ,-0.32468611 ,-0.02359146 ,-0.23932289 ,0.11893960 ,0.07543702 ,-0.06030012 ,-0.00331002 ,0.11618654 ,0.08629864
			, -0.51143473 ,-0.34484088 ,0.89288354 ,0.21358204 ,-0.13764627 ,-0.34348387 ,-1.11464369 ,-0.09445880 ,0.23026699 ,-0.59560710
			, 0.42981926 ,-1.09329581 ,-0.45870429 ,-0.55242014 ,0.39281163 ,-0.33227149 ,-0.03033068 ,-0.37590897 ,0.55628830 ,0.48634344
			, -0.63884908 ,-0.00514456 ,0.20627820 ,0.14336492 ,0.38437009 ,0.31463110 ,0.40623149 ,-0.03387751 ,-0.33575869 ,-0.55727601
			, 0.00810063 ,0.06357559 ,0.62885195 ,-0.07105022 ,0.08340849 ,0.17346294 ,-0.00066673 ,-0.06302336 ,-0.32723171 ,-0.28177738
			, -0.03118535 ,0.02637112 ,-0.10958597 ,0.21362957 ,-0.25536606 ,-0.37208119 ,-0.04038093 ,0.31896868 ,-0.27776322 ,0.14553560
			, -0.34509808 ,0.15820281 ,-0.58895439 ,-0.27648386 ,-0.33621144 ,0.18061686 ,0.23027813 ,0.03563135 ,0.40248841 ,0.29793531
			, 0.04708815 ,-0.40116805 ,-0.43245074 ,-0.45388725 ,0.57181972 ,0.36784765 ,-0.24602632 ,0.20827214 ,0.12105188 ,0.04040556
			, 0.08936100 ,-0.15151700 ,0.05469545 ,-0.31353042 ,-0.69927549 ,-0.12406448 ,-0.26795316 ,0.22615226 ,-0.18281555 ,0.55235809
			, 0.16930512 ,-0.18883707 ,0.12103590 ,0.05322287 ,-0.30352280 ,-0.36007723 ,-0.14850141 ,0.01574209 ,0.09766139 ,0.03925255
			, -0.22142604 ,0.25912532 ,-0.43569532 ,-0.33536905 ,-0.05272023 ,0.30308861 ,-0.12652947 ,0.24614696 ,-0.21335290 ,-0.18110766
			, -0.10272398 ,0.66455424 ,0.34721479 ,-0.22897939 ,-0.35527533 ,-0.10750328 ,-0.30920881 ,0.32046372 ,-0.03134475 ,-0.32444948
			, 1.15686834 ,0.00778172 ,-0.49295306 ,-0.13092442 ,-0.47847301 ,0.26237565 ,0.45523146 ,-0.57761008 ,0.06389176 ,0.39623275
			, -0.50319433 ,1.02494884 ,-0.08963227 ,-0.42729768 ,0.56972420 ,0.40662935 ,-0.15358903 ,-0.19885343 ,-0.30214834 ,-0.16201860
			, -0.12041557 ,0.10802477 ,0.05277058 ,0.47972998 ,-0.08332498 ,-0.98600596 ,0.35082781 ,0.25311506 ,-0.08206583 ,-0.03586657
			, -0.30864561 ,-0.13828750 ,0.40243554 ,-0.11831307 ,0.25158972 ,-0.18488416 ,0.08352289 ,-0.20918463 ,-0.12289934 ,0.10632085
			, 0.17200735 ,-0.18999505 ,-0.53315908 ,0.37759340 ,0.35845947 ,-0.07369500 ,0.53891766 ,-0.51716530 ,-0.22381556 ,0.18436182
			, 0.39731076 ,-0.17605653 ,0.07464042 ,-0.13373235 ,0.22007839 ,0.05696471 ,-0.58888453 ,-0.00681748 ,0.17302948 ,-0.11810184
			, 0.01982947 ,0.39291471 ,-0.12199344 ,0.03029785 ,0.04697162 ,0.32767531 ,0.11738667 ,0.09759680 ,-0.43336469 ,-0.24021356
			, -0.07556080 ,-0.19933435 ,-0.21273828 ,0.00697156 ,0.03410635 ,0.10542341 ,0.34743193 ,0.33669129 ,-0.12250250 ,-0.09004845
			, -0.14409737 ,0.53108859 ,0.23049498 ,-0.24171621 ,0.34811747 ,-0.77494115 ,-0.10289963 ,0.53057951 ,-0.29079849 ,-0.56631440
			, -0.02552747 ,1.39042830 ,0.34081402 ,-0.43825519 ,-0.33500585 ,0.20665590 ,0.58754373 ,0.06197704 ,-0.54981422 ,-0.28019375
			, -0.67801332 ,-0.57021588 ,-0.13532847 ,-0.22208121 ,-0.00088078 ,-0.07854939 ,0.85429615 ,-0.73087978 ,0.86732638 ,0.17387682
			, -0.28244412 ,-0.62331069 ,-0.00419985 ,-0.17232984 ,-0.15393050 ,0.25510934 ,0.12683062 ,0.12001922 ,0.03443687 ,0.15355258
			, -0.29854533 ,-0.01065917 ,-0.40532282 ,0.36062932 ,-0.36706299 ,-0.15562153 ,-0.13048138 ,0.17132562 ,0.06824826 ,-0.00250676
			, -0.52568531 ,-0.38626510 ,-0.46761626 ,0.12131871 ,0.29122582 ,-0.27037036 ,0.46398848 ,0.53413165 ,-0.17461099 ,0.02923056
			, -0.00713114 ,-0.09752914 ,-0.15501407 ,-0.06440862 ,-0.28369144 ,0.47251743 ,-0.28832084 ,-0.53673267 ,0.09437163 ,0.15336499
			, 0.64796168 ,-0.77191347 ,0.34335393 ,-0.03613596 ,-0.24737471 ,-0.36843121 ,-0.21818057 ,-0.11362322 ,-0.19750397 ,0.30706441
			, -0.20649950 ,0.46073237 ,0.17894965 ,-0.24964982 ,-0.09272469 ,-0.14043479 ,0.41957045 ,-0.23293705 ,0.14951593 ,-0.24914564
			, -0.14060256 ,-1.27858841 ,-0.30275971 ,0.61153197 ,-0.53740859 ,0.15898867 ,0.29518628 ,0.32771626 ,0.06406055 ,-0.05172677
			, 0.60394913 ,0.10764461 ,0.59005189 ,-0.71215671 ,0.45033923 ,-0.03373335 ,-1.05519283 ,0.03418535 ,-0.10373773 ,-0.39289439
			, 0.32011613 ,0.88373548 ,-0.12196230 ,-0.40851906 ,-0.48169929 ,-0.34182250 ,0.94822621 ,0.12364065 ,-0.51879698 ,-0.21838832
			, 0.04666710 ,-0.10886798 ,0.55150533 ,0.02465838 ,0.15799011 ,-0.33506462 ,-0.13112280 ,0.15600877 ,-0.02755358 ,-0.39638141
			, -0.44780794 ,-0.39205176 ,-1.43159151 ,-1.03173435 ,1.16317463 ,0.82836801 ,-0.13582559 ,-0.02817177 ,-0.12566766 ,0.11120839
			, -0.09702435 ,0.16936031 ,0.13467884 ,0.15930285 ,0.18069015 ,-0.44146872 ,0.23220372 ,0.53694445 ,-0.27479765 ,-0.16687128
			, -1.23782027 ,0.14814885 ,-0.21057360 ,-0.77925426 ,0.35097909 ,0.37209874 ,-0.13314369 ,0.45022726 ,-0.28224584 ,0.16214558
			, 0.58057094 ,0.25112489 ,-0.45351440 ,-1.18893850 ,-0.69291592 ,0.23444487 ,0.68041533 ,-0.51278192 ,0.27202421 ,0.67553449
			, 0.11210539 ,-0.42147103 ,-0.08921828 ,0.61232060 ,-0.40455788 ,-0.72944450 ,0.22612637 ,0.19865216 ,0.26386517 ,-0.11830941
			, 0.23984136 ,-0.34660646 ,-0.77479327 ,-0.01889849 ,-0.54747760 ,0.11471578 ,0.21999525 ,0.21772686 ,0.28331691 ,-0.33238944
			, -0.55925363 ,-0.33770922 ,0.16444501 ,0.10099810 ,-0.12257818 ,0.92789495 ,-0.10816636 ,-0.75296700 ,0.09759919 ,-0.53204298
			, 0.78513986 ,-0.67076564 ,0.06128329 ,-0.77784318 ,-0.22612241 ,-0.07034101 ,-0.83311158 ,-0.05055733 ,0.29433528 ,-0.04935756
			, 0.03487889 ,0.03438006 ,-0.04172436 ,-0.30299926 ,-0.24673000 ,-0.05457150 ,0.72871685 ,0.45150226 ,-0.42314214 ,0.09476795
			, 0.71242177 ,0.22987635 ,-0.43393260 ,-0.43483004 ,0.19015935 ,0.25891769 ,0.16579364 ,-0.05448940 ,0.25761250 ,-0.54989332
			, -0.51614726 ,-0.18692577 ,0.57795429 ,0.82002908 ,-1.04953945 ,-0.63798314 ,-0.32336670 ,0.57134289 ,-0.33469436 ,-0.63671303
			, 0.36141905 ,0.52679372 ,-0.00618869 ,0.33161101 ,-0.80627692 ,-0.66907918 ,0.06197821 ,0.20508431 ,-1.25351202 ,0.76229054
			, -0.42767233 ,0.24576896 ,0.22185394 ,-0.16094378 ,0.85005748 ,-0.00453707 ,-0.71847695 ,-0.24259052 ,-0.29421082 ,0.06596427
			, 0.11992052 ,-0.22533751 ,-0.12099153 ,0.01469693 ,-0.18382595 ,0.86138129 ,0.04828908 ,-1.14703512 ,0.00959134 ,0.25013164
			, 0.30854335 ,-1.42161894 ,-0.27442414 ,-0.22793856 ,-0.11452042 ,0.11845531 ,0.00516027 ,0.19654508 ,0.29839271 ,-0.33668861
			, -0.44049037 ,-0.40507725 ,-0.27417547 ,-0.43976536 ,0.26195344 ,0.01134349 ,-0.89471209 ,0.37378767 ,0.32437652 ,-0.02962164
			, 0.13196008 ,-0.86355996 ,0.22777884 ,-0.10146364 ,0.10108430 ,0.36009252 ,-0.16328107 ,-0.22664145 ,0.01474985 ,0.03997109
			, 0.41251653 ,0.16701317 ,-0.43006921 ,-0.45946345 ,-0.13301300 ,-0.41723228 ,0.32853463 ,0.86087519 ,0.44215670 ,-0.49360231
			, -0.55390549 ,0.15329638 ,0.10890192 ,0.39288595 ,0.25448206 ,0.03104634 ,-0.81773537 ,-0.35467920 ,-0.11408207 ,0.07874113
			, 0.52863383 ,0.23135625 ,0.18808426 ,-0.21479654 ,-0.24341318 ,-0.33303970 ,0.62122291 ,-0.78493410 ,-0.19829021 ,0.45076904
			, -0.69307101 ,0.49977100 ,0.48176160 ,0.15436348 ,-0.38931867 ,0.28971189 ,-0.40644905 ,0.57087547 ,-1.06088316 ,-0.81710982
			, 0.27683878 ,1.05205119 ,-0.45177290 ,0.06361128 ,0.27784535 ,-0.43803117 ,0.61695510 ,-0.33751202 ,-0.31867209 ,-0.17469840
			, 0.49357921 ,-0.67985994 ,0.61315727 ,0.17910318 ,0.19203816 ,-0.85267025 ,0.36502206 ,0.01240306 ,-0.03716746 ,-0.17240846
			, -0.60862005 ,0.27326083 ,-0.64307058 ,-0.13610773 ,-0.08233775 ,-0.05007435 ,-0.19003794 ,0.15025543 ,0.29925236 ,0.29962766
			, 0.25343019 ,-0.27577093 ,0.03593320 ,-0.52576703 ,-0.90610909 ,0.93385184 ,0.11839523 ,0.12805213 ,-0.23866424 ,0.47406101
			, -0.52682364 ,-0.49395877 ,0.09349894 ,-0.31238204 ,0.12666994 ,0.45765328 ,-0.05752596 ,0.62888652 ,-0.35963830 ,-0.10624316
			, -0.11631810 ,-0.27556828 ,-0.48390320 ,0.02171143 ,-1.04861426 ,0.24505624 ,-0.03480268 ,-0.52063888 ,1.06459546 ,0.51266789
			, 0.33569294 ,-0.00917861 ,-0.10938226 ,-0.65721577 ,-0.03304791 ,0.22647785 ,0.37637809 ,-0.37780043 ,0.26499355 ,-0.00246588
			, -1.30766940 ,-0.26378015 ,0.36132669 ,0.31353354 ,-0.73307925 ,0.37493324 ,-1.02163231 ,0.49642065 ,0.11961201 ,0.01494959
			, 0.37538832 ,0.61872733 ,0.00012148 ,-0.21633236 ,0.08244302 ,0.82487756 ,-0.46921417 ,-0.60228807 ,-0.17043264 ,-0.11757284
			, -0.86322045 ,0.00844108 ,0.59611809 ,0.14843181 ,-0.24791889 ,0.14993227 ,-0.12000514 ,0.23227541 ,-0.94904727 ,-0.37964469
			, 0.08468665 ,-0.19089578 ,-0.80469424 ,0.75631565 ,0.20858110 ,0.20549998 ,-0.00241967 ,0.62023169 ,0.07726844 ,-0.24537905
			, -0.32775494 ,0.16040103 ,0.25534213 ,0.81754512 ,0.06792515 ,-0.07304797 ,-0.19765864 ,0.07393975 ,-0.06714441 ,-0.68593156
			, 0.52514213 ,-0.79774761 ,0.03967843 ,-0.42413408 ,-0.00757607 ,-0.53498220 ,0.49401599 ,-0.36575052 ,0.60702878 ,0.08527946
			, 0.19706941 ,-1.17475557 ,-0.38729009 ,-0.27401751 ,-0.39865598 ,0.33855498 ,0.61957830 ,-0.12125782 ,0.10857029 ,0.10813512
			, -0.12849957 ,-0.03193326 ,0.05625003 ,-0.56252587 ,0.04016317 ,-0.10330068 ,-0.15461235 ,0.01748597 ,-0.14547524 ,0.41849965
			, 0.36515427 ,-0.04505447 ,-0.49100918 ,0.03733989 ,0.31543496 ,0.31068838 ,-1.01066875 ,-0.55266976 ,0.43428290 ,0.21973552
			, 0.28326711 ,0.02728608 ,-0.21511665 ,-0.03201944 ,0.14237970 ,-0.06568819 ,0.26344174 ,-0.27062947 ,-0.24206316 ,-0.20762010
			, -1.17161894 ,-0.09695118 ,0.00567992 ,0.17299929 ,-0.17387629 ,-0.02677907 ,-1.14581895 ,0.47545025 ,0.02523716 ,0.10131592
			, 0.62022984 ,0.41874281 ,0.89871800 ,-0.20385601 ,0.13967639 ,0.52417469 ,0.19490843 ,-0.96955144 ,-0.23942906 ,-0.52404189
			, -0.47021428 ,0.55347109 ,-0.50512803 ,0.48091543 ,-0.06693023 ,0.36739516 ,-0.29028472 ,-0.24408618 ,-0.15528953 ,0.12179688
			, 0.02385042 ,0.33973029 ,-0.03350747 ,-0.66926211 ,-0.12493774 ,0.19540218 ,0.02169367 ,-0.10044076 ,-0.04543354 ,0.02348085
			, 0.04419312 ,0.11987770 ,0.08708479 ,0.54104114 ,-0.04202445 ,-0.47512811 ,0.14329273 ,0.22250257 ,-0.17569627 ,-0.25948438
			, 0.44854754 ,0.00537149 ,0.38578102 ,-0.48405054 ,0.28473714 ,0.18506271 ,-0.09549396 ,-0.15456426 ,0.24182416 ,-0.58532375
			, 0.60838979 ,-0.77256143 ,-0.62571806 ,-1.00736749 ,0.19938681 ,0.16056363 ,0.22527617 ,-0.12740777 ,0.38387147 ,0.27838564
			, -0.04431159 ,-0.59521604 ,-0.24436347 ,0.00818608 ,0.29376927 ,0.11895031 ,-0.13305560 ,-0.69963956 ,0.39638186 ,0.16039057
			, -0.34750909 ,0.45071724 ,0.31478661 ,-0.26329628 ,0.65385467 ,-0.40279877 ,-0.31768087 ,-0.05953481 ,-0.29001209 ,0.02608475
			, -0.14818095 ,0.41792753 ,-0.05277085 ,0.13873358 ,-0.38848078 ,0.03721094 ,-0.33056328 ,-0.26967737 ,0.45397627 ,-0.42876452
			, 0.11036888 ,-0.28157157 ,0.19975094 ,-0.48751658 ,0.32503110 ,0.17551130 ,-0.50760055 ,0.43058977 ,-0.40132961 ,-0.25264192
			, -0.54701293 ,0.60436416 ,0.03460299 ,0.34185284 ,-0.19736978 ,-0.05022057 ,-0.00888681 ,-0.12257653 ,0.05087170 ,-0.25615904
			, -0.52715510 ,-0.23758741 ,0.13829163 ,0.24081357 ,-0.98268187 ,-0.21181311 ,0.28804111 ,0.31245327 ,0.23117261 ,0.05856904
			, 0.13601801 ,0.45528138 ,-0.06379022 ,-0.46362728 ,-0.12858103 ,-0.69193566 ,-0.50128019 ,0.01720681 ,-0.04828046 ,0.41976756
			, -0.85064912 ,0.24971415 ,-0.25402269 ,0.86199814 ,-0.10833362 ,-0.23034514 ,0.34877697 ,-0.66393417 ,-0.00909325 ,0.40402424
			, 0.09398419 ,-0.27271295 ,-0.05037406 ,0.46220943 ,0.04863055 ,0.22656453 ,-0.06681945 ,-1.26721096 ,0.50360900 ,-0.55697483
			, -0.22988483 ,0.21659075 ,-0.71039861 ,-0.10743812 ,0.00272888 ,0.43449569 ,0.13713004 ,-0.24632268 ,0.33876783 ,-0.08892855
			, -0.37237561 ,-0.41780797 ,-0.42951864 ,-0.03351811 ,-0.58331221 ,0.37616286 ,-0.12436941 ,0.09184755 ,0.23907320 ,0.13367811
			, 0.12590407 ,-0.60783058 ,-0.20569846 ,0.15195566 ,-0.19685328 ,-0.38857824 ,0.46641460 ,0.12100907 ,0.11479896 ,0.12522091
			, 0.44978592 ,0.23965757 ,0.11317024 ,-0.25330275 ,-0.18296932 ,0.15079905 ,-0.42960623 ,0.09096789 ,-0.09724431 ,-0.10644819
			, 0.15415026 ,-0.40324843 ,-0.19648543 ,-0.26289776 ,-0.48647389 ,0.59640098 ,0.53711587 ,-0.14705651 ,-0.66630000 ,0.10851578
			, -0.11795122 ,-0.92021585 ,0.67269808 ,0.68603235 ,-0.39055818 ,-0.03644012 ,0.48090255 ,-0.19790030 ,0.04873736 ,-0.32746029
			, 0.45899835 ,-0.07153174 ,0.02493322 ,0.50503695 ,-0.26392257 ,0.31291565 ,-0.39351374 ,-0.06884886 ,-0.29563701 ,-0.07563064
			, 0.06736294 ,-0.00409068 ,-0.05272670 ,-0.00044381 ,0.05423030 ,-0.51271522 ,-0.50817657 ,-0.07440823 ,0.06407634 ,0.22809879
			, -0.24461775 ,-0.21206149 ,-0.73514652 ,0.30374151 ,0.26413283 ,-0.74104857 ,-0.05517674 ,-0.07672378 ,0.63978118 ,0.12602845
			, 0.27656686 ,0.12915346 ,-0.01028232 ,0.11546960 ,-0.43280882 ,0.16024455 ,-0.20896390 ,-0.03270035 ,0.10141195 ,-0.61530840
			, -0.04607477 ,0.14867619 ,-0.85810339 ,0.42305732 ,-0.19820371 ,0.07029100 ,0.18815655 ,0.13194287 ,-0.11509248 ,0.19283703
			, 0.00943583 ,-0.06299952 ,-0.41222668 ,-0.05223843 ,0.54228300 ,0.40468997 ,-0.22357397 ,-0.34629133 ,0.05766727 ,0.18527301
			, -0.39722037 ,-0.97098327 ,-0.12401994 ,0.62560534 ,-0.71251637 ,0.36703765 ,0.14534056 ,0.26556247 ,0.20073459 ,-0.27972916
			, 0.29669449 ,0.55404025 ,0.07014751 ,-0.25137746 ,0.45577833 ,-0.02863457 ,-0.51470888 ,-0.01090541 ,-0.33567271 ,-0.00978394
			, -0.10444716 ,-0.19233294 ,0.01026673 ,-0.29901630 ,-0.59482360 ,0.15762606 ,0.35787156 ,0.41867080 ,-0.63899016 ,0.25747651
			, 0.55107588 ,-0.15537323 ,0.37520501 ,-0.48322824 ,0.24360462 ,-0.37061417 ,-0.22545017 ,-0.05803997 ,0.14859912 ,0.26603875
			, -0.88303572 ,-0.16756429 ,-0.24575765 ,0.13829701 ,0.57978958 ,0.20428306 ,-0.92181224 ,-0.47143972 ,0.33264944 ,-0.24979520
			, -0.00806992 ,0.08028702 ,0.09252973 ,-0.24313621 ,0.03461236 ,-0.77800339 ,-0.07053014 ,0.14705987 ,0.09400745 ,0.28966221
			, 0.09420243 ,-0.23926012 ,0.47164750 ,-0.21721730 ,0.13814217 ,-0.92142177 ,-0.27785510 ,-0.32130468 ,0.29239729 ,-0.11772664
			, -0.01308992 ,-0.50055963 ,-0.68125695 ,0.83583063 ,0.24824734 ,0.46821228 ,0.34246939 ,-0.49244401 ,-0.03941466 ,-0.67495495
			, 0.01220668 ,-0.50655371 ,-0.16907533 ,-0.27631089 ,0.12068903 ,0.39068696 ,0.00044001 ,-0.30517608 ,-0.11959476 ,0.55368400
			, -0.01371015 ,-0.00528474 ,0.42733636 ,-0.18477444 ,-0.06877211 ,-0.28563225 ,0.53676271 ,-0.26631132 ,0.00692613 ,-0.02415715
			, -0.38286808 ,0.30213261 ,-0.22163482 ,0.20347063 ,0.08509389 ,-0.10383560 ,-0.23933999 ,-0.01423793 ,0.45746207 ,-0.15724078
			, 0.44814864 ,-0.29117921 ,-0.03450935 ,-0.46676013 ,-0.03883458 ,0.41864917 ,-0.11230066 ,-0.00746782 ,-0.89123052 ,0.05727546
			, -0.60633439 ,0.45908082 ,-0.41178015 ,0.27938238 ,0.21760462 ,0.07798093 ,0.09632685 ,0.46698922 ,-0.43082651 ,-0.27337193
			, 0.23113091 ,-0.38971990 ,0.16005938 ,0.66421759 ,-0.22778693 ,0.02066408 ,-0.11964989 ,-0.04294108 ,0.57213175 ,-1.41304505
			, -0.61777139 ,-0.09301337 ,-0.16266428 ,0.39329514 ,-0.34374443 ,0.50248933 ,0.16347048 ,0.60287249 ,-0.35753751 ,-0.15267970
			, -0.32913193 ,0.70359802 ,0.40198547 ,0.85732621 ,-1.32830501 ,-0.01128180 ,-0.74352050 ,0.32694867 ,-1.03879201 ,0.04403409
			, 0.38455227 ,0.50260013 ,0.22452135 ,-0.33741802 ,0.08015591 ,0.09376035 ,-0.68732131 ,0.69722056 ,-0.59941441 ,-0.44752112
			, -0.14111011 ,-0.01631054 ,0.51285809 ,-0.10586938 ,-0.39565772 ,-0.22141640 ,-0.27117223 ,-0.95409411 ,-0.08748192 ,0.42127344
			, 0.37797636 ,-0.82490724 ,1.15654969 ,-0.06072757 ,-0.80906045 ,0.03205063 ,0.83498538 ,0.37619764 ,-0.95857090 ,-0.71996945
			, 0.11168741 ,-0.74965346 ,-0.30654749 ,-0.29750085 ,0.36627722 ,0.09181694 ,-0.11220632 ,-0.00503029 ,-0.10571163 ,-0.12218004
			, 0.14479107 ,-0.87929416 ,-0.07691038 ,-0.18495569 ,0.08052268 ,-0.29782340 ,0.36359322 ,0.16030173 ,0.11943260 ,-0.13055272
			, 0.47474158 ,-0.44215733 ,-0.30827209 ,-0.33361855 ,-0.23035933 ,-0.36778215 ,0.09834866 ,0.36669025 ,0.27095297 ,0.15221895
			, -0.01963223 ,0.08880623 ,0.22681598 ,0.52265304 ,-0.24952653 ,0.38021579 ,0.23425245 ,-0.75279969 ,-0.26983660 ,-0.10316579
			, 0.65098846 ,-0.95797193 ,0.35786289 ,-0.13727675 ,-0.44701117 ,0.64957118 ,1.06342685 ,-0.59021109 ,-0.13339274 ,-0.62228358
			, -0.98210537 ,0.96381009 ,-0.09646308 ,0.04836485 ,0.12185758 ,0.08845093 ,-1.44594169 ,0.56750476 ,0.01261198 ,-0.29428744
			, 0.16535735 ,0.21622090 ,-0.04893199 ,-0.06053566 ,-0.35559580 ,-0.15861987 ,0.17760256 ,0.54158282 ,-0.67940927 ,-0.04438554
			, 0.20873789 ,-0.37440494 ,0.50038826 ,-0.37662318 ,0.69449580 ,-0.18392159 ,0.33889949 ,-0.23752582 ,0.20544821 ,-0.80035728
			, -0.07398581 ,-0.39949131 ,-0.20496592 ,0.36685294 ,-0.09512968 ,-0.09840249 ,0.28102633 ,0.22677064 ,-0.03102048 ,-0.08176284
			, 0.03660378 ,-0.74100304 ,0.23108399 ,0.26198965 ,-0.46673882 ,-0.09080045 ,0.28292754 ,-0.08149099 ,0.20719397 ,-0.44347829
			, -0.34895945 ,-0.01260706 ,-0.58610386 ,0.15477355 ,0.29165894 ,-0.31313789 ,-0.21946098 ,-0.21029103 ,0.09802795 ,0.24126554
			, 0.34929526 ,-0.50578201 ,-0.18355709 ,-0.51171345 ,0.00515189 ,-0.02500162 ,0.68513674 ,-0.55544931 ,0.30342925 ,0.39690694
			, 0.17155445 ,-1.38746154 ,0.06073487 ,-0.21716146 ,0.08665299 ,-0.16183093 ,0.07934822 ,-0.17138106 ,0.16940887 ,-0.17006148
			, -0.32384586 ,-0.25158948 ,-0.95634645 ,0.42684639 ,-0.35884479 ,1.22694528 ,-1.08747768 ,0.65355182 ,-0.58939004 ,0.04612968
			, 0.89688528 ,-0.81119525 ,0.63360047 ,-0.53043276 ,-0.76934922 ,-0.56811672 ,-0.18548480 ,-0.19359024 ,0.52129167 ,0.22345477
			, -0.68666744 ,0.57618421 ,0.20678021 ,-0.00850271 ,-0.03764698 ,0.27043179 ,-1.38671386 ,0.27397826 ,-0.08356889 ,0.02393657
			, -0.10751329 ,1.02111280 ,-0.91380322 ,-0.30162698 ,-0.12526511 ,-0.39543176 ,-0.26861912 ,1.43101180 ,-0.20963337 ,0.02932640
			, -0.28140539 ,0.45815700 ,0.63403720 ,-0.12546940 ,-0.38921419 ,-0.36994678 ,0.12969139 ,0.05602605 ,0.28663862 ,-0.76421952
			, 0.23275964 ,-1.24161577 ,0.63187718 ,0.14701159 ,0.34334099 ,0.21249591 ,-0.60052449 ,-0.06343743 ,-0.22326459 ,-0.22125998
			, 0.17462133 ,-0.22490712 ,-0.70374012 ,-0.14832000 ,0.09546987 ,-0.14207329 ,0.70585823 ,0.24928863 ,-0.20760635 ,0.15363838
			, -0.23552768 ,-0.99329984 ,-0.26531410 ,0.15108788 ,-0.08779544 ,0.15264188 ,-0.40285957 ,-0.13953356 ,-0.09164967 ,0.31838286
			, -0.79348975 ,0.16111983 ,-0.47728017 ,0.29803741 ,0.27984366 ,0.05739304 ,-1.11096013 ,0.00122751 ,0.42459559 ,-0.29680237
			, -0.27776009 ,0.09845136 ,-0.26576591 ,-0.02411552 ,0.34372425 ,0.02176950 ,0.09432340 ,-0.07457367 ,0.06994174 ,-0.32875058
			, -0.08538382 ,0.33695760 ,-0.66635573 ,0.58257425 ,-0.13977404 ,0.66630203 ,-0.77975184 ,-0.16282248 ,-0.59869635 ,-0.05889569
			, 0.22999941 ,-0.57339072 ,0.41524383 ,-0.48585704 ,0.76811975 ,-0.64080697 ,-0.58058459 ,-0.15992083 ,0.17936617 ,0.00619231
			, -0.05575671 ,-1.00431204 ,-0.05145463 ,0.12195949 ,0.71963871 ,0.00978564 ,-0.26120827 ,-0.44908431 ,-0.46156421 ,0.15929544
			, -0.07233249 ,0.16443306 ,0.11706146 ,-0.24384815 ,-0.21170163 ,0.01957356 ,0.03018805 ,0.41586587 ,-0.36492795 ,-0.21162194
			, 0.08532257 ,-0.20353664 ,-0.01386160 ,0.10215320 ,-0.75870049 ,0.13308723 ,0.06340723 ,-0.21988697 ,0.57471842 ,0.09294155
			, -0.16954464 ,-0.02187705 ,-0.26502272 ,0.34583426 ,-0.41206497 ,0.10701207 ,0.24372716 ,-0.21256030 ,-0.31638059 ,0.15541932
			, 0.26254475 ,-0.41775402 ,-0.42081037 ,-0.15372819 ,0.13797255 ,-0.37873650 ,0.36762005 ,-0.39702642 ,0.77858084 ,-0.45399627
			, -0.84949976 ,-0.44685799 ,0.00273834 ,0.43982506 ,0.16611718 ,-0.11213695 ,0.25362334 ,-0.65770417 ,-0.05061358 ,0.04981600
			, -0.08514962 ,0.28556249 ,-0.38384607 ,0.00961381 ,0.43507552 ,-0.59080702 ,-0.50079006 ,-0.16416650 ,-0.17602004 ,0.91226482
			, 0.03664396 ,0.35320127 ,-0.00167098 ,-0.01101500 ,-0.04654881 ,-0.35278752 ,-0.33282569 ,-0.28573754 ,0.24473035 ,-0.03104945
			, -0.26474452 ,0.67521226 ,-0.24104245 ,0.74869406 ,0.43573788 ,-0.51994383 ,-0.49475688 ,0.73227197 ,-1.02899253 ,-0.13281941
			, 0.27008578 ,-0.15401566 ,0.12111401 ,-0.44792724 ,-0.16650784 ,0.21558370 ,0.35958150 ,-0.46015164 ,0.56204075 ,-0.19301234
			, -1.08196628 ,-0.81501287 ,-0.38484377 ,-0.00120559 ,0.55418295 ,-0.00067219 ,0.13411188 ,0.58226269 ,-0.24446042 ,0.30868027
			, 0.12231157 ,0.38545975 ,0.36240283 ,-0.30921364 ,0.03090904 ,-0.07811363 ,-0.19447939 ,0.11074106 ,-0.51530933 ,-0.09434524
			, -0.10280151 ,-0.46949986 ,0.02822009 ,0.20736229 ,-0.00344745 ,-0.22319815 ,-0.12580457 ,-0.12446394 ,0.31972986 ,0.01778350
			, -0.25033742 ,-0.47678855 ,0.35248441 ,0.44057289 ,-0.34442952 ,0.41307667 ,0.06221291 ,0.07821365 ,0.51331109 ,-1.26285100
			, -1.09494472 ,0.10960397 ,-0.48984259 ,0.09774546 ,0.09073514 ,0.15862344 ,0.51717776 ,-0.13465473 ,-0.05561415 ,0.10735941
			, -0.82702214 ,0.64279693 ,0.28756979 ,-0.23292270 ,0.15890300 ,0.00030034 ,0.31989354 ,-0.44118989 ,0.12130757 ,-0.00600478
			, 0.10625824 ,-0.92964441 ,-0.01332068 ,0.12385959 ,0.17595854 ,-0.00762127 ,0.02299422 ,-0.07236395 ,-0.23847020 ,0.22132918
			, 0.10682092 ,0.25676346 ,0.04193942 ,-0.40480202 ,0.15340149 ,0.23311178 ,0.28499901 ,0.01208813 ,-0.37802765 ,0.17992860
			, 0.52581292 ,-0.08393935 ,-0.13853790 ,-0.22919962 ,-0.55058098 ,0.08500406 ,0.15884213 ,-0.33252603 ,0.06265725 ,-0.55956078
			, -0.36649165 ,-0.00993766 ,0.73894989 ,0.04509645 ,-0.38404444 ,-0.03000030 ,0.54634982 ,-0.41677481 ,0.28698841 ,-0.52025372
			, -0.57334268 ,-0.57853544 ,0.00823435 ,0.10046443 ,0.29981464 ,-0.31572288 ,-0.73333150 ,0.82144785 ,0.04833379 ,-0.45274165
			, 0.23684281 ,0.08774590 ,-0.29187956 ,-0.15681313 ,-0.01048810 ,-0.03896423 ,-0.23284529 ,0.35138193 ,-0.39575341 ,0.26463345
			, 0.07240527 ,-0.53538960 ,-0.29152200 ,-0.18804798 ,0.54733622 ,-0.32118908 ,0.20422515 ,-0.57627565 ,0.36315084 ,0.09055530
			, -0.98628175 ,-0.78907806 ,-0.16497271 ,0.50810474 ,-0.17624868 ,0.32419282 ,0.29104462 ,0.73767674 ,0.31832898 ,-0.96788818
			, -0.12809664 ,-0.15820378 ,-0.07363973 ,0.33754957 ,-0.07937026 ,0.30911535 ,0.21968116 ,-0.09969309 ,0.40510178 ,-0.42035627
			, -0.40403795 ,0.12419418 ,0.43791533 ,0.10063882 ,0.32039261 ,-0.02848166 ,0.12617746 ,-0.07876934 ,-0.54143214 ,-0.39868447
			, -0.27974555 ,-0.35306466 ,0.30703756 ,0.33107930 ,-0.31096801 ,0.03470105 ,-0.48655549 ,-0.30941328 ,0.22179781 ,-0.08127607
			, 0.39315167 ,-1.52676058 ,0.28731316 ,0.15903465 ,0.19813655 ,0.11709858 ,-0.02390414 ,0.05967513 ,-0.26295820 ,-0.42384794
			, 0.66918486 ,-0.14156252 ,-0.65301710 ,-0.15565321 ,-1.04045534 ,0.69704270 ,0.14002334 ,0.41517836 ,0.30751905 ,-0.62210250
			, -0.63360810 ,0.66838914 ,-0.22237901 ,0.09979482 ,0.05813607 ,0.08574285 ,0.06800024 ,0.37443632 ,0.47275349 ,-1.14091218
			, -0.06065215 ,0.10245827 ,1.12546039 ,-1.30002499 ,0.13728075 ,-0.67608291 ,-0.02453853 ,0.58583546 ,-0.22622186 ,-0.38524038
			, 0.21837924 ,-0.31472617 ,-0.32846972 ,-0.01397467 ,-0.00306962 ,-0.20059109 ,0.16309132 ,0.30628538 ,-0.34211275 ,0.20105134
			, 0.33689064 ,-0.02744974 ,0.73670024 ,-0.33990258 ,0.10044581 ,-0.20784834 ,-0.31929451 ,-0.23550451 ,-0.70755965 ,0.13031040
			, -0.65856367 ,0.97319281 ,-0.42218193 ,0.26701158 ,-0.13089593 ,0.46572465 ,-0.52788687 ,0.06258377 ,0.02026693 ,0.07276130
			, -0.27258930 ,-0.39535928 ,-0.22809106 ,0.06308563 ,0.07763456 ,0.05258201 ,-0.00495483 ,-0.06722895 ,0.07611623 ,-0.04589915
			, -0.02384288 ,0.54449475 ,0.10438608 ,-0.16329315 ,-0.17710155 ,-0.31772074 ,0.30048981 ,0.19379072 ,0.04030834 ,-0.21487647
			, 0.07981600 ,0.33796495 ,0.44764140 ,-0.39947724 ,0.05877310 ,-0.49193931 ,-0.15878423 ,0.42993635 ,0.15871996 ,-0.40503359
			, 0.44862083 ,-0.03803423 ,0.05770719 ,0.28408578 ,0.37803414 ,-0.60483038 ,-0.14597061 ,-0.14448698 ,0.00214920 ,-0.18794176
			, 0.49420065 ,0.03295336 ,0.48252031 ,-0.57497603 ,0.65927094 ,-0.19173519 ,0.23023222 ,-0.05100254 ,-0.18066826 ,-0.20455375
			, 0.37195903 ,0.08410443 ,-0.25192297 ,-0.33612171 ,-0.16366920 ,0.45077547 ,-0.36972135 ,0.36300749 ,0.31488559 ,-0.57657760
			, -0.26938441 ,0.28937885 ,0.06218359 ,-0.83452505 ,-0.04673225 ,0.79524785 ,-0.14176914 ,-0.13980067 ,-0.09052438 ,0.18203858
			, -0.19154406 ,0.59877646 ,-0.83181006 ,-0.65567249 ,0.19680895 ,0.68079150 ,-0.37243661 ,0.70904732 ,-0.89783531 ,-0.11289074
			, 0.42915788 ,-0.45107555 ,0.15299664 ,-0.23502496 ,0.60180497 ,-0.29295847 ,-0.37738159 ,-0.44204110 ,0.08228792 ,-0.25725222
			, -0.77035588 ,-0.01262598 ,-0.39436659 ,0.07281391 ,-1.06976104 ,0.41424030 ,-0.77510840 ,-0.42910275 ,0.67934442 ,0.47238672
			, -0.19821899 ,-1.34119403 ,1.35770512 ,0.04402502 ,0.10057395 ,-0.05913747 ,-0.23780972 ,-1.12698591 ,-0.40885445 ,-0.91188514
			, -0.04923696 ,0.21512295 ,-0.44326064 ,0.32628420 ,0.57372594 ,-0.16501732 ,0.01415896 ,0.12802789 ,-0.99201393 ,0.51278847
			, -0.14764392 ,-0.79058695 ,0.02832812 ,0.32516217 ,0.44159240 ,0.03347146 ,-0.00324149 ,-0.10540828 ,-0.06525296 ,-0.28767547
			, -0.00530784 ,-0.22479279 ,0.24528824 ,-0.66749513 ,-0.02082819 ,0.11460356 ,-0.14967547 ,-0.43097496 ,0.24263921 ,0.33944237
			, -0.37213376 ,0.41399610 ,-0.43080702 ,0.55419862 ,0.05812536 ,0.32740358 ,0.08232402 ,-0.48328006 ,0.00200112 ,-0.29589808
			, -0.01077834 ,0.52535385 ,-0.75011957 ,-0.33909479 ,-0.79902303 ,0.23780724 ,0.50706297 ,0.52862185 ,0.30687135 ,0.20224075
			, -0.62193543 ,0.45144635 ,-0.08320022 ,-0.18634784 ,0.25647587 ,-0.05871602 ,-0.89182729 ,0.51119274 ,-0.51354825 ,0.13518530
			, -0.14612602 ,-0.36049762 ,0.04190978 ,-0.80406588 ,-0.71981603 ,0.25221181 ,-0.35665148 ,1.21442318 ,-0.09774742 ,0.02001240
			, -0.57943684 ,0.15399243 ,0.11798092 ,-0.24247760 ,-0.39123991 ,0.12663324 ,0.21954829 ,0.48365402 ,0.26394045 ,-0.82167912
			, -0.15062328 ,-0.12997568 ,-0.62128818 ,0.23006189 ,0.35161731 ,-0.11168597 ,0.26070273 ,-0.05981122 ,0.26060966 ,0.06332926
			, 0.26739666 ,0.09116840 ,0.55876863 ,-0.00514477 ,-0.87466031 ,-0.09874909 ,0.06127059 ,-0.26558009 ,0.26255369 ,-0.47787949
			, 0.16431032 ,0.09166172 ,-0.70660150 ,0.21220405 ,0.23114766 ,0.39453515 ,-0.07122543 ,-0.03752709 ,-0.50436974 ,0.20228492
			, 0.34559846 ,-0.69426692 ,0.50954223 ,-0.58348602 ,-0.62094396 ,0.28338769 ,0.17529604 ,-0.17159833 ,0.00909075 ,-0.05255988
			, 0.08027316 ,-0.55424821 ,0.21477282 ,-0.67614472 ,-0.26318872 ,0.26773566 ,0.13588852 ,-0.56733024 ,0.27302688 ,0.24746898
			, 0.14867292 ,-0.08683946 ,-0.60229951 ,0.05761275 ,-0.58343720 ,0.48839405 ,0.01347135 ,-0.06471086 ,-0.55220932 ,0.70426738
			, -0.18704695 ,0.05594265 ,0.12850247 ,0.03738199 ,0.42560813 ,-0.59364164 ,-0.11436503 ,-0.41232595 ,0.03371928 ,0.76820391
			, -0.34880161 ,0.91499943 ,0.34875625 ,-0.02047104 ,-0.09315482 ,-0.00422469 ,-0.69918275 ,0.05841293 ,-1.02526426 ,0.27776510
			, 0.27707198 ,1.43939471 ,0.08568746 ,-0.54326886 ,-0.86755997 ,-0.13858263 ,0.27794918 ,0.74329716 ,0.12264826 ,-1.16942251
			, -0.69998133 ,-0.19195747 ,0.19900085 ,-0.00404458 ,-0.11150663 ,-0.02826369 ,0.04523034 ,0.12285230 ,0.25863051 ,-0.34345910
			, -0.41459501 ,-0.55379105 ,0.80654049 ,0.16608471 ,-0.44401899 ,-0.05056042 ,-0.60697955 ,0.51871312 ,-0.03291454 ,0.40079454
			, 0.02485420 ,-0.15742306 ,0.09492522 ,0.11236176 ,0.37596327 ,-0.20258220 ,0.20553058 ,-0.93536454 ,-0.00064092 ,0.12133299
			, -0.23183675 ,-0.71040756 ,0.04134980 ,0.16997378 ,-0.11328661 ,0.24397799 ,-0.11053174 ,0.20690785 ,-0.37130839 ,0.56188381
			, -0.17771372 ,-0.28960854 ,-0.20209055 ,-0.11547326 ,-0.19725895 ,0.03023595 ,-0.18434431 ,-0.15435775 ,0.34019044 ,0.43983287
			, 0.31065834 ,-0.07252494 ,0.13273132 ,-0.52845055 ,0.64854097 ,0.13319011 ,-0.13818257 ,-0.10892577 ,0.08816190 ,-0.59847045
			, -0.18093455 ,0.80056834 ,-0.36327338 ,0.69670182 ,-0.13406654 ,0.15046901 ,0.03617430 ,-0.61028689 ,-1.04634452 ,0.11737400
			, -0.04914569 ,-0.81502396 ,0.20014508 ,-0.34915677 ,-0.30767924 ,-0.14644958 ,-0.01225607 ,0.35735402 ,0.24889372 ,0.22159824
			, 0.00864524 ,-0.40907702 ,0.30144301 ,0.31010973 ,0.04021525 ,-0.36712280 ,-0.02305918 ,0.00842446 ,-0.41221040 ,-0.09344281
			, -0.12572919 ,-0.03431865 ,0.17210148 ,-0.41839769 ,-0.06736106 ,-0.15904006 ,0.07626972 ,-0.15332662 ,-0.37381783 ,0.40921271
			, -0.09548043 ,0.09275175 ,0.24299121 ,-0.12541474 ,-0.21013835 ,-0.24002136 ,0.00986784 ,0.21818161 ,-0.39346874 ,0.14753757
			, 0.03154716 ,-0.65516669 ,0.32834110 ,0.29885015 ,0.18233337 ,0.04680087 ,0.14917916 ,-0.86830240 ,0.13584332 ,-0.37808624
			, 0.14809696 ,0.17392108 ,-0.43445259 ,-0.24647433 ,0.09776305 ,-0.26527753 ,0.31005874 ,0.41213763 ,0.23012751 ,-0.49225190
			, -0.10181149 ,0.06689581 ,-0.02351706 ,0.08860269 ,0.22376715 ,-0.06728642 ,0.10987969 ,0.04615356 ,0.07666253 ,-0.36815983
			, 0.45781398 ,-0.53698647 ,-0.16938820 ,0.23098177 ,0.25619084 ,0.07349180 ,-0.51315361 ,-0.37064400 ,-0.19917393 ,0.28917322
			, -0.16517127 ,0.21448942 ,-0.30379361 ,-0.29358965 ,0.33906209 ,-0.16663840 ,-0.07844177 ,0.38299569 ,-0.42083290 ,0.04737432
			, -0.34021005 ,1.24861610 ,-1.08473575 ,-0.18807219 ,-0.71228564 ,0.19518594 ,0.28729826 ,0.10365880 ,-0.14007042 ,0.58046794
			, 0.41317540 ,-0.73523539 ,0.13142923 ,-0.13050461 ,-1.01789367 ,0.06620461 ,0.42233926 ,0.04105022 ,-0.35009909 ,0.52691966
			, 0.36535448 ,0.11165378 ,0.31276166 ,-0.33647504 ,-0.32526040 ,0.38449040 ,0.05822621 ,-0.17941856 ,-0.20688076 ,-0.10217229
			, -0.11301710 ,-0.02452234 ,-0.00606622 ,-0.26161772 ,0.06296373 ,0.03758026 ,-0.16362815 ,0.28825560 ,-0.01492875 ,-0.08607375
			, 0.17483898 ,-0.60577011 ,0.10792031 ,0.10480699 ,0.00378302 ,-0.20085225 ,0.13053334 ,-0.16445757 ,0.49229276 ,-0.08714741
			, -0.12144045 ,0.11503407 ,0.56668782 ,0.20038664 ,0.56716746 ,-0.23255031 ,0.07913166 ,-0.58694583 ,0.34075582 ,-1.10485721
			, -0.54477406 ,-0.20962644 ,-0.02680675 ,0.78868228 ,-0.18282610 ,-0.00494094 ,0.54230571 ,-0.80915892 ,0.59713149 ,-0.47890815
			, -0.84591085 ,0.14786853 ,0.25297973 ,-0.24960388 ,0.35428670 ,-0.12399727 ,0.73652261 ,-0.03311129 ,-0.27351657 ,-0.39732426
			, -0.38531891 ,-0.39023942 ,0.06275059 ,0.12912677 ,0.50170064 ,-0.23000227 ,0.08509363 ,-0.06440742 ,0.01426963 ,-0.20336731
			, -0.47752929 ,-0.48749664 ,-0.26977736 ,-0.20660284 ,0.18573514 ,-0.29989678 ,-0.35889897 ,0.30588731 ,-0.26315880 ,0.53330803
			, 0.33152112 ,0.54159904 ,-0.22428201 ,-0.28403717 ,-1.77313519 ,0.48208174 ,0.05371954 ,-0.26386768 ,-0.24446999 ,0.67667961
			, 0.21389927 ,0.23798543 ,0.24598765 ,-0.09289309 ,-0.57762760 ,-0.00229763 ,0.14534384 ,-0.26200029 ,-0.04052423 ,-0.00801818
			, 0.94002330 ,-0.05246879 ,0.34008989 ,-0.49221185 ,0.25395930 ,-0.37219033 ,-0.38790768 ,0.22281693 ,-0.34294993 ,-0.49626157
			, 0.37617350 ,-0.59422034 ,-0.17274724 ,0.12611920 ,-0.36077341 ,0.24392095 ,0.15031220 ,0.16708265 ,0.05701143 ,0.05034715
			, -0.10143758 ,0.36521342 ,-0.33837649 ,-0.22570254 ,-0.00497524 ,-0.14192653 ,-0.02235317 ,0.18109854 ,-0.38872263 ,1.07821834
			, -1.61685884 ,0.70696956 ,-0.01517433 ,0.57681966 ,-0.30646011 ,-0.01210188 ,0.46238694 ,-0.25690901 ,-0.45564008 ,0.25587118
			, 0.09100981 ,-0.06364164 ,0.01546583 ,-0.28027895 ,-0.13189943 ,0.21052709 ,-0.13367771 ,-0.63857186 ,0.41623026 ,0.17117117
			, -0.00478525 ,-0.06252585 ,0.27614695 ,-0.20010734 ,-0.05406166 ,-0.03408702 ,0.08767346 ,-0.18393312 ,-0.12451717 ,0.09757193
			, 0.25069302 ,-0.06991943 ,-0.00322883 ,0.22980392 ,0.19023849 ,-0.72285455 ,0.06223136 ,0.18426180 ,-0.14405677 ,0.15394025
			, -0.57152838 ,-0.81329513 ,-0.54114294 ,-0.21930821 ,0.39539316 ,0.06219050 ,-0.03606729 ,0.25055221 ,0.61417615 ,-0.00340515
			, 0.36550632 ,0.63378888 ,-0.08895338 ,0.17283100 ,-0.37431905 ,0.39588830 ,0.05884289 ,-0.62569559 ,-0.03754014 ,-0.76284820
			, 0.04936395 ,-0.41376430 ,0.22368327 ,-0.16387525 ,-1.38168585 ,0.08351958 ,0.15724669 ,-0.32009006 ,0.37770760 ,0.34650838
			, 0.18934901 ,0.36168388 ,0.93113524 ,-0.46183941 ,0.38241285 ,-1.32304287 ,-0.50647587 ,0.02122270 ,-0.57036155 ,-0.78948480
			, 0.17073776 ,0.03731641 ,-0.45359048 ,-0.07348060 ,-0.15867026 ,-0.02595644 ,0.07457818 ,0.42199519 ,-0.17785375 ,0.05071039
			, 0.56729519 ,0.14845143 ,0.29202327 ,-0.27411684 ,-0.85950851 ,-0.36408591 ,-0.12470829 ,0.56213135 ,-0.02014215 ,-0.12111077
			, -0.03182664 ,-0.48353103 ,0.01985810 ,0.01707491 ,-0.10527451 ,0.23967782 ,-0.43770796 ,-0.09408195 ,-0.16909535 ,0.51173788
			, -0.35276949 ,0.47201690 ,0.09524498 ,-0.28741035 ,0.21547750 ,0.40789792 ,-0.44402611 ,-0.30052674 ,-0.07889843 ,0.22423260
			, -0.03050211 ,0.57962078 ,-0.26920870 ,-0.17430313 ,-0.43841651 ,0.16900206 ,0.17687480 ,0.03163449 ,-0.28083560 ,0.06441556
			, -0.21566397 ,-0.04215121 ,0.33580571 ,-0.70454693 ,-0.07801551 ,-0.72624135 ,0.47709161 ,0.73518270 ,-0.05221276 ,-0.43927079
			, -0.09328894 ,0.45757392 ,-0.82079858 ,-0.14382941 ,0.27395806 ,0.24641217 ,0.21126212 ,-1.01635301 ,0.30171207 ,0.52981120
			, -0.04277267 ,0.10730515 ,0.64120162 ,-0.54274744 ,-0.06411346 ,0.34468368 ,-0.20188797 ,-0.17393501 ,0.19435555 ,-0.58859974
			, -0.57991892 ,0.44789386 ,-0.46923631 ,0.00165825 ,-0.43746105 ,-0.28411973 ,0.20490743 ,0.51591724 ,0.26333731 ,0.47762159
			, 0.02672563 ,0.55143428 ,0.44646102 ,-0.39459857 ,-0.00335835 ,-0.49079680 ,-0.01403145 ,0.18204902 ,-0.45189255 ,0.07857917
			, -0.08408321 ,0.16923001 ,0.76631194 ,-0.34834778 ,-0.45745355 ,0.67289543 ,-0.41932476 ,0.35747480 ,-0.99765873 ,-0.07267369
			, -0.14609210 ,0.75745893 ,-0.29896250 ,0.26883179 ,-0.16141015 ,-0.11413455 ,0.20993851 ,-0.26278087 ,0.21413420 ,-1.24107075
			, -0.32794136 ,-1.22826242 ,-0.95044595 ,0.90252358 ,0.49072739 ,1.63800752 ,-1.51350021 ,-1.34585059 ,-0.65726930 ,0.21814278
			, 1.07847703 ,0.07106431 ,-0.66532564 ,1.21525025 ,-1.29194677 ,-0.36838371 ,-1.37951350 ,-0.18597369 ,-0.57216543 ,0.13526711
			, 0.55089754 ,-0.43442830 ,-0.14219852 ,0.22141822 ,-0.88804805 ,-0.20388936 ,0.40888470 ,0.14671440 ,-0.11388143 ,0.23915620
			, 0.17493375 ,0.16188723 ,0.39573374 ,0.23881806 ,-0.08127335 ,-0.12554270 ,0.18234317 ,-0.81255203 ,0.24124454 ,-0.96866316
			, -0.00726623 ,-0.37275979 ,-0.02160094 ,0.18980846 ,0.82772720 ,0.12149277 ,0.05403441 ,-0.29796955 ,-0.28945088 ,-0.03422931
			, 0.07005033 ,-0.10581069 ,-0.13413653 ,0.51874322 ,0.51175541 ,0.14273162 ,-0.27745843 ,-0.76813686 ,-0.12933750 ,-0.26843122
			, -0.03428205 ,-0.16697940 ,-0.98706788 ,-0.19154124 ,0.62371927 ,-0.18500395 ,-0.64554870 ,0.68259281 ,0.38449675 ,-0.09136038
			, 0.08579981 ,0.20736384 ,-0.23319292 ,0.04865247 ,-0.29367989 ,0.27294379 ,-0.20137300 ,-0.40602165 ,0.12395923 ,0.38690358
			, -0.45218948 ,0.47012991 ,0.39969152 ,0.05394369 ,0.03123854 ,0.44455630 ,-1.15364945 ,-0.21939234 ,-0.55387056 ,-0.53737569
			, -0.77720499 ,0.13157123 ,0.14263847 ,0.09651987 ,0.09617817 ,0.30484340 ,-0.23904404 ,0.12996325 ,-0.47682396 ,0.12635691
			, -0.45544678 ,0.02251523 ,-0.41740310 ,0.44783467 ,-1.50056446 ,0.53400218 ,0.08092719 ,-0.96604121 ,0.34526578 ,0.03192822
			, 0.22374737 ,-0.68455726 ,-0.03256904 ,0.43376905 ,-0.27941832 ,-0.16818173 ,-0.87196422 ,-0.91075778 ,0.23171762 ,0.10781190
			, -0.14372683 ,-0.12249753 ,0.24343711 ,-0.19388066 ,-0.20644933 ,0.48693112 ,-0.24999803 ,-0.46795341 ,-0.13846481 ,-0.08959617
			, -0.18337809 ,-0.38312468 ,-0.19416320 ,-0.12060218 ,0.53320104 ,0.12481022 ,0.16047160 ,-0.25119695 ,0.06354376 ,0.23116238
			, 0.05642860 ,0.22585021 ,0.19640438 ,0.00031899 ,0.32312605 ,-0.22666647 ,-0.09007498 ,0.09291705 ,-0.46468225 ,-0.03868315
			, 0.22513533 ,-0.08427598 ,-0.02550157 ,0.42158508 ,-0.67345870 ,0.05745172 ,0.17291975 ,-1.13498127 ,0.08463609 ,-0.11815254
			, 0.10861936 ,0.84165078 ,-0.89987898 ,-0.29134622 ,0.44064188 ,-0.20464267 ,-0.45454744 ,0.79007816 ,-0.12725170 ,0.13349406
			, 0.04439851 ,-0.19512130 ,0.12294810 ,0.28689569 ,-0.36694282 ,0.20854275 ,0.13703792 ,-0.57990009 ,0.03625887 ,-0.11040880
			, 0.47610667 ,0.80349535 ,-0.66509819 ,-0.91449952 ,0.16158439 ,0.12946284 ,-0.09886445 ,0.25687897 ,-0.34872344 ,0.23769157
			, -0.04831904 ,-0.26096156 ,-0.14367031 ,0.78187758 ,-0.21397942 ,0.29597110 ,-0.21662299 ,0.00292204 ,-0.58396888 ,0.02383385
			, 0.73746610 ,-0.42195746 ,-0.40325555 ,0.06272165 ,-0.80424839 ,0.25372022 ,0.18912554 ,0.18931073 ,0.44441900 ,-1.00024986
			, 0.41302556 ,-0.52415216 ,0.32585034 ,-0.13866960 ,-0.61884165 ,-0.02564647 ,0.64999712 ,-0.73758274 ,0.51996213 ,-0.65593487
			, 0.21082380 ,-0.21821283 ,0.31212217 ,-0.29167202 ,0.07480606 ,-0.09729142 ,0.02168266 ,-0.09864999 ,0.30631039 ,-0.46567398
			, 0.07334507 ,0.47922701 ,-0.06186310 ,-0.27102229 ,-0.31714243 ,-0.07599790 ,0.27032283 ,0.50379539 ,-0.41112134 ,0.01680160
			, -0.26450002 ,0.24249718 ,0.06256545 ,-0.01477642 ,-0.24556106 ,-0.18674116 ,0.28211668 ,-0.36583167 ,0.21337494 ,0.25118247
			, 0.39919847 ,-0.05741794 ,-0.18224935 ,0.08633001 ,-0.70071357 ,0.14495519 ,0.39270619 ,0.02498621 ,0.07213138 ,-0.26161480
			, -0.21815571 ,0.42804778 ,-0.53488171 ,0.35331261 ,-0.07519986 ,-0.01951057 ,0.39857310 ,0.44602928 ,-0.37318793 ,-0.43968761
			, 0.25568855 ,0.37775424 ,-0.20739692 ,-0.06097950 ,-0.15609355 ,0.16791989 ,-0.00770821 ,-0.34502879 ,0.05603793 ,-0.27830955
			, 0.11846220 ,-0.07521522 ,-0.79022479 ,-0.04503300 ,0.02497666 ,0.28479052 ,-0.01759123 ,0.28901833 ,-0.12662394 ,0.15989032
			, 0.01215492 ,0.07342175 ,0.16227657 ,0.15698369 ,0.07225803 ,0.51301807 ,-0.09755412 ,-0.36329970 ,-0.28203213 ,-0.22015174
			, 0.61656183 ,0.31568852 ,0.13038515 ,-0.09737971 ,-0.36113971 ,-0.24985646 ,0.64976966 ,-0.42943358 ,0.21366884 ,-0.44499710
			, 0.61909336 ,-0.07856954 ,0.09331211 ,-0.66350013 ,-0.91638023 ,0.47258788 ,0.01578844 ,0.22938520 ,0.01841880 ,-0.18486370
			, 0.21566051 ,-0.00927699 ,0.59391135 ,-0.30198365 ,0.06085577 ,-0.13690148 ,0.45262507 ,-0.03045384 ,-0.05298551 ,-0.95089442
			, -0.19246516 ,0.19377369 ,-0.05293812 ,-0.39430824 ,0.17209351 ,0.14090487 ,-0.09792794 ,0.30152667 ,0.02759535 ,0.04522514
			, -0.75866073 ,0.30503783 ,-0.03163084 ,-0.01359718 ,0.25617340 ,-0.64192551 ,-0.00015718 ,0.18049140 ,0.18062976 ,-0.02702534
			, 0.92227626 ,-0.22529781 ,-0.42267206 ,0.17254113 ,-0.37203386 ,-0.12446879 ,0.30632982 ,-0.43295920 ,0.01582696 ,0.06392579
			, 0.00122442 ,-0.53757644 ,-0.22369024 ,0.06234375 ,-0.34374201 ,0.25519466 ,0.00146005 ,0.07413174 ,-0.02277982 ,0.08746225
			, 0.06004930 ,0.46063739 ,-0.07599453 ,-0.22741896 ,0.05664996 ,-0.22253515 ,0.34212554 ,-0.05756998 ,0.18703581 ,-0.25584283
			, -0.43645555 ,-0.18807502 ,-0.26056460 ,0.03987152 ,-0.08278729 ,0.36315450 ,0.46112484 ,0.33966777 ,-0.16402099 ,0.00297601
			, 0.40428367 ,-0.51353985 ,-0.01555962 ,0.39234787 ,-0.37213510 ,0.39353564 ,-0.32810119 ,-1.05083251 ,0.02240438 ,-0.13978110
			, 0.01488805 ,-0.15736297 ,0.17643613 ,-1.06609821 ,0.01855633 ,-0.16157608 ,0.39896554 ,0.29560161 ,-0.10951966 ,-0.06049193
			, -1.14665115 ,0.70978796 ,0.18180339 ,-0.42362979 ,-0.03910735 ,-0.31000134 ,0.09637965 ,-0.30179167 ,0.30535439 ,0.20902990
			, 0.45328629 ,0.24880800 ,0.35924622 ,-0.27788955 ,-0.04852657 ,0.15757927 ,0.33152565 ,-0.24012396 ,-0.41203654 ,-0.59567904
			, -0.21137019 ,-0.40140980 ,-0.02476606 ,-0.49790612 ,-0.24348003 ,-0.00838611 ,0.32187140 ,-0.06276683 ,0.37441298 ,0.31389725
			, -1.79833496 ,0.25005853 ,-0.48761439 ,-0.42740119 ,0.46941531 ,-0.03517958 ,-0.86645943 ,0.47529742 ,-0.35364193 ,0.32642862
			, -0.45520234 ,-0.57141268 ,0.84029704 ,0.03420092 ,0.41700748 ,-0.27849469 ,-0.19685848 ,0.30341622 ,-1.13960588 ,0.13644522
			, 0.29253978 ,-1.27084875 ,0.17625578 ,0.56221247 ,-0.86112338 ,-0.07758645 ,0.62516600 ,-0.39279303 ,0.10351274 ,0.08207583
			, 0.20346378 ,0.13148412 ,0.67660093 ,-0.40547210 ,0.34107253 ,-0.52138776 ,0.02138234 ,-0.34175390 ,-0.04817515 ,-0.40368903
			, -0.20173149 ,0.06873406 ,-0.08588429 ,0.17225172 ,0.29259592 ,0.30388862 ,-0.23826863 ,0.08117338 ,-0.19692512 ,-0.10902973
			, 0.67686468 ,-1.12046266 ,-0.01999345 ,0.18476403 ,-1.89626646 ,0.32573029 ,-0.03365923 ,-0.80364108 ,0.08981192 ,0.26378053
			, -1.10621631 ,0.15546973 ,0.85358739 ,-0.36944184 ,0.37698820 ,-0.81282204 ,-0.22606130 ,-0.35338351 ,-0.04614748 ,0.22362226
			, -0.82484335 ,0.07408707 ,0.27108863 ,-0.01316124 ,0.26741967 ,-0.50968629 ,-0.37689325 ,0.28237191 ,-0.08270387 ,-0.02663886
			, -0.15941247 ,0.57916689 ,0.52004099 ,-0.47842675 ,0.17063247 ,-0.29831237 ,0.08695877 ,-0.07860288 ,-0.33336028 ,-0.13257198
			, 0.41367835 ,-0.08406875 ,0.18919751 ,0.48159066 ,0.37733406 ,-0.18669549 ,0.22294854 ,-0.57841212 ,-0.15599909 ,-0.64013380
			, -1.70146906 ,0.52885997 ,0.15685767 ,-0.01584603 ,0.26029256 ,-0.36197528 ,-0.58913857 ,0.16909163 ,-0.11877199 ,0.28967926
			, -0.66392505 ,-0.88735217 ,1.45318806 ,-0.37125447 ,0.20916776 ,-0.14744677 ,-0.62064582 ,-0.38984063 ,-0.75520450 ,0.29042104
			, -0.47238147 ,-0.54765093 ,-0.18077502 ,0.49179506 ,0.53129530 ,-0.00076946 ,0.44715703 ,-0.39391935 ,-0.00715569 ,-0.19932777
			, 0.13107170 ,-0.19522431 ,0.39460748 ,-0.71477294 ,0.31594098 ,-0.45677921 ,0.07646459 ,0.30640918 ,-0.19191030 ,0.10801785
			, 0.19619668 ,0.14262091 ,-0.24037880 ,0.29364505 ,-0.35534328 ,0.00653412 ,0.06743474 ,-0.06583991 ,0.04037927 ,-0.11008356
			, 0.49971083 ,-0.74965340 ,-0.36011499 ,0.62021405 ,-0.06636748 ,0.11204288 ,0.05829812 ,-0.90649891 ,0.14978023 ,-0.14274922
			, 0.13282563 ,0.74846727 ,-0.14635918 ,-0.72352666 ,0.29483724 ,-0.43227836 ,0.09682104 ,-0.26653141 ,0.39230502 ,0.34661964
			, -0.41516274 ,0.62629896 ,0.25862917 ,-0.43482080 ,-0.10208687 ,-0.80920202 ,0.27080339 ,0.36185709 ,0.10571872 ,0.66669267
			, -0.25777963 ,0.39323077 ,0.34616569 ,-0.35426059 ,0.82882220 ,-0.08281865 ,-0.35254005 ,-0.27730313 ,-0.18561512 ,-0.01930833
			, 0.04841590 ,-0.00028336 ,-0.00167484 ,0.20778324 ,-0.39345831 ,0.11937460 ,-0.07247543 ,-0.10549702 ,-0.38908699 ,0.26542753
			, -0.77937311 ,-0.24726531 ,0.02061415 ,-0.16839974 ,0.86497021 ,-0.23217401 ,-0.55375487 ,-0.07785252 ,-0.25503048 ,0.27586424
			, -0.36084026 ,-0.37738332 ,1.51714540 ,-0.75512165 ,-0.31351089 ,-0.73644298 ,-0.51763266 ,0.00213608 ,-0.55030131 ,0.73498499
			, -0.82052052 ,-0.31558448 ,-0.17713457 ,0.30456460 ,-0.12889063 ,0.60932219 ,-0.30032104 ,0.04087247 ,-0.43215072 ,0.78623730
		};

		 float denseBias[10]={ 0.27177012,  0.48242897,  0.24361967, -0.6140696 , -0.28997612,
								0.1131056 ,  0.13771407,  0.0744302 , -0.35830608,  0.1695491 };
