/*_____________________________________________________________
 Layer (type)                Output Shape              Param #
=================================================================
 conv2d_4 (Conv2D)           (None, 22, 22, 10)        500

 max_pooling2d_4 (MaxPooling  (None, 7, 7, 10)         0
 2D)

 flatten_4 (Flatten)         (None, 490)               0

 dense_4 (Dense)             (None, 10)                4910

=================================================================
Total params: 5,410
Trainable params: 5,410
Non-trainable params: 0
_________________________________________________________________

*/

		float kernels[10][49]=
		{
			{	0.03046845 ,-0.15591331 ,-0.08459595 ,-0.14070977 ,0.25635859 ,0.56441277 ,0.58463550 ,
				1.16765189 ,1.27865434 ,1.09581232 ,1.02744925 ,1.00606108 ,0.53125030 ,0.20630033 ,
				-0.39838070 ,0.14714615 ,0.45845956 ,0.88217622 ,0.49712989 ,0.02003852 ,-1.26591647 ,
				-1.94581866 ,-0.55891824 ,-0.05659737 ,0.16973169 ,0.32144207 ,-0.72721565 ,-2.34332347 ,
				-1.40506983 ,-1.51368439 ,-1.84635687 ,-1.54129434 ,-1.67756987 ,-1.22554243 ,-0.76440054 ,
				-0.94766450 ,-1.88923240 ,-1.10335398 ,-1.28119087 ,-1.64396584 ,-0.95631784 ,-0.13628285 ,
				0.27739471 ,0.55544859 ,0.91699952 ,-0.28397152 ,-0.47726503 ,0.52700353 ,0.60075754
			},
			{
				-0.22791338 ,0.34339485 ,0.54681295 ,1.11027348 ,-0.16506435 ,-0.75067681 ,-0.97518575 ,
				-0.10311376 ,0.57298118 ,0.67960745 ,0.56499022 ,-0.11217100 ,-1.84889567 ,-0.64045519 ,
				0.17643307 ,0.60174698 ,0.75547040 ,0.43879768 ,-0.39765272 ,-1.40218818 ,-1.54589581 ,
				0.40187651 ,0.73565310 ,0.28073013 ,0.13234589 ,-1.28632390 ,-1.47778785 ,-0.02275420 ,
				0.07242131 ,0.66208917 ,0.50233060 ,-0.77903920 ,-1.55398202 ,-0.95817244 ,-0.28653076 ,
				0.55817103 ,0.09384801 ,0.09355360 ,-1.01525998 ,-1.14063942 ,-0.00117516 ,-0.48227847 ,
				0.13741079 ,-0.03908595 ,-0.28200391 ,-0.93974811 ,0.26884326 ,0.35421205 ,-0.62424850
			},
			{
				-1.33175516 ,-0.04042457 ,-0.53430641 ,-0.81194443 ,-0.58974528 ,-0.06410339 ,0.21573225 ,
				-1.22364259 ,-1.02439761 ,-0.57202375 ,-0.15370291 ,1.03737068 ,0.83351028 ,0.77707839 ,
				-1.15823734 ,0.25792506 ,0.34115893 ,0.84029967 ,0.68223161 ,0.47620949 ,0.03841312 ,
				0.01389856 ,0.01429853 ,0.77681535 ,0.71942252 ,0.07061587 ,-0.14261207 ,-0.17996062 ,
				1.03506541 ,1.04942560 ,0.69077283 ,-0.20581140 ,-0.11779221 ,-0.64806837 ,-0.49083522 ,
				1.24136388 ,0.25409040 ,-0.15565720 ,-0.22924361 ,0.24394707 ,0.33892986 ,-0.01375234 ,
				-0.29451022 ,-0.65873933 ,-0.16608387 ,-0.21845914 ,-0.84219164 ,0.03485981 ,-0.18942563
			},
			{
				0.29967266 ,0.46293601 ,-0.29114109 ,-0.82724482 ,0.92188072 ,0.41526273 ,0.33673865 ,
				0.12234221 ,0.55789477 ,0.49141121 ,-0.25827587 ,0.02927954 ,-0.57027489 ,0.38154045 ,
				-0.05922858 ,-0.09261981 ,-0.46958306 ,-1.30184436 ,-0.18536887 ,-0.35513937 ,-0.46208513 ,
				0.19732893 ,0.08037846 ,0.39583567 ,-0.15979789 ,-0.04751706 ,-1.10930562 ,-1.36345983 ,
				0.19659458 ,1.00964177 ,0.87670863 ,0.69591647 ,0.82648236 ,-1.16071916 ,-0.70924777 ,
				-0.67738354 ,-0.30274343 ,0.40581432 ,0.14623491 ,0.80881965 ,0.81192815 ,0.13212600 ,
				-0.09320209 ,-0.92291427 ,-0.92089289 ,-0.30349761 ,0.71954906 ,0.76238525 ,0.81408358
			},
			{
				0.14903723 ,-0.27336165 ,0.08916962 ,-0.73694164 ,-0.82001477 ,0.22851075 ,0.13336393 ,
				0.27234298 ,-0.13135237 ,0.14272915 ,-0.05491581 ,-1.09918177 ,0.42106351 ,-0.23882551 ,
				0.21762106 ,0.96533257 ,0.21742900 ,-0.42875993 ,-0.98554432 ,0.48804975 ,0.09138191 ,
				-0.28479657 ,1.14186180 ,0.67327595 ,-0.38481411 ,-0.39471579 ,0.41118553 ,-0.15924168 ,
				-0.56528294 ,0.69377923 ,1.08830273 ,0.00505608 ,-0.07230303 ,0.15203258 ,0.17951703 ,
				-0.13342322 ,0.28366375 ,0.66697460 ,-0.00332130 ,-0.38557881 ,-0.38970706 ,0.36837047 ,
				-0.27843103 ,-0.87910950 ,-0.03885780 ,0.56330276 ,-0.03524364 ,-0.57885844 ,0.79052806
			},
			{
				0.74721265 ,0.84812677 ,0.86136585 ,0.15185708 ,-0.23257822 ,-0.34406430 ,-1.01142001 ,
				-0.01090771 ,0.55618101 ,0.01582411 ,0.56150281 ,-0.26907611 ,0.52337265 ,0.39408666 ,
				-0.14505711 ,0.18550052 ,0.20609942 ,0.63261849 ,1.35575271 ,0.42582703 ,1.04962552 ,
				-0.48557365 ,0.03509240 ,0.37683785 ,-0.21415782 ,0.60239363 ,0.86682016 ,0.17748889 ,
				-0.31769541 ,0.08132835 ,0.17301510 ,0.21701719 ,0.18402386 ,-0.18343866 ,0.22801545 ,
				-0.98936456 ,-0.48152673 ,-0.98117834 ,-1.06501925 ,-0.34667885 ,-1.28399253 ,-0.72797084 ,
				-0.70510036 ,-0.24383725 ,-1.27966404 ,-0.46814996 ,-0.85704559 ,-0.51100707 ,0.59780717
			},
			{
				0.87916887 ,1.20258796 ,0.82800305 ,0.20712823 ,0.28642640 ,-0.41653228 ,-0.32092425 ,
				0.68456435 ,0.55839461 ,0.66043282 ,0.03374701 ,0.39210564 ,0.74445319 ,0.32019073 ,
				-0.22191018 ,-1.32623267 ,-0.91732848 ,-0.22346583 ,0.00224131 ,-0.03020552 ,-0.01528558 ,
				-1.02291203 ,-2.31265450 ,-0.78402400 ,0.09154508 ,-0.20903133 ,0.35851160 ,0.57596225 ,
				-0.53883290 ,-1.20028818 ,-0.11030199 ,-0.14132798 ,-0.36842349 ,-0.13303395 ,0.59225506 ,
				0.29018354 ,0.81944305 ,0.56045872 ,0.36797881 ,-0.88977545 ,-0.97121167 ,0.53700459 ,
				0.38457346 ,0.38633177 ,0.40817255 ,0.10502844 ,-0.24614552 ,-0.90306860 ,-0.13914742
			},
			{
				-0.44728881 ,0.21492140 ,0.35955748 ,0.59095788 ,0.55364329 ,0.20868491 ,-0.46593809 ,
				0.15702364 ,-0.22635345 ,-0.26443809 ,0.11381088 ,0.35687420 ,0.62254119 ,0.21909031 ,
				-0.00896317 ,-1.13884068 ,-0.18967766 ,0.72482634 ,-0.04676484 ,-0.06633747 ,0.18523148 ,
				-1.75284767 ,-2.26535654 ,-0.47577411 ,0.99228638 ,0.80852008 ,-0.29364002 ,0.22122644 ,
				-1.64548743 ,-0.99413592 ,0.39097151 ,0.91040677 ,0.77547926 ,-0.41237736 ,-1.12299025 ,
				-2.01913476 ,-0.42391443 ,0.09904946 ,0.74507660 ,0.20660013 ,0.14422472 ,-0.78467280 ,
				-1.22385037 ,-0.68252259 ,0.96772915 ,0.61271369 ,-0.11370216 ,-0.26201913 ,-0.62682050
			},
			{
				0.00823196 ,-0.34805548 ,-0.00703557 ,0.03399414 ,0.27857724 ,0.41188025 ,0.89014214 ,
				-0.39028999 ,-1.12484014 ,-0.51990557 ,0.30030587 ,-0.37239078 ,0.64463836 ,0.93194306 ,
				-0.88766801 ,-1.66526878 ,-1.95099354 ,-1.41833377 ,0.25598213 ,0.90120399 ,1.23377657 ,
				-1.03642380 ,-0.53076243 ,-1.57180786 ,-3.62871432 ,-3.32151175 ,-1.37266099 ,0.00401889 ,
				0.33363715 ,-0.20917042 ,0.57796347 ,-0.44685757 ,-1.66718960 ,-1.74592412 ,-0.72446066 ,
				0.49503902 ,0.33574924 ,0.26035318 ,1.25622320 ,-0.05815300 ,-0.68217772 ,-0.90603876 ,
				0.88366097 ,0.94646490 ,-0.40395370 ,1.06842589 ,0.56127858 ,0.82703495 ,0.13738848
			},
			{
				-0.75405228 ,-0.73898482 ,0.24772701 ,0.80394411 ,-0.31921417 ,-0.15187539 ,-0.60519797 ,
				0.14620356 ,0.39634240 ,0.15455513 ,-0.04368245 ,0.32383975 ,-0.44796389 ,-0.32395676 ,
				0.55484945 ,0.37284088 ,-1.07050323 ,-2.07034945 ,-0.74302340 ,1.11076641 ,0.04920206 ,
				-0.15966094 ,0.70764393 ,-0.71920240 ,-1.42081487 ,0.02964238 ,0.96030748 ,0.61251193 ,
				-0.21869633 ,0.22476402 ,0.48903680 ,0.30311891 ,0.52415466 ,-0.45265329 ,-0.99353385 ,
				-0.06860970 ,-0.19585644 ,0.32043114 ,0.40763241 ,0.42631710 ,-0.82225037 ,-0.96636379,
				0.03339408 ,0.34454018 ,-0.46794510 ,0.42662722 ,0.96048892 ,0.02565627 ,-0.04794814
		  }
		};



		float kernelsBias[10]=
			{-0.00292761,  0.09419072, -0.9671566 , -0.79046655, -0.5115207
			 -0.5088257 , -0.37733042, -0.29923326,  0.28411627, -0.2566639 };

		float dense[10][490]={
		  {        -0.277822 ,     -0.849788 ,     0.244893 ,      -0.235397 ,     -0.448227 ,     0.311386 ,      -0.125593 ,     -0.247425 ,     -0.258551 ,     0.600160 ,
		           -0.486268 ,     -1.441564 ,     0.318939 ,      0.040303 ,      0.339701 ,      -1.210944 ,     -0.958200 ,     0.626693 ,      -0.213163 ,     0.578100 ,
		           -0.217962 ,     0.195289 ,      -0.139830 ,     0.209542 ,      -0.205314 ,     -0.725057 ,     0.327373 ,      0.137742 ,      0.732618 ,      -0.448423 ,
		           -0.742371 ,     0.185712 ,      -0.129113 ,     0.468619 ,      -0.642555 ,     -0.408608 ,     -0.354524 ,     -0.120630 ,     -0.088240 ,     0.490973 ,
		           -0.081545 ,     -0.438111 ,     0.180151 ,      0.803126 ,      0.262505 ,      0.752214 ,      -0.249990 ,     -0.356091 ,     -0.474905 ,     -0.145109 ,
		           0.238697 ,      -0.492607 ,     -0.576409 ,     -1.102339 ,     0.036646 ,      0.143325 ,      -0.114790 ,     0.233230 ,      -0.142814 ,     0.697337 ,
		           -1.448500 ,     0.472102 ,      -1.056455 ,     -0.342179 ,     0.362882 ,      0.236688 ,      0.136907 ,      0.012322 ,      0.501257 ,      0.153085 ,
		           0.023760 ,      -0.678078 ,     1.036423 ,      0.496860 ,      -0.053767 ,     -1.991464 ,     0.091581 ,      0.060531 ,      -0.376689 ,     -0.257134 ,
		           -0.955476 ,     -0.181921 ,     0.101208 ,      0.470552 ,      -0.232352 ,     -0.831283 ,     0.301230 ,      0.363931 ,      -0.490245 ,     -0.042969 ,
		           -0.935363 ,     -0.388557 ,     0.138849 ,      -0.004772 ,     -0.443043 ,     -0.258877 ,     -0.280793 ,     0.528907 ,      -0.192185 ,     0.164371 ,
		           0.270629 ,      0.419609 ,      -0.008980 ,     -0.230624 ,     -1.532592 ,     0.604891 ,      -0.156885 ,     0.473748 ,      -0.250041 ,     0.142261 ,
		           -0.394621 ,     1.692197 ,      -0.005348 ,     -0.232478 ,     -0.159484 ,     0.630097 ,      0.057956 ,      -0.312740 ,     -0.677880 ,     -0.049604 ,
		           -0.465283 ,     0.571799 ,      -0.621884 ,     -0.501287 ,     -0.147849 ,     0.180559 ,      0.562283 ,      0.421144 ,      -0.024988 ,     -0.547473 ,
		           -0.632450 ,     -0.458576 ,     -1.513983 ,     -1.203392 ,     0.332009 ,      0.780766 ,      0.246177 ,      0.572030 ,      0.165020 ,      -0.312614 ,
		           -0.297352 ,     -0.601579 ,     0.446993 ,      0.494792 ,      0.281465 ,      -0.987137 ,     0.538103 ,      -0.014687 ,     -0.483341 ,     -0.291310 ,
		           -0.744892 ,     0.418093 ,      -0.026881 ,     0.374345 ,      0.315988 ,      -0.387954 ,     0.045904 ,      0.404501 ,      -0.624028 ,     -0.542911 ,
		           0.489386 ,      -0.075465 ,     0.071038 ,      0.068267 ,      0.363719 ,      0.188941 ,      -0.555903 ,     0.203899 ,      -1.032920 ,     0.087674 ,
		           -0.638849 ,     -0.005145 ,     0.206278 ,      0.143365 ,      0.384370 ,      0.314631 ,      0.406231 ,      -0.033878 ,     -0.335759 ,     -0.557276 ,
		           -0.503194 ,     1.024949 ,      -0.089632 ,     -0.427298 ,     0.569724 ,      0.406629 ,      -0.153589 ,     -0.198853 ,     -0.302148 ,     -0.162019 ,
		           -0.282444 ,     -0.623311 ,     -0.004200 ,     -0.172330 ,     -0.153931 ,     0.255109 ,      0.126831 ,      0.120019 ,      0.034437 ,      0.153553 ,
		           -0.447808 ,     -0.392052 ,     -1.431592 ,     -1.031734 ,     1.163175 ,      0.828368 ,      -0.135826 ,     -0.028172 ,     -0.125668 ,     0.111208 ,
		           -0.516147 ,     -0.186926 ,     0.577954 ,      0.820029 ,      -1.049539 ,     -0.637983 ,     -0.323367 ,     0.571343 ,      -0.334694 ,     -0.636713 ,
		           -0.693071 ,     0.499771 ,      0.481762 ,      0.154363 ,      -0.389319 ,     0.289712 ,      -0.406449 ,     0.570875 ,      -1.060883 ,     -0.817110 ,
		           -0.863220 ,     0.008441 ,      0.596118 ,      0.148432 ,      -0.247919 ,     0.149932 ,      -0.120005 ,     0.232275 ,      -0.949047 ,     -0.379645 ,
		           -0.470214 ,     0.553471 ,      -0.505128 ,     0.480915 ,      -0.066930 ,     0.367395 ,      -0.290285 ,     -0.244086 ,     -0.155290 ,     0.121797 ,
		           -0.527155 ,     -0.237587 ,     0.138292 ,      0.240814 ,      -0.982682 ,     -0.211813 ,     0.288041 ,      0.312453 ,      0.231173 ,      0.058569 ,
		           0.458998 ,      -0.071532 ,     0.024933 ,      0.505037 ,      -0.263923 ,     0.312916 ,      -0.393514 ,     -0.068849 ,     -0.295637 ,     -0.075631 ,
		           -0.883036 ,     -0.167564 ,     -0.245758 ,     0.138297 ,      0.579790 ,      0.204283 ,      -0.921812 ,     -0.471440 ,     0.332649 ,      -0.249795 ,
		           -0.617771 ,     -0.093013 ,     -0.162664 ,     0.393295 ,      -0.343744 ,     0.502489 ,      0.163470 ,      0.602872 ,      -0.357538 ,     -0.152680 ,
		           -0.982105 ,     0.963810 ,      -0.096463 ,     0.048365 ,      0.121858 ,      0.088451 ,      -1.445942 ,     0.567505 ,      0.012612 ,      -0.294287 ,
		           -0.686667 ,     0.576184 ,      0.206780 ,      -0.008503 ,     -0.037647 ,     0.270432 ,      -1.386714 ,     0.273978 ,      -0.083569 ,     0.023937 ,
		           -0.055757 ,     -1.004312 ,     -0.051455 ,     0.121959 ,      0.719639 ,      0.009786 ,      -0.261208 ,     -0.449084 ,     -0.461564 ,     0.159295 ,
		           -1.081966 ,     -0.815013 ,     -0.384844 ,     -0.001206 ,     0.554183 ,      -0.000672 ,     0.134112 ,      0.582263 ,      -0.244460 ,     0.308680 ,
		           -0.573343 ,     -0.578535 ,     0.008234 ,      0.100464 ,      0.299815 ,      -0.315723 ,     -0.733332 ,     0.821448 ,      0.048334 ,      -0.452742 ,
		           -0.060652 ,     0.102458 ,      1.125460 ,      -1.300025 ,     0.137281 ,      -0.676083 ,     -0.024539 ,     0.585835 ,      -0.226222 ,     -0.385240 ,
		           -0.269384 ,     0.289379 ,      0.062184 ,      -0.834525 ,     -0.046732 ,     0.795248 ,      -0.141769 ,     -0.139801 ,     -0.090524 ,     0.182039 ,
		           -0.621935 ,     0.451446 ,      -0.083200 ,     -0.186348 ,     0.256476 ,      -0.058716 ,     -0.891827 ,     0.511193 ,      -0.513548 ,     0.135185 ,
		           -0.348802 ,     0.914999 ,      0.348756 ,      -0.020471 ,     -0.093155 ,     -0.004225 ,     -0.699183 ,     0.058413 ,      -1.025264 ,     0.277765 ,
		           0.008645 ,      -0.409077 ,     0.301443 ,      0.310110 ,      0.040215 ,      -0.367123 ,     -0.023059 ,     0.008424 ,      -0.412210 ,     -0.093443 ,
		           0.365354 ,      0.111654 ,      0.312762 ,      -0.336475 ,     -0.325260 ,     0.384490 ,      0.058226 ,      -0.179419 ,     -0.206881 ,     -0.102172 ,
		           0.940023 ,      -0.052469 ,     0.340090 ,      -0.492212 ,     0.253959 ,      -0.372190 ,     -0.387908 ,     0.222817 ,      -0.342950 ,     -0.496262 ,
		           0.189349 ,      0.361684 ,      0.931135 ,      -0.461839 ,     0.382413 ,      -1.323043 ,     -0.506476 ,     0.021223 ,      -0.570362 ,     -0.789485 ,
		           0.026726 ,      0.551434 ,      0.446461 ,      -0.394599 ,     -0.003358 ,     -0.490797 ,     -0.014031 ,     0.182049 ,      -0.451893 ,     0.078579 ,
		           0.085800 ,      0.207364 ,      -0.233193 ,     0.048652 ,      -0.293680 ,     0.272944 ,      -0.201373 ,     -0.406022 ,     0.123959 ,      0.386904 ,
		           0.044399 ,      -0.195121 ,     0.122948 ,      0.286896 ,      -0.366943 ,     0.208543 ,      0.137038 ,      -0.579900 ,     0.036259 ,      -0.110409 ,
		           0.255689 ,      0.377754 ,      -0.207397 ,     -0.060980 ,     -0.156094 ,     0.167920 ,      -0.007708 ,     -0.345029 ,     0.056038 ,      -0.278310 ,
		           0.060049 ,      0.460637 ,      -0.075995 ,     -0.227419 ,     0.056650 ,      -0.222535 ,     0.342126 ,      -0.057570 ,     0.187036 ,      -0.255843 ,
		           0.203464 ,      0.131484 ,      0.676601 ,      -0.405472 ,     0.341073 ,      -0.521388 ,     0.021382 ,      -0.341754 ,     -0.048175 ,     -0.403689 ,
		           0.131072 ,      -0.195224 ,     0.394607 ,      -0.714773 ,     0.315941 ,      -0.456779 ,     0.076465 ,      0.306409 ,      -0.191910 ,     0.108018 ,
		   },
		  {        -0.348608 ,     0.434150 ,      -0.167822 ,     -0.063032 ,     -0.595249 ,     0.602444 ,      0.060750 ,      0.354251 ,      -0.376115 ,     0.157410 ,
		           -0.387378 ,     1.060532 ,      0.215278 ,      0.615266 ,      -0.056944 ,     0.446234 ,      0.713349 ,      -0.924737 ,     -0.827333 ,     -0.561033 ,
		           -0.234421 ,     1.230973 ,      -1.238227 ,     -0.161967 ,     0.444210 ,      0.071489 ,      1.039991 ,      0.686813 ,      -0.268202 ,     -2.797676 ,
		           0.113128 ,      0.383134 ,      -0.943354 ,     0.264085 ,      0.212697 ,      -1.365519 ,     0.947416 ,      0.153980 ,      0.986303 ,      -1.077032 ,
		           -0.199735 ,     0.489487 ,      -0.554810 ,     0.490006 ,      0.325011 ,      -0.127098 ,     -0.191303 ,     -0.177106 ,     0.093213 ,      -0.497398 ,
		           -0.500570 ,     0.228974 ,      -0.535085 ,     0.320461 ,      -0.093788 ,     -0.092780 ,     0.232223 ,      0.130194 ,      -0.023167 ,     -0.014612 ,
		           0.196737 ,      0.514467 ,      -0.561633 ,     0.057472 ,      -0.085539 ,     0.424197 ,      -0.012666 ,     0.191709 ,      -0.096166 ,     -0.473356 ,
		           -0.729307 ,     0.137427 ,      0.337129 ,      -0.626030 ,     -0.272762 ,     0.536193 ,      0.606922 ,      0.485009 ,      -0.654766 ,     0.100176 ,
		           -0.404995 ,     0.455135 ,      -0.275479 ,     -0.237768 ,     1.110259 ,      0.074012 ,      0.378443 ,      -0.102184 ,     -0.419106 ,     -2.020166 ,
		           -0.230202 ,     0.688245 ,      -1.173477 ,     -0.952988 ,     0.497570 ,      0.970476 ,      0.547739 ,      -0.912841 ,     -0.152468 ,     -0.180988 ,
		           0.483082 ,      0.651591 ,      -0.635551 ,     -0.031911 ,     0.701766 ,      0.051823 ,      -0.069373 ,     -0.745591 ,     -0.587258 ,     -0.764524 ,
		           -0.567465 ,     0.192897 ,      -0.089540 ,     0.013523 ,      0.188203 ,      -0.396241 ,     -0.196177 ,     0.135807 ,      -0.075436 ,     0.449457 ,
		           -0.418172 ,     -0.020867 ,     -0.376035 ,     -0.120292 ,     0.417542 ,      0.177150 ,      -0.108164 ,     0.082425 ,      0.087140 ,      -0.092046 ,
		           -0.446600 ,     0.532303 ,      0.001470 ,      -0.019628 ,     0.154085 ,      -0.233231 ,     0.078542 ,      0.117058 ,      -0.227381 ,     0.051264 ,
		           -0.363674 ,     0.485006 ,      0.272488 ,      0.247436 ,      0.079988 ,      -0.262905 ,     0.852196 ,      -0.977530 ,     -0.679123 ,     0.196022 ,
		           -0.397966 ,     0.947377 ,      0.610787 ,      -0.388339 ,     0.835545 ,      -1.216599 ,     0.850165 ,      -0.741796 ,     -0.321301 ,     -0.559306 ,
		           -0.121552 ,     -0.001731 ,     0.266785 ,      -0.122306 ,     0.022620 ,      -0.204356 ,     0.314570 ,      0.500923 ,      -0.326255 ,     -0.190619 ,
		           0.008101 ,      0.063576 ,      0.628852 ,      -0.071050 ,     0.083408 ,      0.173463 ,      -0.000667 ,     -0.063023 ,     -0.327232 ,     -0.281777 ,
		           -0.120416 ,     0.108025 ,      0.052771 ,      0.479730 ,      -0.083325 ,     -0.986006 ,     0.350828 ,      0.253115 ,      -0.082066 ,     -0.035867 ,
		           -0.298545 ,     -0.010659 ,     -0.405323 ,     0.360629 ,      -0.367063 ,     -0.155622 ,     -0.130481 ,     0.171326 ,      0.068248 ,      -0.002507 ,
		           -0.097024 ,     0.169360 ,      0.134679 ,      0.159303 ,      0.180690 ,      -0.441469 ,     0.232204 ,      0.536944 ,      -0.274798 ,     -0.166871 ,
		           0.361419 ,      0.526794 ,      -0.006189 ,     0.331611 ,      -0.806277 ,     -0.669079 ,     0.061978 ,      0.205084 ,      -1.253512 ,     0.762291 ,
		           0.276839 ,      1.052051 ,      -0.451773 ,     0.063611 ,      0.277845 ,      -0.438031 ,     0.616955 ,      -0.337512 ,     -0.318672 ,     -0.174698 ,
		           0.084687 ,      -0.190896 ,     -0.804694 ,     0.756316 ,      0.208581 ,      0.205500 ,      -0.002420 ,     0.620232 ,      0.077268 ,      -0.245379 ,
		           0.023850 ,      0.339730 ,      -0.033507 ,     -0.669262 ,     -0.124938 ,     0.195402 ,      0.021694 ,      -0.100441 ,     -0.045434 ,     0.023481 ,
		           0.136018 ,      0.455281 ,      -0.063790 ,     -0.463627 ,     -0.128581 ,     -0.691936 ,     -0.501280 ,     0.017207 ,      -0.048280 ,     0.419768 ,
		           0.067363 ,      -0.004091 ,     -0.052727 ,     -0.000444 ,     0.054230 ,      -0.512715 ,     -0.508177 ,     -0.074408 ,     0.064076 ,      0.228099 ,
		           -0.008070 ,     0.080287 ,      0.092530 ,      -0.243136 ,     0.034612 ,      -0.778003 ,     -0.070530 ,     0.147060 ,      0.094007 ,      0.289662 ,
		           -0.329132 ,     0.703598 ,      0.401985 ,      0.857326 ,      -1.328305 ,     -0.011282 ,     -0.743520 ,     0.326949 ,      -1.038792 ,     0.044034 ,
		           0.165357 ,      0.216221 ,      -0.048932 ,     -0.060536 ,     -0.355596 ,     -0.158620 ,     0.177603 ,      0.541583 ,      -0.679409 ,     -0.044386 ,
		           -0.107513 ,     1.021113 ,      -0.913803 ,     -0.301627 ,     -0.125265 ,     -0.395432 ,     -0.268619 ,     1.431012 ,      -0.209633 ,     0.029326 ,
		           -0.072332 ,     0.164433 ,      0.117061 ,      -0.243848 ,     -0.211702 ,     0.019574 ,      0.030188 ,      0.415866 ,      -0.364928 ,     -0.211622 ,
		           0.122312 ,      0.385460 ,      0.362403 ,      -0.309214 ,     0.030909 ,      -0.078114 ,     -0.194479 ,     0.110741 ,      -0.515309 ,     -0.094345 ,
		           0.236843 ,      0.087746 ,      -0.291880 ,     -0.156813 ,     -0.010488 ,     -0.038964 ,     -0.232845 ,     0.351382 ,      -0.395753 ,     0.264633 ,
		           0.218379 ,      -0.314726 ,     -0.328470 ,     -0.013975 ,     -0.003070 ,     -0.200591 ,     0.163091 ,      0.306285 ,      -0.342113 ,     0.201051 ,
		           -0.191544 ,     0.598776 ,      -0.831810 ,     -0.655672 ,     0.196809 ,      0.680791 ,      -0.372437 ,     0.709047 ,      -0.897835 ,     -0.112891 ,
		           -0.146126 ,     -0.360498 ,     0.041910 ,      -0.804066 ,     -0.719816 ,     0.252212 ,      -0.356651 ,     1.214423 ,      -0.097747 ,     0.020012 ,
		           0.277072 ,      1.439395 ,      0.085687 ,      -0.543269 ,     -0.867560 ,     -0.138583 ,     0.277949 ,      0.743297 ,      0.122648 ,      -1.169423 ,
		           -0.125729 ,     -0.034319 ,     0.172101 ,      -0.418398 ,     -0.067361 ,     -0.159040 ,     0.076270 ,      -0.153327 ,     -0.373818 ,     0.409213 ,
		           -0.113017 ,     -0.024522 ,     -0.006066 ,     -0.261618 ,     0.062964 ,      0.037580 ,      -0.163628 ,     0.288256 ,      -0.014929 ,     -0.086074 ,
		           0.376173 ,      -0.594220 ,     -0.172747 ,     0.126119 ,      -0.360773 ,     0.243921 ,      0.150312 ,      0.167083 ,      0.057011 ,      0.050347 ,
		           0.170738 ,      0.037316 ,      -0.453590 ,     -0.073481 ,     -0.158670 ,     -0.025956 ,     0.074578 ,      0.421995 ,      -0.177854 ,     0.050710 ,
		           -0.084083 ,     0.169230 ,      0.766312 ,      -0.348348 ,     -0.457454 ,     0.672895 ,      -0.419325 ,     0.357475 ,      -0.997659 ,     -0.072674 ,
		           -0.452189 ,     0.470130 ,      0.399692 ,      0.053944 ,      0.031239 ,      0.444556 ,      -1.153649 ,     -0.219392 ,     -0.553871 ,     -0.537376 ,
		           0.476107 ,      0.803495 ,      -0.665098 ,     -0.914500 ,     0.161584 ,      0.129463 ,      -0.098864 ,     0.256879 ,      -0.348723 ,     0.237692 ,
		           0.118462 ,      -0.075215 ,     -0.790225 ,     -0.045033 ,     0.024977 ,      0.284791 ,      -0.017591 ,     0.289018 ,      -0.126624 ,     0.159890 ,
		           -0.436456 ,     -0.188075 ,     -0.260565 ,     0.039872 ,      -0.082787 ,     0.363155 ,      0.461125 ,      0.339668 ,      -0.164021 ,     0.002976 ,
		           -0.201731 ,     0.068734 ,      -0.085884 ,     0.172252 ,      0.292596 ,      0.303889 ,      -0.238269 ,     0.081173 ,      -0.196925 ,     -0.109030 ,
		           0.196197 ,      0.142621 ,      -0.240379 ,     0.293645 ,      -0.355343 ,     0.006534 ,      0.067435 ,      -0.065840 ,     0.040379 ,      -0.110084 ,
		   },
		  {        -1.146502 ,     -0.114661 ,     0.913428 ,      -0.355316 ,     -0.536718 ,     -1.192509 ,     0.995315 ,      -1.843510 ,     -1.240307 ,     -0.142133 ,
		           0.325741 ,      -1.917417 ,     -0.736776 ,     -0.106046 ,     -1.049165 ,     -0.296409 ,     0.663813 ,      0.648698 ,      0.972784 ,      -1.867151 ,
		           -0.047496 ,     0.071452 ,      0.184692 ,      -0.094510 ,     0.350304 ,      0.316575 ,      0.181907 ,      -1.034192 ,     0.197371 ,      -0.695415 ,
		           0.027122 ,      -0.239680 ,     -0.051281 ,     -0.248963 ,     -0.708925 ,     0.027644 ,      0.040048 ,      -0.649642 ,     0.443102 ,      0.559795 ,
		           0.133053 ,      -0.267292 ,     -0.270466 ,     0.004015 ,      -0.470582 ,     0.373764 ,      0.088971 ,      -0.346011 ,     0.438894 ,      -0.058691 ,
		           -0.001096 ,     0.007460 ,      -0.137028 ,     -0.053878 ,     -0.135302 ,     -0.132488 ,     0.035035 ,      -0.318032 ,     0.075609 ,      0.515395 ,
		           0.382327 ,      0.074582 ,      -0.239819 ,     0.249825 ,      0.009280 ,      -0.268264 ,     -0.169454 ,     0.992881 ,      -0.241700 ,     -0.326211 ,
		           0.864735 ,      -0.331270 ,     0.491042 ,      0.282821 ,      0.695306 ,      -0.609599 ,     -1.868397 ,     -0.509968 ,     -0.249661 ,     0.637421 ,
		           -0.304231 ,     -1.152173 ,     0.105789 ,      0.118991 ,      -0.425220 ,     0.143338 ,      -0.559631 ,     -0.096549 ,     0.096555 ,      0.634421 ,
		           0.158477 ,      -0.627759 ,     0.177812 ,      -0.171917 ,     -0.442991 ,     -0.226166 ,     -0.297203 ,     0.359718 ,      0.266356 ,      0.109055 ,
		           -0.134369 ,     0.038749 ,      0.132062 ,      -0.031423 ,     -0.470749 ,     -0.129487 ,     -0.112948 ,     -0.230147 ,     0.409517 ,      0.327888 ,
		           -0.038037 ,     0.313959 ,      0.129111 ,      -0.438618 ,     -0.173294 ,     0.292008 ,      -0.360195 ,     -0.356135 ,     0.198452 ,      0.278993 ,
		           0.338373 ,      0.425471 ,      -0.469635 ,     -0.650158 ,     0.045022 ,      0.373421 ,      0.077892 ,      0.116644 ,      0.046532 ,      -0.136161 ,
		           0.021333 ,      0.298668 ,      -0.692739 ,     -0.996536 ,     0.521488 ,      0.364044 ,      -0.086872 ,     -0.040735 ,     0.183898 ,      -0.015341 ,
		           -0.673052 ,     -0.104694 ,     0.554192 ,      0.096562 ,      -0.581054 ,     -0.619969 ,     0.387646 ,      0.019710 ,      -0.041603 ,     0.250336 ,
		           -0.317888 ,     -0.150699 ,     0.149212 ,      0.210260 ,      -0.324990 ,     -0.479607 ,     0.092506 ,      -0.587863 ,     0.333387 ,      0.571932 ,
		           -0.126401 ,     -0.056646 ,     -0.087397 ,     0.357308 ,      -0.307985 ,     0.108843 ,      -0.070605 ,     -0.171878 ,     0.109807 ,      0.338794 ,
		           -0.031185 ,     0.026371 ,      -0.109586 ,     0.213630 ,      -0.255366 ,     -0.372081 ,     -0.040381 ,     0.318969 ,      -0.277763 ,     0.145536 ,
		           -0.308646 ,     -0.138287 ,     0.402436 ,      -0.118313 ,     0.251590 ,      -0.184884 ,     0.083523 ,      -0.209185 ,     -0.122899 ,     0.106321 ,
		           -0.525685 ,     -0.386265 ,     -0.467616 ,     0.121319 ,      0.291226 ,      -0.270370 ,     0.463988 ,      0.534132 ,      -0.174611 ,     0.029231 ,
		           -1.237820 ,     0.148149 ,      -0.210574 ,     -0.779254 ,     0.350979 ,      0.372099 ,      -0.133144 ,     0.450227 ,      -0.282246 ,     0.162146 ,
		           -0.427672 ,     0.245769 ,      0.221854 ,      -0.160944 ,     0.850057 ,      -0.004537 ,     -0.718477 ,     -0.242591 ,     -0.294211 ,     0.065964 ,
		           0.493579 ,      -0.679860 ,     0.613157 ,      0.179103 ,      0.192038 ,      -0.852670 ,     0.365022 ,      0.012403 ,      -0.037167 ,     -0.172408 ,
		           -0.327755 ,     0.160401 ,      0.255342 ,      0.817545 ,      0.067925 ,      -0.073048 ,     -0.197659 ,     0.073940 ,      -0.067144 ,     -0.685932 ,
		           0.044193 ,      0.119878 ,      0.087085 ,      0.541041 ,      -0.042024 ,     -0.475128 ,     0.143293 ,      0.222503 ,      -0.175696 ,     -0.259484 ,
		           -0.850649 ,     0.249714 ,      -0.254023 ,     0.861998 ,      -0.108334 ,     -0.230345 ,     0.348777 ,      -0.663934 ,     -0.009093 ,     0.404024 ,
		           -0.244618 ,     -0.212061 ,     -0.735147 ,     0.303742 ,      0.264133 ,      -0.741049 ,     -0.055177 ,     -0.076724 ,     0.639781 ,      0.126028 ,
		           0.094202 ,      -0.239260 ,     0.471648 ,      -0.217217 ,     0.138142 ,      -0.921422 ,     -0.277855 ,     -0.321305 ,     0.292397 ,      -0.117727 ,
		           0.384552 ,      0.502600 ,      0.224521 ,      -0.337418 ,     0.080156 ,      0.093760 ,      -0.687321 ,     0.697221 ,      -0.599414 ,     -0.447521 ,
		           0.208738 ,      -0.374405 ,     0.500388 ,      -0.376623 ,     0.694496 ,      -0.183922 ,     0.338899 ,      -0.237526 ,     0.205448 ,      -0.800357 ,
		           -0.281405 ,     0.458157 ,      0.634037 ,      -0.125469 ,     -0.389214 ,     -0.369947 ,     0.129691 ,      0.056026 ,      0.286639 ,      -0.764220 ,
		           0.085323 ,      -0.203537 ,     -0.013862 ,     0.102153 ,      -0.758700 ,     0.133087 ,      0.063407 ,      -0.219887 ,     0.574718 ,      0.092942 ,
		           -0.102802 ,     -0.469500 ,     0.028220 ,      0.207362 ,      -0.003447 ,     -0.223198 ,     -0.125805 ,     -0.124464 ,     0.319730 ,      0.017784 ,
		           0.072405 ,      -0.535390 ,     -0.291522 ,     -0.188048 ,     0.547336 ,      -0.321189 ,     0.204225 ,      -0.576276 ,     0.363151 ,      0.090555 ,
		           0.336891 ,      -0.027450 ,     0.736700 ,      -0.339903 ,     0.100446 ,      -0.207848 ,     -0.319295 ,     -0.235505 ,     -0.707560 ,     0.130310 ,
		           0.429158 ,      -0.451076 ,     0.152997 ,      -0.235025 ,     0.601805 ,      -0.292958 ,     -0.377382 ,     -0.442041 ,     0.082288 ,      -0.257252 ,
		           -0.579437 ,     0.153992 ,      0.117981 ,      -0.242478 ,     -0.391240 ,     0.126633 ,      0.219548 ,      0.483654 ,      0.263940 ,      -0.821679 ,
		           -0.699981 ,     -0.191957 ,     0.199001 ,      -0.004045 ,     -0.111507 ,     -0.028264 ,     0.045230 ,      0.122852 ,      0.258631 ,      -0.343459 ,
		           -0.095480 ,     0.092752 ,      0.242991 ,      -0.125415 ,     -0.210138 ,     -0.240021 ,     0.009868 ,      0.218182 ,      -0.393469 ,     0.147538 ,
		           0.174839 ,      -0.605770 ,     0.107920 ,      0.104807 ,      0.003783 ,      -0.200852 ,     0.130533 ,      -0.164458 ,     0.492293 ,      -0.087147 ,
		           -0.101438 ,     0.365213 ,      -0.338376 ,     -0.225703 ,     -0.004975 ,     -0.141927 ,     -0.022353 ,     0.181099 ,      -0.388723 ,     1.078218 ,
		           0.567295 ,      0.148451 ,      0.292023 ,      -0.274117 ,     -0.859509 ,     -0.364086 ,     -0.124708 ,     0.562131 ,      -0.020142 ,     -0.121111 ,
		           -0.146092 ,     0.757459 ,      -0.298963 ,     0.268832 ,      -0.161410 ,     -0.114135 ,     0.209939 ,      -0.262781 ,     0.214134 ,      -1.241071 ,
		           -0.777205 ,     0.131571 ,      0.142638 ,      0.096520 ,      0.096178 ,      0.304843 ,      -0.239044 ,     0.129963 ,      -0.476824 ,     0.126357 ,
		           -0.048319 ,     -0.260962 ,     -0.143670 ,     0.781878 ,      -0.213979 ,     0.295971 ,      -0.216623 ,     0.002922 ,      -0.583969 ,     0.023834 ,
		           0.012155 ,      0.073422 ,      0.162277 ,      0.156984 ,      0.072258 ,      0.513018 ,      -0.097554 ,     -0.363300 ,     -0.282032 ,     -0.220152 ,
		           0.404284 ,      -0.513540 ,     -0.015560 ,     0.392348 ,      -0.372135 ,     0.393536 ,      -0.328101 ,     -1.050833 ,     0.022404 ,      -0.139781 ,
		           0.676865 ,      -1.120463 ,     -0.019993 ,     0.184764 ,      -1.896266 ,     0.325730 ,      -0.033659 ,     -0.803641 ,     0.089812 ,      0.263781 ,
		           0.499711 ,      -0.749653 ,     -0.360115 ,     0.620214 ,      -0.066367 ,     0.112043 ,      0.058298 ,      -0.906499 ,     0.149780 ,      -0.142749 ,
		   },
		  {        -0.310103 ,     0.742569 ,      0.084844 ,      0.247608 ,      -0.706260 ,     -0.114848 ,     0.030480 ,      0.108409 ,      0.075999 ,      -0.366374 ,
		           -0.174296 ,     0.806458 ,      -0.234466 ,     0.108503 ,      -0.177886 ,     0.260576 ,      -0.441141 ,     0.426825 ,      0.149508 ,      -0.722682 ,
		           -0.038387 ,     0.352210 ,      0.223220 ,      0.182614 ,      0.154627 ,      0.463103 ,      -0.793970 ,     0.110543 ,      -0.160564 ,     -0.446575 ,
		           0.019242 ,      -0.092739 ,     -0.164071 ,     -0.243602 ,     0.353788 ,      -0.146282 ,     -0.308343 ,     0.219391 ,      -0.057691 ,     -0.004562 ,
		           0.350667 ,      -0.064512 ,     0.049130 ,      0.308846 ,      -0.154952 ,     -0.332604 ,     -0.057405 ,     -0.484267 ,     0.024216 ,      0.107373 ,
		           -0.165788 ,     0.095382 ,      0.219402 ,      -0.007223 ,     0.112807 ,      -0.266640 ,     0.102537 ,      -0.324301 ,     -0.333135 ,     0.273401 ,
		           0.348317 ,      -0.633685 ,     0.127597 ,      0.613190 ,      -0.169682 ,     -0.785475 ,     -0.414833 ,     -0.472582 ,     0.233408 ,      0.600825 ,
		           0.845661 ,      -0.210622 ,     0.191844 ,      -0.261296 ,     0.218003 ,      -0.042079 ,     -0.154530 ,     -0.192178 ,     0.279856 ,      0.008517 ,
		           -0.124111 ,     0.166956 ,      -0.536182 ,     -0.636419 ,     0.116194 ,      0.103152 ,      -0.065154 ,     0.209712 ,      -0.350780 ,     0.858823 ,
		           -0.565569 ,     0.018952 ,      -0.255006 ,     0.524213 ,      -0.125065 ,     0.596557 ,      0.249350 ,      -0.359489 ,     -0.130156 ,     0.060081 ,
		           0.503865 ,      0.273630 ,      0.165714 ,      -0.463405 ,     -0.874784 ,     0.093813 ,      -0.655019 ,     -0.001245 ,     0.396395 ,      0.450593 ,
		           0.322376 ,      -0.426937 ,     0.505483 ,      0.087272 ,      -0.256760 ,     -0.209204 ,     -0.291090 ,     -0.040762 ,     -0.094933 ,     0.128319 ,
		           0.133724 ,      0.277501 ,      -0.147942 ,     -0.170427 ,     -0.109399 ,     -0.243738 ,     -0.197722 ,     0.295171 ,      0.157760 ,      -0.029700 ,
		           0.791242 ,      -0.304263 ,     -0.243279 ,     -0.181520 ,     -1.075303 ,     0.112491 ,      -0.629847 ,     0.322597 ,      -0.278491 ,     0.753947 ,
		           0.534258 ,      -0.531112 ,     1.031964 ,      -0.641274 ,     0.236977 ,      -0.222170 ,     -0.549345 ,     0.370542 ,      0.050645 ,      -0.720550 ,
		           -0.072883 ,     -0.508511 ,     -0.439189 ,     -0.846590 ,     0.857713 ,      0.324574 ,      0.600409 ,      -0.356280 ,     -0.040757 ,     0.225154 ,
		           0.190218 ,      -0.673044 ,     0.187789 ,      -0.442874 ,     0.162181 ,      -0.260554 ,     -0.240873 ,     -0.190988 ,     0.524382 ,      -0.044398 ,
		           -0.345098 ,     0.158203 ,      -0.588954 ,     -0.276484 ,     -0.336211 ,     0.180617 ,      0.230278 ,      0.035631 ,      0.402488 ,      0.297935 ,
		           0.172007 ,      -0.189995 ,     -0.533159 ,     0.377593 ,      0.358459 ,      -0.073695 ,     0.538918 ,      -0.517165 ,     -0.223816 ,     0.184362 ,
		           -0.007131 ,     -0.097529 ,     -0.155014 ,     -0.064409 ,     -0.283691 ,     0.472517 ,      -0.288321 ,     -0.536733 ,     0.094372 ,      0.153365 ,
		           0.580571 ,      0.251125 ,      -0.453514 ,     -1.188938 ,     -0.692916 ,     0.234445 ,      0.680415 ,      -0.512782 ,     0.272024 ,      0.675534 ,
		           0.119921 ,      -0.225338 ,     -0.120992 ,     0.014697 ,      -0.183826 ,     0.861381 ,      0.048289 ,      -1.147035 ,     0.009591 ,      0.250132 ,
		           -0.608620 ,     0.273261 ,      -0.643071 ,     -0.136108 ,     -0.082338 ,     -0.050074 ,     -0.190038 ,     0.150255 ,      0.299252 ,      0.299628 ,
		           0.525142 ,      -0.797748 ,     0.039678 ,      -0.424134 ,     -0.007576 ,     -0.534982 ,     0.494016 ,      -0.365751 ,     0.607029 ,      0.085279 ,
		           0.448548 ,      0.005371 ,      0.385781 ,      -0.484051 ,     0.284737 ,      0.185063 ,      -0.095494 ,     -0.154564 ,     0.241824 ,      -0.585324 ,
		           0.093984 ,      -0.272713 ,     -0.050374 ,     0.462209 ,      0.048631 ,      0.226565 ,      -0.066819 ,     -1.267211 ,     0.503609 ,      -0.556975 ,
		           0.276567 ,      0.129153 ,      -0.010282 ,     0.115470 ,      -0.432809 ,     0.160245 ,      -0.208964 ,     -0.032700 ,     0.101412 ,      -0.615308 ,
		           -0.013090 ,     -0.500560 ,     -0.681257 ,     0.835831 ,      0.248247 ,      0.468212 ,      0.342469 ,      -0.492444 ,     -0.039415 ,     -0.674955 ,
		           -0.141110 ,     -0.016311 ,     0.512858 ,      -0.105869 ,     -0.395658 ,     -0.221416 ,     -0.271172 ,     -0.954094 ,     -0.087482 ,     0.421273 ,
		           -0.073986 ,     -0.399491 ,     -0.204966 ,     0.366853 ,      -0.095130 ,     -0.098402 ,     0.281026 ,      0.226771 ,      -0.031020 ,     -0.081763 ,
		           0.232760 ,      -1.241616 ,     0.631877 ,      0.147012 ,      0.343341 ,      0.212496 ,      -0.600524 ,     -0.063437 ,     -0.223265 ,     -0.221260 ,
		           -0.169545 ,     -0.021877 ,     -0.265023 ,     0.345834 ,      -0.412065 ,     0.107012 ,      0.243727 ,      -0.212560 ,     -0.316381 ,     0.155419 ,
		           -0.250337 ,     -0.476789 ,     0.352484 ,      0.440573 ,      -0.344430 ,     0.413077 ,      0.062213 ,      0.078214 ,      0.513311 ,      -1.262851 ,
		           -0.986282 ,     -0.789078 ,     -0.164973 ,     0.508105 ,      -0.176249 ,     0.324193 ,      0.291045 ,      0.737677 ,      0.318329 ,      -0.967888 ,
		           -0.658564 ,     0.973193 ,      -0.422182 ,     0.267012 ,      -0.130896 ,     0.465725 ,      -0.527887 ,     0.062584 ,      0.020267 ,      0.072761 ,
		           -0.770356 ,     -0.012626 ,     -0.394367 ,     0.072814 ,      -1.069761 ,     0.414240 ,      -0.775108 ,     -0.429103 ,     0.679344 ,      0.472387 ,
		           -0.150623 ,     -0.129976 ,     -0.621288 ,     0.230062 ,      0.351617 ,      -0.111686 ,     0.260703 ,      -0.059811 ,     0.260610 ,      0.063329 ,
		           -0.414595 ,     -0.553791 ,     0.806540 ,      0.166085 ,      -0.444019 ,     -0.050560 ,     -0.606980 ,     0.518713 ,      -0.032915 ,     0.400795 ,
		           0.031547 ,      -0.655167 ,     0.328341 ,      0.298850 ,      0.182333 ,      0.046801 ,      0.149179 ,      -0.868302 ,     0.135843 ,      -0.378086 ,
		           -0.121440 ,     0.115034 ,      0.566688 ,      0.200387 ,      0.567167 ,      -0.232550 ,     0.079132 ,      -0.586946 ,     0.340756 ,      -1.104857 ,
		           -1.616859 ,     0.706970 ,      -0.015174 ,     0.576820 ,      -0.306460 ,     -0.012102 ,     0.462387 ,      -0.256909 ,     -0.455640 ,     0.255871 ,
		           -0.031827 ,     -0.483531 ,     0.019858 ,      0.017075 ,      -0.105275 ,     0.239678 ,      -0.437708 ,     -0.094082 ,     -0.169095 ,     0.511738 ,
		           -0.327941 ,     -1.228262 ,     -0.950446 ,     0.902524 ,      0.490727 ,      1.638008 ,      -1.513500 ,     -1.345851 ,     -0.657269 ,     0.218143 ,
		           -0.455447 ,     0.022515 ,      -0.417403 ,     0.447835 ,      -1.500564 ,     0.534002 ,      0.080927 ,      -0.966041 ,     0.345266 ,      0.031928 ,
		           0.737466 ,      -0.421957 ,     -0.403256 ,     0.062722 ,      -0.804248 ,     0.253720 ,      0.189126 ,      0.189311 ,      0.444419 ,      -1.000250 ,
		           0.616562 ,      0.315689 ,      0.130385 ,      -0.097380 ,     -0.361140 ,     -0.249856 ,     0.649770 ,      -0.429434 ,     0.213669 ,      -0.444997 ,
		           0.014888 ,      -0.157363 ,     0.176436 ,      -1.066098 ,     0.018556 ,      -0.161576 ,     0.398966 ,      0.295602 ,      -0.109520 ,     -0.060492 ,
		           -1.106216 ,     0.155470 ,      0.853587 ,      -0.369442 ,     0.376988 ,      -0.812822 ,     -0.226061 ,     -0.353384 ,     -0.046147 ,     0.223622 ,
		           0.132826 ,      0.748467 ,      -0.146359 ,     -0.723527 ,     0.294837 ,      -0.432278 ,     0.096821 ,      -0.266531 ,     0.392305 ,      0.346620 ,
		   },
		  {        -1.062306 ,     -0.009808 ,     -0.038371 ,     -0.202551 ,     -0.875858 ,     -0.054916 ,     1.180959 ,      0.103416 ,      -1.108582 ,     1.511464 ,
		           -0.550231 ,     0.970646 ,      -0.110432 ,     0.343434 ,      0.305123 ,      -0.275910 ,     0.635107 ,      -0.245334 ,     0.616545 ,      -1.576269 ,
		           -0.484995 ,     -0.040557 ,     -0.300479 ,     0.133966 ,      0.108566 ,      0.280675 ,      0.613653 ,      -0.365377 ,     0.224519 ,      -0.249622 ,
		           -0.252974 ,     0.389157 ,      -0.045968 ,     0.163810 ,      0.011869 ,      -0.250713 ,     -0.211409 ,     -0.249461 ,     0.030581 ,      0.091932 ,
		           0.185767 ,      -0.088450 ,     -0.295450 ,     0.164055 ,      0.372831 ,      -0.020381 ,     -0.105225 ,     -0.250011 ,     -0.007560 ,     0.160041 ,
		           -0.138177 ,     -0.336206 ,     0.227702 ,      0.322360 ,      -0.566012 ,     -0.039748 ,     -0.558730 ,     -0.197358 ,     0.309962 ,      0.290923 ,
		           0.366623 ,      -0.266377 ,     -0.217810 ,     -0.138770 ,     -0.181261 ,     0.031534 ,      0.422480 ,      -0.672804 ,     -0.159539 ,     0.497634 ,
		           -0.345448 ,     0.187904 ,      -0.556132 ,     0.299110 ,      -0.506867 ,     -0.429005 ,     0.451339 ,      0.096937 ,      0.778245 ,      -0.005231 ,
		           0.778791 ,      1.432631 ,      -0.700726 ,     0.059783 ,      -0.236326 ,     0.332743 ,      -0.443056 ,     0.155515 ,      0.174016 ,      -0.134912 ,
		           0.319682 ,      0.177537 ,      -0.647816 ,     -0.263364 ,     0.526882 ,      0.270385 ,      -0.846162 ,     0.031956 ,      0.255788 ,      -0.035591 ,
		           -0.033240 ,     -0.541371 ,     -0.434975 ,     0.168084 ,      0.396879 ,      0.463926 ,      -0.843686 ,     0.260331 ,      0.221426 ,      -0.202501 ,
		           0.250787 ,      0.111257 ,      0.232822 ,      0.189544 ,      0.162471 ,      -0.505315 ,     -0.671571 ,     -0.312917 ,     0.341664 ,      0.098436 ,
		           0.471269 ,      -0.390968 ,     0.091976 ,      0.255580 ,      -0.066698 ,     -0.391549 ,     -0.543846 ,     0.120835 ,      0.198728 ,      0.108984 ,
		           -0.119246 ,     -0.259173 ,     -0.173742 ,     0.151461 ,      -0.016959 ,     -0.222185 ,     0.115028 ,      -0.284851 ,     0.593338 ,      -0.173038 ,
		           0.543784 ,      -0.144051 ,     -0.015473 ,     -0.936120 ,     0.280901 ,      -0.085682 ,     0.092736 ,      0.062031 ,      0.547375 ,      -0.450878 ,
		           0.311159 ,      0.828538 ,      -0.279729 ,     -0.616308 ,     -0.015010 ,     -0.193336 ,     0.507411 ,      -0.226911 ,     0.305287 ,      0.174505 ,
		           0.578771 ,      0.778223 ,      -0.774264 ,     -0.395699 ,     0.254866 ,      0.472644 ,      0.691524 ,      -0.399497 ,     -0.142348 ,     -0.195691 ,
		           0.047088 ,      -0.401168 ,     -0.432451 ,     -0.453887 ,     0.571820 ,      0.367848 ,      -0.246026 ,     0.208272 ,      0.121052 ,      0.040406 ,
		           0.397311 ,      -0.176057 ,     0.074640 ,      -0.133732 ,     0.220078 ,      0.056965 ,      -0.588885 ,     -0.006817 ,     0.173029 ,      -0.118102 ,
		           0.647962 ,      -0.771913 ,     0.343354 ,      -0.036136 ,     -0.247375 ,     -0.368431 ,     -0.218181 ,     -0.113623 ,     -0.197504 ,     0.307064 ,
		           0.112105 ,      -0.421471 ,     -0.089218 ,     0.612321 ,      -0.404558 ,     -0.729445 ,     0.226126 ,      0.198652 ,      0.263865 ,      -0.118309 ,
		           0.308543 ,      -1.421619 ,     -0.274424 ,     -0.227939 ,     -0.114520 ,     0.118455 ,      0.005160 ,      0.196545 ,      0.298393 ,      -0.336689 ,
		           0.253430 ,      -0.275771 ,     0.035933 ,      -0.525767 ,     -0.906109 ,     0.933852 ,      0.118395 ,      0.128052 ,      -0.238664 ,     0.474061 ,
		           0.197069 ,      -1.174756 ,     -0.387290 ,     -0.274018 ,     -0.398656 ,     0.338555 ,      0.619578 ,      -0.121258 ,     0.108570 ,      0.108135 ,
		           0.608390 ,      -0.772561 ,     -0.625718 ,     -1.007367 ,     0.199387 ,      0.160564 ,      0.225276 ,      -0.127408 ,     0.383871 ,      0.278386 ,
		           -0.229885 ,     0.216591 ,      -0.710399 ,     -0.107438 ,     0.002729 ,      0.434496 ,      0.137130 ,      -0.246323 ,     0.338768 ,      -0.088929 ,
		           -0.046075 ,     0.148676 ,      -0.858103 ,     0.423057 ,      -0.198204 ,     0.070291 ,      0.188157 ,      0.131943 ,      -0.115092 ,     0.192837 ,
		           0.012207 ,      -0.506554 ,     -0.169075 ,     -0.276311 ,     0.120689 ,      0.390687 ,      0.000440 ,      -0.305176 ,     -0.119595 ,     0.553684 ,
		           0.377976 ,      -0.824907 ,     1.156550 ,      -0.060728 ,     -0.809060 ,     0.032051 ,      0.834985 ,      0.376198 ,      -0.958571 ,     -0.719969 ,
		           0.036604 ,      -0.741003 ,     0.231084 ,      0.261990 ,      -0.466739 ,     -0.090800 ,     0.282928 ,      -0.081491 ,     0.207194 ,      -0.443478 ,
		           0.174621 ,      -0.224907 ,     -0.703740 ,     -0.148320 ,     0.095470 ,      -0.142073 ,     0.705858 ,      0.249289 ,      -0.207606 ,     0.153638 ,
		           0.262545 ,      -0.417754 ,     -0.420810 ,     -0.153728 ,     0.137973 ,      -0.378736 ,     0.367620 ,      -0.397026 ,     0.778581 ,      -0.453996 ,
		           -1.094945 ,     0.109604 ,      -0.489843 ,     0.097745 ,      0.090735 ,      0.158623 ,      0.517178 ,      -0.134655 ,     -0.055614 ,     0.107359 ,
		           -0.128097 ,     -0.158204 ,     -0.073640 ,     0.337550 ,      -0.079370 ,     0.309115 ,      0.219681 ,      -0.099693 ,     0.405102 ,      -0.420356 ,
		           -0.272589 ,     -0.395359 ,     -0.228091 ,     0.063086 ,      0.077635 ,      0.052582 ,      -0.004955 ,     -0.067229 ,     0.076116 ,      -0.045899 ,
		           -0.198219 ,     -1.341194 ,     1.357705 ,      0.044025 ,      0.100574 ,      -0.059137 ,     -0.237810 ,     -1.126986 ,     -0.408854 ,     -0.911885 ,
		           0.267397 ,      0.091168 ,      0.558769 ,      -0.005145 ,     -0.874660 ,     -0.098749 ,     0.061271 ,      -0.265580 ,     0.262554 ,      -0.477879 ,
		           0.024854 ,      -0.157423 ,     0.094925 ,      0.112362 ,      0.375963 ,      -0.202582 ,     0.205531 ,      -0.935365 ,     -0.000641 ,     0.121333 ,
		           0.148097 ,      0.173921 ,      -0.434453 ,     -0.246474 ,     0.097763 ,      -0.265278 ,     0.310059 ,      0.412138 ,      0.230128 ,      -0.492252 ,
		           -0.544774 ,     -0.209626 ,     -0.026807 ,     0.788682 ,      -0.182826 ,     -0.004941 ,     0.542306 ,      -0.809159 ,     0.597131 ,      -0.478908 ,
		           0.091010 ,      -0.063642 ,     0.015466 ,      -0.280279 ,     -0.131899 ,     0.210527 ,      -0.133678 ,     -0.638572 ,     0.416230 ,      0.171171 ,
		           -0.352769 ,     0.472017 ,      0.095245 ,      -0.287410 ,     0.215477 ,      0.407898 ,      -0.444026 ,     -0.300527 ,     -0.078898 ,     0.224233 ,
		           1.078477 ,      0.071064 ,      -0.665326 ,     1.215250 ,      -1.291947 ,     -0.368384 ,     -1.379514 ,     -0.185974 ,     -0.572165 ,     0.135267 ,
		           0.223747 ,      -0.684557 ,     -0.032569 ,     0.433769 ,      -0.279418 ,     -0.168182 ,     -0.871964 ,     -0.910758 ,     0.231718 ,      0.107812 ,
		           0.413026 ,      -0.524152 ,     0.325850 ,      -0.138670 ,     -0.618842 ,     -0.025646 ,     0.649997 ,      -0.737583 ,     0.519962 ,      -0.655935 ,
		           0.619093 ,      -0.078570 ,     0.093312 ,      -0.663500 ,     -0.916380 ,     0.472588 ,      0.015788 ,      0.229385 ,      0.018419 ,      -0.184864 ,
		           -1.146651 ,     0.709788 ,      0.181803 ,      -0.423630 ,     -0.039107 ,     -0.310001 ,     0.096380 ,      -0.301792 ,     0.305354 ,      0.209030 ,
		           -0.824843 ,     0.074087 ,      0.271089 ,      -0.013161 ,     0.267420 ,      -0.509686 ,     -0.376893 ,     0.282372 ,      -0.082704 ,     -0.026639 ,
		           -0.415163 ,     0.626299 ,      0.258629 ,      -0.434821 ,     -0.102087 ,     -0.809202 ,     0.270803 ,      0.361857 ,      0.105719 ,      0.666693 ,
		   },
		  {        0.288344 ,      0.295415 ,      0.534293 ,      0.390174 ,      -1.065188 ,     -1.295969 ,     0.046349 ,      0.401009 ,      -0.599047 ,     -1.114712 ,
		           -0.731807 ,     0.090853 ,      1.246262 ,      0.399647 ,      -3.017458 ,     -1.933186 ,     0.653244 ,      -1.833048 ,     -0.411231 ,     -3.601810 ,
		           -1.046701 ,     -0.578865 ,     0.589159 ,      0.689463 ,      0.337028 ,      -1.151057 ,     -0.724467 ,     -0.348753 ,     -0.191418 ,     0.739675 ,
		           0.316481 ,      -0.397614 ,     0.124618 ,      0.483028 ,      -0.711557 ,     -0.090301 ,     -0.411850 ,     0.768128 ,      0.162176 ,      -0.819898 ,
		           0.220535 ,      -0.002521 ,     0.311234 ,      0.587720 ,      -0.185604 ,     -0.796706 ,     -0.336987 ,     -0.155744 ,     -0.276357 ,     -0.315942 ,
		           -0.332412 ,     -0.971816 ,     0.375373 ,      0.223283 ,      -0.887384 ,     0.138384 ,      -0.351636 ,     1.085182 ,      0.876898 ,      -2.241220 ,
		           0.544851 ,      -0.804918 ,     -0.827261 ,     -2.053535 ,     0.130335 ,      0.654594 ,      -0.009195 ,     -0.219921 ,     -0.009723 ,     -1.299932 ,
		           0.017036 ,      -0.175654 ,     0.099479 ,      0.001825 ,      -0.235077 ,     -0.287201 ,     0.342314 ,      0.362987 ,      -0.413996 ,     0.334469 ,
		           -1.209130 ,     0.115484 ,      0.112652 ,      0.408153 ,      -1.724510 ,     -0.004740 ,     -0.306795 ,     0.108783 ,      0.030048 ,      -0.431619 ,
		           0.116827 ,      -0.108307 ,     0.002036 ,      0.175534 ,      -1.004857 ,     -0.290372 ,     0.124038 ,      0.373401 ,      0.004256 ,      -0.144631 ,
		           -0.478158 ,     -0.645311 ,     0.149383 ,      0.481543 ,      -0.980437 ,     -0.333413 ,     0.068805 ,      0.411446 ,      0.164243 ,      -0.265181 ,
		           -0.101673 ,     -0.435315 ,     0.408451 ,      0.206467 ,      -0.993577 ,     0.035670 ,      -0.335547 ,     0.191186 ,      0.186509 ,      0.042603 ,
		           -0.197249 ,     -0.491101 ,     0.121970 ,      -0.075115 ,     -0.967500 ,     0.331609 ,      -0.130808 ,     0.038712 ,      0.080581 ,      0.145906 ,
		           -0.004232 ,     -0.095612 ,     -0.473251 ,     0.339948 ,      -0.549301 ,     -0.236238 ,     0.307222 ,      -1.446902 ,     0.160732 ,      0.823376 ,
		           0.073930 ,      -0.715180 ,     0.231388 ,      0.274540 ,      -0.151197 ,     -0.552611 ,     0.158365 ,      0.325463 ,      -0.496208 ,     -0.337920 ,
		           0.056834 ,      -0.316065 ,     0.159280 ,      -0.111597 ,     -0.670859 ,     0.106158 ,      -0.394104 ,     0.621955 ,      -0.115924 ,     -0.485477 ,
		           0.159803 ,      -0.316361 ,     0.200284 ,      0.281207 ,      -0.463568 ,     -0.206174 ,     -0.860824 ,     0.565950 ,      -0.298142 ,     -0.172768 ,
		           0.089361 ,      -0.151517 ,     0.054695 ,      -0.313530 ,     -0.699275 ,     -0.124064 ,     -0.267953 ,     0.226152 ,      -0.182816 ,     0.552358 ,
		           0.019829 ,      0.392915 ,      -0.121993 ,     0.030298 ,      0.046972 ,      0.327675 ,      0.117387 ,      0.097597 ,      -0.433365 ,     -0.240214 ,
		           -0.206500 ,     0.460732 ,      0.178950 ,      -0.249650 ,     -0.092725 ,     -0.140435 ,     0.419570 ,      -0.232937 ,     0.149516 ,      -0.249146 ,
		           0.239841 ,      -0.346606 ,     -0.774793 ,     -0.018898 ,     -0.547478 ,     0.114716 ,      0.219995 ,      0.217727 ,      0.283317 ,      -0.332389 ,
		           -0.440490 ,     -0.405077 ,     -0.274175 ,     -0.439765 ,     0.261953 ,      0.011343 ,      -0.894712 ,     0.373788 ,      0.324377 ,      -0.029622 ,
		           -0.526824 ,     -0.493959 ,     0.093499 ,      -0.312382 ,     0.126670 ,      0.457653 ,      -0.057526 ,     0.628887 ,      -0.359638 ,     -0.106243 ,
		           -0.128500 ,     -0.031933 ,     0.056250 ,      -0.562526 ,     0.040163 ,      -0.103301 ,     -0.154612 ,     0.017486 ,      -0.145475 ,     0.418500 ,
		           -0.044312 ,     -0.595216 ,     -0.244363 ,     0.008186 ,      0.293769 ,      0.118950 ,      -0.133056 ,     -0.699640 ,     0.396382 ,      0.160391 ,
		           -0.372376 ,     -0.417808 ,     -0.429519 ,     -0.033518 ,     -0.583312 ,     0.376163 ,      -0.124369 ,     0.091848 ,      0.239073 ,      0.133678 ,
		           0.009436 ,      -0.063000 ,     -0.412227 ,     -0.052238 ,     0.542283 ,      0.404690 ,      -0.223574 ,     -0.346291 ,     0.057667 ,      0.185273 ,
		           -0.013710 ,     -0.005285 ,     0.427336 ,      -0.184774 ,     -0.068772 ,     -0.285632 ,     0.536763 ,      -0.266311 ,     0.006926 ,      -0.024157 ,
		           0.111687 ,      -0.749653 ,     -0.306547 ,     -0.297501 ,     0.366277 ,      0.091817 ,      -0.112206 ,     -0.005030 ,     -0.105712 ,     -0.122180 ,
		           -0.348959 ,     -0.012607 ,     -0.586104 ,     0.154774 ,      0.291659 ,      -0.313138 ,     -0.219461 ,     -0.210291 ,     0.098028 ,      0.241266 ,
		           -0.235528 ,     -0.993300 ,     -0.265314 ,     0.151088 ,      -0.087795 ,     0.152642 ,      -0.402860 ,     -0.139534 ,     -0.091650 ,     0.318383 ,
		           -0.849500 ,     -0.446858 ,     0.002738 ,      0.439825 ,      0.166117 ,      -0.112137 ,     0.253623 ,      -0.657704 ,     -0.050614 ,     0.049816 ,
		           -0.827022 ,     0.642797 ,      0.287570 ,      -0.232923 ,     0.158903 ,      0.000300 ,      0.319894 ,      -0.441190 ,     0.121308 ,      -0.006005 ,
		           -0.404038 ,     0.124194 ,      0.437915 ,      0.100639 ,      0.320393 ,      -0.028482 ,     0.126177 ,      -0.078769 ,     -0.541432 ,     -0.398684 ,
		           -0.023843 ,     0.544495 ,      0.104386 ,      -0.163293 ,     -0.177102 ,     -0.317721 ,     0.300490 ,      0.193791 ,      0.040308 ,      -0.214876 ,
		           -0.049237 ,     0.215123 ,      -0.443261 ,     0.326284 ,      0.573726 ,      -0.165017 ,     0.014159 ,      0.128028 ,      -0.992014 ,     0.512788 ,
		           0.164310 ,      0.091662 ,      -0.706602 ,     0.212204 ,      0.231148 ,      0.394535 ,      -0.071225 ,     -0.037527 ,     -0.504370 ,     0.202285 ,
		           -0.231837 ,     -0.710408 ,     0.041350 ,      0.169974 ,      -0.113287 ,     0.243978 ,      -0.110532 ,     0.206908 ,      -0.371308 ,     0.561884 ,
		           -0.101811 ,     0.066896 ,      -0.023517 ,     0.088603 ,      0.223767 ,      -0.067286 ,     0.109880 ,      0.046154 ,      0.076663 ,      -0.368160 ,
		           -0.845911 ,     0.147869 ,      0.252980 ,      -0.249604 ,     0.354287 ,      -0.123997 ,     0.736523 ,      -0.033111 ,     -0.273517 ,     -0.397324 ,
		           -0.004785 ,     -0.062526 ,     0.276147 ,      -0.200107 ,     -0.054062 ,     -0.034087 ,     0.087673 ,      -0.183933 ,     -0.124517 ,     0.097572 ,
		           -0.030502 ,     0.579621 ,      -0.269209 ,     -0.174303 ,     -0.438417 ,     0.169002 ,      0.176875 ,      0.031634 ,      -0.280836 ,     0.064416 ,
		           0.550898 ,      -0.434428 ,     -0.142199 ,     0.221418 ,      -0.888048 ,     -0.203889 ,     0.408885 ,      0.146714 ,      -0.113881 ,     0.239156 ,
		           -0.143727 ,     -0.122498 ,     0.243437 ,      -0.193881 ,     -0.206449 ,     0.486931 ,      -0.249998 ,     -0.467953 ,     -0.138465 ,     -0.089596 ,
		           0.210824 ,      -0.218213 ,     0.312122 ,      -0.291672 ,     0.074806 ,      -0.097291 ,     0.021683 ,      -0.098650 ,     0.306310 ,      -0.465674 ,
		           0.215661 ,      -0.009277 ,     0.593911 ,      -0.301984 ,     0.060856 ,      -0.136901 ,     0.452625 ,      -0.030454 ,     -0.052986 ,     -0.950894 ,
		           0.453286 ,      0.248808 ,      0.359246 ,      -0.277890 ,     -0.048527 ,     0.157579 ,      0.331526 ,      -0.240124 ,     -0.412037 ,     -0.595679 ,
		           -0.159412 ,     0.579167 ,      0.520041 ,      -0.478427 ,     0.170632 ,      -0.298312 ,     0.086959 ,      -0.078603 ,     -0.333360 ,     -0.132572 ,
		           -0.257780 ,     0.393231 ,      0.346166 ,      -0.354261 ,     0.828822 ,      -0.082819 ,     -0.352540 ,     -0.277303 ,     -0.185615 ,     -0.019308 ,
		   },
		  {        0.232465 ,      0.780853 ,      -0.675201 ,     0.197722 ,      -0.874072 ,     -0.254327 ,     1.365112 ,      -0.540013 ,     0.623524 ,      -0.428316 ,
		           -0.418255 ,     1.489422 ,      -0.517418 ,     -0.068668 ,     0.395281 ,      0.987927 ,      -1.114342 ,     -0.206907 ,     -0.143439 ,     -0.719696 ,
		           -0.757002 ,     0.767887 ,      -0.241403 ,     1.118364 ,      -0.175429 ,     -0.719960 ,     -0.499993 ,     0.497031 ,      -0.234765 ,     -0.305898 ,
		           -0.365526 ,     0.147474 ,      0.199275 ,      0.220053 ,      -0.238561 ,     -0.652213 ,     -0.081175 ,     -0.011897 ,     0.183880 ,      -0.014085 ,
		           0.296982 ,      -0.205697 ,     0.178231 ,      0.057571 ,      0.136262 ,      0.295040 ,      0.466306 ,      -0.393312 ,     0.323467 ,      -0.383485 ,
		           0.203600 ,      -0.055887 ,     -0.391137 ,     -0.284619 ,     0.645121 ,      -0.009242 ,     -0.032159 ,     -0.025220 ,     -0.019252 ,     0.327620 ,
		           -0.510435 ,     0.294984 ,      -0.471221 ,     0.448598 ,      -0.314024 ,     -0.338691 ,     0.267815 ,      -0.162077 ,     0.186086 ,      0.228908 ,
		           0.119624 ,      -0.230941 ,     -0.756756 ,     0.097890 ,      0.117705 ,      -0.242751 ,     -0.469814 ,     -0.196997 ,     0.695467 ,      0.810189 ,
		           -0.333680 ,     0.126724 ,      -0.781456 ,     -0.245631 ,     0.804526 ,      0.333742 ,      -0.485999 ,     0.438872 ,      -0.228771 ,     0.420923 ,
		           -0.732481 ,     0.056963 ,      0.108426 ,      -0.471200 ,     0.402917 ,      0.429572 ,      -0.695556 ,     0.249016 ,      0.226701 ,      -0.128584 ,
		           -0.115479 ,     -0.082476 ,     0.069680 ,      0.054882 ,      -0.275616 ,     -0.360370 ,     -0.186385 ,     0.027106 ,      -0.243692 ,     0.408569 ,
		           0.127912 ,      -0.807844 ,     -0.194839 ,     -0.297265 ,     0.146455 ,      0.029541 ,      0.329052 ,      0.251091 ,      0.152722 ,      0.099966 ,
		           -0.384045 ,     -0.648263 ,     -0.225677 ,     0.327256 ,      0.042360 ,      0.237174 ,      0.395346 ,      0.029490 ,      -0.040332 ,     0.030421 ,
		           -0.286378 ,     -0.096143 ,     -0.266397 ,     0.647968 ,      -0.368449 ,     0.282244 ,      0.153122 ,      -0.030593 ,     0.005622 ,      -0.320736 ,
		           0.625216 ,      -0.099674 ,     -0.332292 ,     0.057352 ,      -0.364290 ,     -0.473253 ,     -0.412160 ,     0.199627 ,      0.555369 ,      -0.164509 ,
		           0.226198 ,      -0.612201 ,     -0.655474 ,     -0.434932 ,     0.586662 ,      -0.007577 ,     0.497341 ,      -0.027518 ,     1.063984 ,      -0.207561 ,
		           0.407890 ,      -0.175569 ,     -0.026547 ,     -0.398320 ,     0.326706 ,      0.243388 ,      -0.710180 ,     -0.596903 ,     0.658800 ,      0.508148 ,
		           0.169305 ,      -0.188837 ,     0.121036 ,      0.053223 ,      -0.303523 ,     -0.360077 ,     -0.148501 ,     0.015742 ,      0.097661 ,      0.039253 ,
		           -0.075561 ,     -0.199334 ,     -0.212738 ,     0.006972 ,      0.034106 ,      0.105423 ,      0.347432 ,      0.336691 ,      -0.122502 ,     -0.090048 ,
		           -0.140603 ,     -1.278588 ,     -0.302760 ,     0.611532 ,      -0.537409 ,     0.158989 ,      0.295186 ,      0.327716 ,      0.064061 ,      -0.051727 ,
		           -0.559254 ,     -0.337709 ,     0.164445 ,      0.100998 ,      -0.122578 ,     0.927895 ,      -0.108166 ,     -0.752967 ,     0.097599 ,      -0.532043 ,
		           0.131960 ,      -0.863560 ,     0.227779 ,      -0.101464 ,     0.101084 ,      0.360093 ,      -0.163281 ,     -0.226641 ,     0.014750 ,      0.039971 ,
		           -0.116318 ,     -0.275568 ,     -0.483903 ,     0.021711 ,      -1.048614 ,     0.245056 ,      -0.034803 ,     -0.520639 ,     1.064595 ,      0.512668 ,
		           0.365154 ,      -0.045054 ,     -0.491009 ,     0.037340 ,      0.315435 ,      0.310688 ,      -1.010669 ,     -0.552670 ,     0.434283 ,      0.219736 ,
		           -0.347509 ,     0.450717 ,      0.314787 ,      -0.263296 ,     0.653855 ,      -0.402799 ,     -0.317681 ,     -0.059535 ,     -0.290012 ,     0.026085 ,
		           0.125904 ,      -0.607831 ,     -0.205698 ,     0.151956 ,      -0.196853 ,     -0.388578 ,     0.466415 ,      0.121009 ,      0.114799 ,      0.125221 ,
		           -0.397220 ,     -0.970983 ,     -0.124020 ,     0.625605 ,      -0.712516 ,     0.367038 ,      0.145341 ,      0.265562 ,      0.200735 ,      -0.279729 ,
		           -0.382868 ,     0.302133 ,      -0.221635 ,     0.203471 ,      0.085094 ,      -0.103836 ,     -0.239340 ,     -0.014238 ,     0.457462 ,      -0.157241 ,
		           0.144791 ,      -0.879294 ,     -0.076910 ,     -0.184956 ,     0.080523 ,      -0.297823 ,     0.363593 ,      0.160302 ,      0.119433 ,      -0.130553 ,
		           0.349295 ,      -0.505782 ,     -0.183557 ,     -0.511713 ,     0.005152 ,      -0.025002 ,     0.685137 ,      -0.555449 ,     0.303429 ,      0.396907 ,
		           -0.793490 ,     0.161120 ,      -0.477280 ,     0.298037 ,      0.279844 ,      0.057393 ,      -1.110960 ,     0.001228 ,      0.424596 ,      -0.296802 ,
		           -0.085150 ,     0.285562 ,      -0.383846 ,     0.009614 ,      0.435076 ,      -0.590807 ,     -0.500790 ,     -0.164166 ,     -0.176020 ,     0.912265 ,
		           0.106258 ,      -0.929644 ,     -0.013321 ,     0.123860 ,      0.175959 ,      -0.007621 ,     0.022994 ,      -0.072364 ,     -0.238470 ,     0.221329 ,
		           -0.279746 ,     -0.353065 ,     0.307038 ,      0.331079 ,      -0.310968 ,     0.034701 ,      -0.486555 ,     -0.309413 ,     0.221798 ,      -0.081276 ,
		           0.079816 ,      0.337965 ,      0.447641 ,      -0.399477 ,     0.058773 ,      -0.491939 ,     -0.158784 ,     0.429936 ,      0.158720 ,      -0.405034 ,
		           -0.147644 ,     -0.790587 ,     0.028328 ,      0.325162 ,      0.441592 ,      0.033471 ,      -0.003241 ,     -0.105408 ,     -0.065253 ,     -0.287675 ,
		           0.345598 ,      -0.694267 ,     0.509542 ,      -0.583486 ,     -0.620944 ,     0.283388 ,      0.175296 ,      -0.171598 ,     0.009091 ,      -0.052560 ,
		           -0.177714 ,     -0.289609 ,     -0.202091 ,     -0.115473 ,     -0.197259 ,     0.030236 ,      -0.184344 ,     -0.154358 ,     0.340190 ,      0.439833 ,
		           0.457814 ,      -0.536986 ,     -0.169388 ,     0.230982 ,      0.256191 ,      0.073492 ,      -0.513154 ,     -0.370644 ,     -0.199174 ,     0.289173 ,
		           -0.385319 ,     -0.390239 ,     0.062751 ,      0.129127 ,      0.501701 ,      -0.230002 ,     0.085094 ,      -0.064407 ,     0.014270 ,      -0.203367 ,
		           0.250693 ,      -0.069919 ,     -0.003229 ,     0.229804 ,      0.190238 ,      -0.722855 ,     0.062231 ,      0.184262 ,      -0.144057 ,     0.153940 ,
		           -0.215664 ,     -0.042151 ,     0.335806 ,      -0.704547 ,     -0.078016 ,     -0.726241 ,     0.477092 ,      0.735183 ,      -0.052213 ,     -0.439271 ,
		           0.174934 ,      0.161887 ,      0.395734 ,      0.238818 ,      -0.081273 ,     -0.125543 ,     0.182343 ,      -0.812552 ,     0.241245 ,      -0.968663 ,
		           -0.183378 ,     -0.383125 ,     -0.194163 ,     -0.120602 ,     0.533201 ,      0.124810 ,      0.160472 ,      -0.251197 ,     0.063544 ,      0.231162 ,
		           0.073345 ,      0.479227 ,      -0.061863 ,     -0.271022 ,     -0.317142 ,     -0.075998 ,     0.270323 ,      0.503795 ,      -0.411121 ,     0.016802 ,
		           -0.192465 ,     0.193774 ,      -0.052938 ,     -0.394308 ,     0.172094 ,      0.140905 ,      -0.097928 ,     0.301527 ,      0.027595 ,      0.045225 ,
		           -0.211370 ,     -0.401410 ,     -0.024766 ,     -0.497906 ,     -0.243480 ,     -0.008386 ,     0.321871 ,      -0.062767 ,     0.374413 ,      0.313897 ,
		           0.413678 ,      -0.084069 ,     0.189198 ,      0.481591 ,      0.377334 ,      -0.186695 ,     0.222949 ,      -0.578412 ,     -0.155999 ,     -0.640134 ,
		           0.048416 ,      -0.000283 ,     -0.001675 ,     0.207783 ,      -0.393458 ,     0.119375 ,      -0.072475 ,     -0.105497 ,     -0.389087 ,     0.265428 ,
		   },
		  {        -0.605735 ,     -0.536973 ,     -0.766133 ,     -1.215443 ,     0.736102 ,      0.407248 ,      0.831689 ,      0.983088 ,      -0.849047 ,     -1.699822 ,
		           0.242145 ,      -0.458458 ,     -0.190224 ,     -0.161502 ,     0.225979 ,      -0.091731 ,     -0.038779 ,     -0.727896 ,     0.597725 ,      0.009993 ,
		           -0.127960 ,     -0.346929 ,     0.225128 ,      -0.693663 ,     -0.048595 ,     0.395621 ,      0.668090 ,      -0.582382 ,     -0.428047 ,     0.253593 ,
		           -0.143753 ,     0.634258 ,      -0.457044 ,     -1.171571 ,     0.542692 ,      0.412610 ,      0.366358 ,      -0.896013 ,     -0.216081 ,     -0.281409 ,
		           -0.170507 ,     0.095275 ,      0.406627 ,      -0.598256 ,     1.195569 ,      -0.145358 ,     -0.009859 ,     -1.059872 ,     -0.117847 ,     -1.236680 ,
		           -1.212855 ,     0.485692 ,      -0.594497 ,     -0.435940 ,     1.129205 ,      0.220074 ,      -0.085614 ,     -0.724419 ,     -0.441572 ,     -0.345307 ,
		           0.163328 ,      -0.097190 ,     -1.553521 ,     -2.406884 ,     0.599905 ,      1.522663 ,      -0.070651 ,     0.155127 ,      0.654862 ,      -1.623302 ,
		           -0.013144 ,     -0.311220 ,     -0.082857 ,     0.310244 ,      0.382688 ,      -0.450908 ,     0.439393 ,      -0.003590 ,     -0.120011 ,     -0.508642 ,
		           0.403030 ,      -0.501391 ,     0.055115 ,      -0.608034 ,     -0.523565 ,     0.025319 ,      0.361494 ,      -0.111612 ,     0.404147 ,      0.027798 ,
		           -0.008008 ,     -0.467988 ,     0.393548 ,      -0.607934 ,     0.354607 ,      -0.400250 ,     0.455615 ,      -0.346143 ,     0.204205 ,      0.331511 ,
		           0.056471 ,      -0.359431 ,     0.165705 ,      -0.233229 ,     0.264630 ,      0.024538 ,      0.198702 ,      0.173851 ,      -0.576974 ,     0.162942 ,
		           0.194285 ,      0.460049 ,      0.088456 ,      -0.241097 ,     0.127198 ,      -0.214599 ,     -0.032844 ,     0.520648 ,      -0.559628 ,     -0.462988 ,
		           -0.227388 ,     0.091184 ,      0.567624 ,      -0.246926 ,     0.227756 ,      -1.274850 ,     -0.388578 ,     -0.110367 ,     -0.002345 ,     0.222048 ,
		           0.031886 ,      0.817030 ,      0.384382 ,      0.525411 ,      0.542196 ,      -1.791875 ,     -0.157047 ,     -0.182957 ,     0.246793 ,      -1.030177 ,
		           -0.194007 ,     -0.384891 ,     -0.041100 ,     -0.266436 ,     0.441133 ,      -0.362134 ,     0.271359 ,      -0.132803 ,     -0.215045 ,     0.192829 ,
		           -0.099432 ,     -0.458994 ,     -0.059285 ,     -0.264972 ,     0.059489 ,      -0.131879 ,     0.406484 ,      -0.027971 ,     0.043514 ,      0.052223 ,
		           -0.091841 ,     -0.324686 ,     -0.023591 ,     -0.239323 ,     0.118940 ,      0.075437 ,      -0.060300 ,     -0.003310 ,     0.116187 ,      0.086299 ,
		           -0.221426 ,     0.259125 ,      -0.435695 ,     -0.335369 ,     -0.052720 ,     0.303089 ,      -0.126529 ,     0.246147 ,      -0.213353 ,     -0.181108 ,
		           -0.144097 ,     0.531089 ,      0.230495 ,      -0.241716 ,     0.348117 ,      -0.774941 ,     -0.102900 ,     0.530580 ,      -0.290798 ,     -0.566314 ,
		           0.603949 ,      0.107645 ,      0.590052 ,      -0.712157 ,     0.450339 ,      -0.033733 ,     -1.055193 ,     0.034185 ,      -0.103738 ,     -0.392894 ,
		           0.785140 ,      -0.670766 ,     0.061283 ,      -0.777843 ,     -0.226122 ,     -0.070341 ,     -0.833112 ,     -0.050557 ,     0.294335 ,      -0.049358 ,
		           0.412517 ,      0.167013 ,      -0.430069 ,     -0.459463 ,     -0.133013 ,     -0.417232 ,     0.328535 ,      0.860875 ,      0.442157 ,      -0.493602 ,
		           0.335693 ,      -0.009179 ,     -0.109382 ,     -0.657216 ,     -0.033048 ,     0.226478 ,      0.376378 ,      -0.377800 ,     0.264994 ,      -0.002466 ,
		           0.283267 ,      0.027286 ,      -0.215117 ,     -0.032019 ,     0.142380 ,      -0.065688 ,     0.263442 ,      -0.270629 ,     -0.242063 ,     -0.207620 ,
		           -0.148181 ,     0.417928 ,      -0.052771 ,     0.138734 ,      -0.388481 ,     0.037211 ,      -0.330563 ,     -0.269677 ,     0.453976 ,      -0.428765 ,
		           0.449786 ,      0.239658 ,      0.113170 ,      -0.253303 ,     -0.182969 ,     0.150799 ,      -0.429606 ,     0.090968 ,      -0.097244 ,     -0.106448 ,
		           0.296694 ,      0.554040 ,      0.070148 ,      -0.251377 ,     0.455778 ,      -0.028635 ,     -0.514709 ,     -0.010905 ,     -0.335673 ,     -0.009784 ,
		           0.448149 ,      -0.291179 ,     -0.034509 ,     -0.466760 ,     -0.038835 ,     0.418649 ,      -0.112301 ,     -0.007468 ,     -0.891231 ,     0.057275 ,
		           0.474742 ,      -0.442157 ,     -0.308272 ,     -0.333619 ,     -0.230359 ,     -0.367782 ,     0.098349 ,      0.366690 ,      0.270953 ,      0.152219 ,
		           0.171554 ,      -1.387462 ,     0.060735 ,      -0.217161 ,     0.086653 ,      -0.161831 ,     0.079348 ,      -0.171381 ,     0.169409 ,      -0.170061 ,
		           -0.277760 ,     0.098451 ,      -0.265766 ,     -0.024116 ,     0.343724 ,      0.021769 ,      0.094323 ,      -0.074574 ,     0.069942 ,      -0.328751 ,
		           0.036644 ,      0.353201 ,      -0.001671 ,     -0.011015 ,     -0.046549 ,     -0.352788 ,     -0.332826 ,     -0.285738 ,     0.244730 ,      -0.031049 ,
		           0.106821 ,      0.256763 ,      0.041939 ,      -0.404802 ,     0.153401 ,      0.233112 ,      0.284999 ,      0.012088 ,      -0.378028 ,     0.179929 ,
		           0.393152 ,      -1.526761 ,     0.287313 ,      0.159035 ,      0.198137 ,      0.117099 ,      -0.023904 ,     0.059675 ,      -0.262958 ,     -0.423848 ,
		           0.448621 ,      -0.038034 ,     0.057707 ,      0.284086 ,      0.378034 ,      -0.604830 ,     -0.145971 ,     -0.144487 ,     0.002149 ,      -0.187942 ,
		           -0.005308 ,     -0.224793 ,     0.245288 ,      -0.667495 ,     -0.020828 ,     0.114604 ,      -0.149675 ,     -0.430975 ,     0.242639 ,      0.339442 ,
		           0.080273 ,      -0.554248 ,     0.214773 ,      -0.676145 ,     -0.263189 ,     0.267736 ,      0.135889 ,      -0.567330 ,     0.273027 ,      0.247469 ,
		           0.310658 ,      -0.072525 ,     0.132731 ,      -0.528451 ,     0.648541 ,      0.133190 ,      -0.138183 ,     -0.108926 ,     0.088162 ,      -0.598470 ,
		           -0.165171 ,     0.214489 ,      -0.303794 ,     -0.293590 ,     0.339062 ,      -0.166638 ,     -0.078442 ,     0.382996 ,      -0.420833 ,     0.047374 ,
		           -0.477529 ,     -0.487497 ,     -0.269777 ,     -0.206603 ,     0.185735 ,      -0.299897 ,     -0.358899 ,     0.305887 ,      -0.263159 ,     0.533308 ,
		           -0.571528 ,     -0.813295 ,     -0.541143 ,     -0.219308 ,     0.395393 ,      0.062190 ,      -0.036067 ,     0.250552 ,      0.614176 ,      -0.003405 ,
		           -0.093289 ,     0.457574 ,      -0.820799 ,     -0.143829 ,     0.273958 ,      0.246412 ,      0.211262 ,      -1.016353 ,     0.301712 ,      0.529811 ,
		           -0.007266 ,     -0.372760 ,     -0.021601 ,     0.189808 ,      0.827727 ,      0.121493 ,      0.054034 ,      -0.297970 ,     -0.289451 ,     -0.034229 ,
		           0.056429 ,      0.225850 ,      0.196404 ,      0.000319 ,      0.323126 ,      -0.226666 ,     -0.090075 ,     0.092917 ,      -0.464682 ,     -0.038683 ,
		           -0.264500 ,     0.242497 ,      0.062565 ,      -0.014776 ,     -0.245561 ,     -0.186741 ,     0.282117 ,      -0.365832 ,     0.213375 ,      0.251182 ,
		           -0.758661 ,     0.305038 ,      -0.031631 ,     -0.013597 ,     0.256173 ,      -0.641926 ,     -0.000157 ,     0.180491 ,      0.180630 ,      -0.027025 ,
		           -1.798335 ,     0.250059 ,      -0.487614 ,     -0.427401 ,     0.469415 ,      -0.035180 ,     -0.866459 ,     0.475297 ,      -0.353642 ,     0.326429 ,
		           -1.701469 ,     0.528860 ,      0.156858 ,      -0.015846 ,     0.260293 ,      -0.361975 ,     -0.589139 ,     0.169092 ,      -0.118772 ,     0.289679 ,
		           -0.779373 ,     -0.247265 ,     0.020614 ,      -0.168400 ,     0.864970 ,      -0.232174 ,     -0.553755 ,     -0.077853 ,     -0.255030 ,     0.275864 ,
		   },
		  {        0.494754 ,      0.219268 ,      -0.356749 ,     0.145454 ,      -0.043647 ,     0.238019 ,      -0.420438 ,     0.148349 ,      -0.083277 ,     -0.360799 ,
		           -0.220537 ,     -0.616155 ,     0.455775 ,      -0.442083 ,     0.175886 ,      0.425343 ,      -0.683440 ,     0.231020 ,      -0.572595 ,     -0.084024 ,
		           -0.522353 ,     -0.844994 ,     0.033667 ,      0.280542 ,      0.373906 ,      0.257121 ,      -0.628426 ,     -0.041265 ,     -0.042186 ,     0.053403 ,
		           -0.271223 ,     -0.185664 ,     -0.143012 ,     0.494822 ,      0.065013 ,      -0.227325 ,     -0.569904 ,     0.241388 ,      -0.185680 ,     0.262731 ,
		           -0.036361 ,     -0.037488 ,     -0.359055 ,     0.152018 ,      0.013828 ,      -0.016824 ,     -0.128838 ,     0.164224 ,      0.120631 ,      0.398937 ,
		           0.267014 ,      -0.260675 ,     -0.076101 ,     0.147883 ,      -0.051876 ,     -0.001677 ,     -0.244303 ,     -0.498460 ,     0.184113 ,      0.358726 ,
		           0.239641 ,      0.182670 ,      -0.073352 ,     0.178869 ,      -0.420610 ,     -0.448832 ,     -0.595589 ,     0.009902 ,      0.248678 ,      0.333071 ,
		           0.343632 ,      0.166646 ,      0.120659 ,      0.113235 ,      0.164120 ,      -1.143364 ,     0.223840 ,      0.342362 ,      0.417015 ,      -0.767697 ,
		           -0.061789 ,     0.114184 ,      -0.025555 ,     0.540300 ,      -0.019436 ,     -0.141816 ,     -0.646389 ,     0.672029 ,      -0.368170 ,     -0.749481 ,
		           -0.135764 ,     -0.139199 ,     0.237881 ,      0.704491 ,      0.010199 ,      -0.801686 ,     -1.168375 ,     0.745646 ,      0.351496 ,      -1.072626 ,
		           0.378869 ,      -0.572833 ,     0.509499 ,      0.202932 ,      -0.346256 ,     -0.050072 ,     -0.973116 ,     -0.019606 ,     0.186682 ,      -0.179783 ,
		           0.372103 ,      -0.735532 ,     0.094155 ,      -0.203249 ,     -0.389968 ,     -0.373420 ,     0.102031 ,      0.017295 ,      0.210470 ,      0.265460 ,
		           0.239692 ,      -0.014769 ,     -0.217650 ,     -0.114073 ,     -0.231130 ,     0.160636 ,      0.495816 ,      0.105496 ,      -0.446551 ,     -0.048930 ,
		           0.387954 ,      0.972680 ,      -0.494664 ,     -0.395538 ,     -0.224553 ,     0.051949 ,      0.020514 ,      -0.004192 ,     0.223517 ,      0.299219 ,
		           -0.349540 ,     0.070654 ,      0.428871 ,      0.433107 ,      -0.495431 ,     -0.913888 ,     0.004942 ,      0.021250 ,      -0.321266 ,     0.182680 ,
		           -0.838677 ,     0.468612 ,      0.601521 ,      0.450280 ,      -0.302210 ,     -0.339176 ,     -1.252712 ,     0.308097 ,      -0.413907 ,     -0.633664 ,
		           -0.511435 ,     -0.344841 ,     0.892884 ,      0.213582 ,      -0.137646 ,     -0.343484 ,     -1.114644 ,     -0.094459 ,     0.230267 ,      -0.595607 ,
		           -0.102724 ,     0.664554 ,      0.347215 ,      -0.228979 ,     -0.355275 ,     -0.107503 ,     -0.309209 ,     0.320464 ,      -0.031345 ,     -0.324449 ,
		           -0.025527 ,     1.390428 ,      0.340814 ,      -0.438255 ,     -0.335006 ,     0.206656 ,      0.587544 ,      0.061977 ,      -0.549814 ,     -0.280194 ,
		           0.320116 ,      0.883735 ,      -0.121962 ,     -0.408519 ,     -0.481699 ,     -0.341823 ,     0.948226 ,      0.123641 ,      -0.518797 ,     -0.218388 ,
		           0.034879 ,      0.034380 ,      -0.041724 ,     -0.302999 ,     -0.246730 ,     -0.054571 ,     0.728717 ,      0.451502 ,      -0.423142 ,     0.094768 ,
		           -0.553905 ,     0.153296 ,      0.108902 ,      0.392886 ,      0.254482 ,      0.031046 ,      -0.817735 ,     -0.354679 ,     -0.114082 ,     0.078741 ,
		           -1.307669 ,     -0.263780 ,     0.361327 ,      0.313534 ,      -0.733079 ,     0.374933 ,      -1.021632 ,     0.496421 ,      0.119612 ,      0.014950 ,
		           -1.171619 ,     -0.096951 ,     0.005680 ,      0.172999 ,      -0.173876 ,     -0.026779 ,     -1.145819 ,     0.475450 ,      0.025237 ,      0.101316 ,
		           0.110369 ,      -0.281572 ,     0.199751 ,      -0.487517 ,     0.325031 ,      0.175511 ,      -0.507601 ,     0.430590 ,      -0.401330 ,     -0.252642 ,
		           0.154150 ,      -0.403248 ,     -0.196485 ,     -0.262898 ,     -0.486474 ,     0.596401 ,      0.537116 ,      -0.147057 ,     -0.666300 ,     0.108516 ,
		           -0.104447 ,     -0.192333 ,     0.010267 ,      -0.299016 ,     -0.594824 ,     0.157626 ,      0.357872 ,      0.418671 ,      -0.638990 ,     0.257477 ,
		           -0.606334 ,     0.459081 ,      -0.411780 ,     0.279382 ,      0.217605 ,      0.077981 ,      0.096327 ,      0.466989 ,      -0.430827 ,     -0.273372 ,
		           -0.019632 ,     0.088806 ,      0.226816 ,      0.522653 ,      -0.249527 ,     0.380216 ,      0.234252 ,      -0.752800 ,     -0.269837 ,     -0.103166 ,
		           -0.323846 ,     -0.251589 ,     -0.956346 ,     0.426846 ,      -0.358845 ,     1.226945 ,      -1.087478 ,     0.653552 ,      -0.589390 ,     0.046130 ,
		           -0.085384 ,     0.336958 ,      -0.666356 ,     0.582574 ,      -0.139774 ,     0.666302 ,      -0.779752 ,     -0.162822 ,     -0.598696 ,     -0.058896 ,
		           -0.264745 ,     0.675212 ,      -0.241042 ,     0.748694 ,      0.435738 ,      -0.519944 ,     -0.494757 ,     0.732272 ,      -1.028993 ,     -0.132819 ,
		           0.525813 ,      -0.083939 ,     -0.138538 ,     -0.229200 ,     -0.550581 ,     0.085004 ,      0.158842 ,      -0.332526 ,     0.062657 ,      -0.559561 ,
		           0.669185 ,      -0.141563 ,     -0.653017 ,     -0.155653 ,     -1.040455 ,     0.697043 ,      0.140023 ,      0.415178 ,      0.307519 ,      -0.622102 ,
		           0.494201 ,      0.032953 ,      0.482520 ,      -0.574976 ,     0.659271 ,      -0.191735 ,     0.230232 ,      -0.051003 ,     -0.180668 ,     -0.204554 ,
		           -0.372134 ,     0.413996 ,      -0.430807 ,     0.554199 ,      0.058125 ,      0.327404 ,      0.082324 ,      -0.483280 ,     0.002001 ,      -0.295898 ,
		           0.148673 ,      -0.086839 ,     -0.602300 ,     0.057613 ,      -0.583437 ,     0.488394 ,      0.013471 ,      -0.064711 ,     -0.552209 ,     0.704267 ,
		           -0.180935 ,     0.800568 ,      -0.363273 ,     0.696702 ,      -0.134067 ,     0.150469 ,      0.036174 ,      -0.610287 ,     -1.046345 ,     0.117374 ,
		           -0.340210 ,     1.248616 ,      -1.084736 ,     -0.188072 ,     -0.712286 ,     0.195186 ,      0.287298 ,      0.103659 ,      -0.140070 ,     0.580468 ,
		           0.331521 ,      0.541599 ,      -0.224282 ,     -0.284037 ,     -1.773135 ,     0.482082 ,      0.053720 ,      -0.263868 ,     -0.244470 ,     0.676680 ,
		           0.365506 ,      0.633789 ,      -0.088953 ,     0.172831 ,      -0.374319 ,     0.395888 ,      0.058843 ,      -0.625696 ,     -0.037540 ,     -0.762848 ,
		           -0.042773 ,     0.107305 ,      0.641202 ,      -0.542747 ,     -0.064113 ,     0.344684 ,      -0.201888 ,     -0.173935 ,     0.194356 ,      -0.588600 ,
		           0.070050 ,      -0.105811 ,     -0.134137 ,     0.518743 ,      0.511755 ,      0.142732 ,      -0.277458 ,     -0.768137 ,     -0.129338 ,     -0.268431 ,
		           0.225135 ,      -0.084276 ,     -0.025502 ,     0.421585 ,      -0.673459 ,     0.057452 ,      0.172920 ,      -1.134981 ,     0.084636 ,      -0.118153 ,
		           0.399198 ,      -0.057418 ,     -0.182249 ,     0.086330 ,      -0.700714 ,     0.144955 ,      0.392706 ,      0.024986 ,      0.072131 ,      -0.261615 ,
		           0.922276 ,      -0.225298 ,     -0.422672 ,     0.172541 ,      -0.372034 ,     -0.124469 ,     0.306330 ,      -0.432959 ,     0.015827 ,      0.063926 ,
		           -0.455202 ,     -0.571413 ,     0.840297 ,      0.034201 ,      0.417007 ,      -0.278495 ,     -0.196858 ,     0.303416 ,      -1.139606 ,     0.136445 ,
		           -0.663925 ,     -0.887352 ,     1.453188 ,      -0.371254 ,     0.209168 ,      -0.147447 ,     -0.620646 ,     -0.389841 ,     -0.755204 ,     0.290421 ,
		           -0.360840 ,     -0.377383 ,     1.517145 ,      -0.755122 ,     -0.313511 ,     -0.736443 ,     -0.517633 ,     0.002136 ,      -0.550301 ,     0.734985 ,
		   },
		  {        0.019953 ,      -0.286285 ,     0.636751 ,      -0.006068 ,     0.149846 ,      -0.538351 ,     -0.242638 ,     -0.229554 ,     0.552872 ,      -0.844581 ,
		           -0.233498 ,     -1.377584 ,     -0.198402 ,     -0.650871 ,     0.775907 ,      0.470529 ,      -0.342754 ,     0.109908 ,      0.104460 ,      0.251953 ,
		           -0.043977 ,     0.497786 ,      -0.275838 ,     -0.108938 ,     0.672282 ,      -0.143348 ,     -0.433688 ,     -0.504640 ,     0.086935 ,      0.325407 ,
		           0.023138 ,      0.093304 ,      0.067251 ,      -0.126073 ,     -0.365585 ,     -0.194386 ,     0.025906 ,      -0.049987 ,     0.166180 ,      0.070083 ,
		           0.833529 ,      0.235418 ,      0.100735 ,      -0.400147 ,     -0.061449 ,     -0.096039 ,     -0.573201 ,     -0.578641 ,     0.159827 ,      0.156626 ,
		           -0.175058 ,     -0.141991 ,     0.169560 ,      0.181347 ,      -0.239119 ,     -0.451451 ,     -0.419876 ,     -0.112389 ,     0.180123 ,      0.386782 ,
		           0.770311 ,      0.681737 ,      -0.082220 ,     -0.418417 ,     0.183637 ,      -0.377664 ,     -0.072122 ,     0.301535 ,      -0.015664 ,     -0.403178 ,
		           -0.479668 ,     0.212328 ,      -0.299594 ,     -0.639850 ,     -0.818288 ,     0.335077 ,      0.183073 ,      0.476368 ,      1.065980 ,      0.272836 ,
		           -0.542819 ,     -1.171626 ,     -0.438402 ,     0.789332 ,      0.570579 ,      -0.128028 ,     -0.545483 ,     0.177399 ,      -0.155549 ,     0.140146 ,
		           0.141181 ,      0.156302 ,      -0.253633 ,     0.360912 ,      0.029940 ,      -0.686117 ,     -0.188007 ,     -0.221445 ,     0.505424 ,      -0.051439 ,
		           -0.120376 ,     -0.027529 ,     0.381608 ,      -0.205843 ,     -0.136679 ,     -0.127030 ,     0.019511 ,      0.018715 ,      -0.223609 ,     0.291539 ,
		           0.467127 ,      0.574394 ,      0.071499 ,      -0.083152 ,     0.362502 ,      -1.115459 ,     -0.623482 ,     -0.153631 ,     0.263753 ,      -0.080667 ,
		           0.712774 ,      -0.331171 ,     0.128974 ,      -0.434781 ,     0.513247 ,      -0.036631 ,     -0.859586 ,     -0.035840 ,     0.120584 ,      0.044258 ,
		           0.189672 ,      -0.235783 ,     -0.226857 ,     -0.100506 ,     0.132095 ,      -0.591195 ,     -0.178759 ,     -0.066561 ,     0.214439 ,      0.126068 ,
		           -0.379031 ,     0.884389 ,      -0.339153 ,     0.140683 ,      0.289325 ,      -0.024547 ,     0.232264 ,      -0.419792 ,     0.170022 ,      0.038670 ,
		           -0.450406 ,     0.543673 ,      -0.564956 ,     0.331267 ,      0.079783 ,      0.177290 ,      0.198623 ,      -0.793222 ,     -0.086564 ,     0.611431 ,
		           0.429819 ,      -1.093296 ,     -0.458704 ,     -0.552420 ,     0.392812 ,      -0.332271 ,     -0.030331 ,     -0.375909 ,     0.556288 ,      0.486343 ,
		           1.156868 ,      0.007782 ,      -0.492953 ,     -0.130924 ,     -0.478473 ,     0.262376 ,      0.455231 ,      -0.577610 ,     0.063892 ,      0.396233 ,
		           -0.678013 ,     -0.570216 ,     -0.135328 ,     -0.222081 ,     -0.000881 ,     -0.078549 ,     0.854296 ,      -0.730880 ,     0.867326 ,      0.173877 ,
		           0.046667 ,      -0.108868 ,     0.551505 ,      0.024658 ,      0.157990 ,      -0.335065 ,     -0.131123 ,     0.156009 ,      -0.027554 ,     -0.396381 ,
		           0.712422 ,      0.229876 ,      -0.433933 ,     -0.434830 ,     0.190159 ,      0.258918 ,      0.165794 ,      -0.054489 ,     0.257612 ,      -0.549893 ,
		           0.528634 ,      0.231356 ,      0.188084 ,      -0.214797 ,     -0.243413 ,     -0.333040 ,     0.621223 ,      -0.784934 ,     -0.198290 ,     0.450769 ,
		           0.375388 ,      0.618727 ,      0.000121 ,      -0.216332 ,     0.082443 ,      0.824878 ,      -0.469214 ,     -0.602288 ,     -0.170433 ,     -0.117573 ,
		           0.620230 ,      0.418743 ,      0.898718 ,      -0.203856 ,     0.139676 ,      0.524175 ,      0.194908 ,      -0.969551 ,     -0.239429 ,     -0.524042 ,
		           -0.547013 ,     0.604364 ,      0.034603 ,      0.341853 ,      -0.197370 ,     -0.050221 ,     -0.008887 ,     -0.122577 ,     0.050872 ,      -0.256159 ,
		           -0.117951 ,     -0.920216 ,     0.672698 ,      0.686032 ,      -0.390558 ,     -0.036440 ,     0.480903 ,      -0.197900 ,     0.048737 ,      -0.327460 ,
		           0.551076 ,      -0.155373 ,     0.375205 ,      -0.483228 ,     0.243605 ,      -0.370614 ,     -0.225450 ,     -0.058040 ,     0.148599 ,      0.266039 ,
		           0.231131 ,      -0.389720 ,     0.160059 ,      0.664218 ,      -0.227787 ,     0.020664 ,      -0.119650 ,     -0.042941 ,     0.572132 ,      -1.413045 ,
		           0.650988 ,      -0.957972 ,     0.357863 ,      -0.137277 ,     -0.447011 ,     0.649571 ,      1.063427 ,      -0.590211 ,     -0.133393 ,     -0.622284 ,
		           0.896885 ,      -0.811195 ,     0.633600 ,      -0.530433 ,     -0.769349 ,     -0.568117 ,     -0.185485 ,     -0.193590 ,     0.521292 ,      0.223455 ,
		           0.229999 ,      -0.573391 ,     0.415244 ,      -0.485857 ,     0.768120 ,      -0.640807 ,     -0.580585 ,     -0.159921 ,     0.179366 ,      0.006192 ,
		           0.270086 ,      -0.154016 ,     0.121114 ,      -0.447927 ,     -0.166508 ,     0.215584 ,      0.359582 ,      -0.460152 ,     0.562041 ,      -0.193012 ,
		           -0.366492 ,     -0.009938 ,     0.738950 ,      0.045096 ,      -0.384044 ,     -0.030000 ,     0.546350 ,      -0.416775 ,     0.286988 ,      -0.520254 ,
		           -0.633608 ,     0.668389 ,      -0.222379 ,     0.099795 ,      0.058136 ,      0.085743 ,      0.068000 ,      0.374436 ,      0.472753 ,      -1.140912 ,
		           0.371959 ,      0.084104 ,      -0.251923 ,     -0.336122 ,     -0.163669 ,     0.450775 ,      -0.369721 ,     0.363007 ,      0.314886 ,      -0.576578 ,
		           -0.010778 ,     0.525354 ,      -0.750120 ,     -0.339095 ,     -0.799023 ,     0.237807 ,      0.507063 ,      0.528622 ,      0.306871 ,      0.202241 ,
		           -0.187047 ,     0.055943 ,      0.128502 ,      0.037382 ,      0.425608 ,      -0.593642 ,     -0.114365 ,     -0.412326 ,     0.033719 ,      0.768204 ,
		           -0.049146 ,     -0.815024 ,     0.200145 ,      -0.349157 ,     -0.307679 ,     -0.146450 ,     -0.012256 ,     0.357354 ,      0.248894 ,      0.221598 ,
		           0.413175 ,      -0.735235 ,     0.131429 ,      -0.130505 ,     -1.017894 ,     0.066205 ,      0.422339 ,      0.041050 ,      -0.350099 ,     0.526920 ,
		           0.213899 ,      0.237985 ,      0.245988 ,      -0.092893 ,     -0.577628 ,     -0.002298 ,     0.145344 ,      -0.262000 ,     -0.040524 ,     -0.008018 ,
		           0.049364 ,      -0.413764 ,     0.223683 ,      -0.163875 ,     -1.381686 ,     0.083520 ,      0.157247 ,      -0.320090 ,     0.377708 ,      0.346508 ,
		           -0.579919 ,     0.447894 ,      -0.469236 ,     0.001658 ,      -0.437461 ,     -0.284120 ,     0.204907 ,      0.515917 ,      0.263337 ,      0.477622 ,
		           -0.034282 ,     -0.166979 ,     -0.987068 ,     -0.191541 ,     0.623719 ,      -0.185004 ,     -0.645549 ,     0.682593 ,      0.384497 ,      -0.091360 ,
		           0.108619 ,      0.841651 ,      -0.899879 ,     -0.291346 ,     0.440642 ,      -0.204643 ,     -0.454547 ,     0.790078 ,      -0.127252 ,     0.133494 ,
		           -0.218156 ,     0.428048 ,      -0.534882 ,     0.353313 ,      -0.075200 ,     -0.019511 ,     0.398573 ,      0.446029 ,      -0.373188 ,     -0.439688 ,
		           0.001224 ,      -0.537576 ,     -0.223690 ,     0.062344 ,      -0.343742 ,     0.255195 ,      0.001460 ,      0.074132 ,      -0.022780 ,     0.087462 ,
		           0.292540 ,      -1.270849 ,     0.176256 ,      0.562212 ,      -0.861123 ,     -0.077586 ,     0.625166 ,      -0.392793 ,     0.103513 ,      0.082076 ,
		           -0.472381 ,     -0.547651 ,     -0.180775 ,     0.491795 ,      0.531295 ,      -0.000769 ,     0.447157 ,      -0.393919 ,     -0.007156 ,     -0.199328 ,
		           -0.820521 ,     -0.315584 ,     -0.177135 ,     0.304565 ,      -0.128891 ,     0.609322 ,      -0.300321 ,     0.040872 ,      -0.432151 ,     0.786237
		   }};


				 float denseBias[10]={ 0.27177012,  0.48242897,  0.24361967, -0.6140696 , -0.28997612,
										0.1131056 ,  0.13771407,  0.0744302 , -0.35830608,  0.1695491 };

